tree
version=v4
num_class=1
num_tree_per_iteration=1
label_index=0
max_feature_idx=55
objective=binary sigmoid:1
feature_names=salary_delay_days salary_amount_drop_pct balance_wow_drop_pct upi_lending_spike_ratio upi_lending_total_amount utility_payment_latency discretionary_contraction discretionary_txn_count atm_withdrawal_spike atm_amount_spike failed_auto_debit_count failed_auto_debit_amount failed_utility_count credit_utilization_delta emi_to_income_ratio dpd_30_last_12m missed_emi_streak savings_runway_months revolving_utilization credit_enquiries_3m p2p_transfer_spike investment_redemption_pct drift_salary drift_balance drift_lending drift_utility drift_discretionary drift_atm drift_auto_debit drift_credit_card composite_drift_score flag_salary flag_balance flag_lending flag_utility flag_discretionary flag_atm flag_failed_debit flag_emi_burden flag_high_utilization total_stress_flags ead_estimate total_txn_count total_txn_amount income_coverage_ratio monthly_income is_salaried is_self_employed is_mass_retail is_affluent tenure_months balance_zscore salary_delay_zscore atm_spend_zscore lending_spend_zscore emi_reliability_score
feature_infos=[0:24.678635839183372] [0.00097098060020472813:70] [-25:41.62820634190134] [0.20000000000000001:12] [0.17053978702614131:65397.608229163437] [0.00010903612320877915:42.552495589896957] [-45:63.027590699733601] [2:48] [0.29999999999999999:9.9588355849468506] [0.24174751643966882:8.5031571924695353] [0:11] [0:59841.807476686306] [0:6] [-45:51.669345649440992] [0.22604337402513258:0.83620999114843741] [0:9] [0:8] [0.10000000000000001:24] [2:96.317089078333112] [0:7] [0.29999999999999999:6.9938377949254553] [0.00076812417117574016:30.37139183254078] [-1.0368486944421704:3.7712661372947056] [-2.409228222269197:3.3699883007341822] [-0.60014164933122582:2.8878814077300072] [-0.87829661093878575:4.0780622987431929] [-2.4413529177889264:3.5165831516757873] [-0.80089042560883361:3.1023653248918435] [-0.83031238745833102:4.7753684377916166] [-3.1649729767210419:3.9079205831853789] [0.038097915048630721:1.2808737860909238] [0:1] [0:1] [0:1] [0:1] [0:1] [0:1] [0:1] [0:1] [0:1] [0:6] [98498.557030803611:5000000] [14:87] [3355.9899803592261:695154.9970369339] [0.15331672549874928:6.1949947004871726] [12000:600000] [0:1] [0:1] [0:1] [0:1] [3:143] [-2.9513575729690471:3.5405309453500773] [-1.0252982019620536:5] [-1.7600343244325667:5] [-1.7186415475475045:5] [0:1]
tree_sizes=5646 6106 6392 5381 5703 4780 5292 5980 5895 5379 5201 5393 5551 5692 6527 6297 5473 5460 4969 6105 5496 5091 6448 5191 4747 5984 6227 6105 5499 6558 5089 5527 6342 5674 5203 5925 5812 6137 5825 4880 5145 5867 5291 6499 6648 4037 4883 5167 5280 5184 5470 5789 5697 5659 4521 5200 4330 4476 4419 5508 4639 3712 6041 4462 3885 4593 4351 5189 4210 4673 4478 4639 4876 6131 5188 4194 6308 4035 5978 6431 4660 3875 5302 5087 3710 6348 4885 3490 4564 3533 3402 3599 3932 3917 4551 3276 3574 3075 2330 4018 3159 4653 4971 4905 5397 5480 4481 4661 4144 3947 5077 5066 5804 5747 4327 3383 3200 4980 4215 5626 3374 4454 3820 5170 4236 2559 2014 2357 3104 3078 3513 4798 5948 4367 3508 3091 3625 2746 3348 3420 5855 3740 5695 3188 4855 3034 2328 3625 2632 3082 3618 4895 3092 2965 3165 2995 3924 3716 2870 3176 3161 3513 4038 5297 4866 2600 6686 3271 3776 3190 4000 4660 4647 4330 3071 1818 2232 3681 2111 4464 3226 2878 2360 3161 2776 1481 6145 3913 1916 3095 3094 4847 5232 4773 4582 3593 3817 4575 4872 3917 3264 2036 2723 2322 3937 4956 4036 3934 4159 4594 4568 4128 4441 4773 5703 5368 2955 3292 5047 2563 2438 5222 5600 3894 3290 2372 6031 3173 2768 3108 4672 5934 4837 4240 4768 5971 5193 3595 3173 5677 5093 5348 2978 5054 2762 3513 3522 4201 2813 3609 4748 5158 3191 4016 4410 5645 5599 2546 2521 6110 3423 2468 2152 2352 2725 1898 2971 2331 2200 1968 4231 5108 4234 4265 3762 4761 2624 4965 5164 3288 3168 3388 3001 3792 2998 4031 4845 4623 4711 5553 3536 2346 3951 3747 3378 2549 2544 2445 4118 3683 2655 3602 4362 4536 5083 3197 3735 5288 4693 4229 4929 4981 5243 5579 3956 4169 3987 2971 3320 4117 5134 3794 4957 3798 3067 4426 4179 4726 4139 3083 2743 2905 2262 3102 4290 3523 4540 3049 3643 3426 3242 3060 3131 2004 4955 4997 4251 4881 5682 3993 6235 4961 5278 5217 6130 4653 5038 2131 2746 2701 4138 3816 3368 4156 2810 5933 6331 3880 4140 5359 3603 3800 4114 3609 3369 3994 3162 3304 4964 4039 3007 5042 4527 4361 3524 2429 3270 1844 3198 2631 6402 6746 5459 5677 1724 2654 3354 3388 2183 3063 4311 5066 5254 3159 4225 2954 2238 3047 3625 4240 5895 5988 4284 6271 5273 2241 2323 3316 2536 3090 2453 2475 3126 1827 5333 3934 3687 4548 3060 4428 3509 3664 2978 2024 3479 4435 3991 4389 3366 4316 4520 2763 4841 4748 3971 3242 3478 3404 1661 3466 5187 4170 3915 3680 4223 2426 2142 4343 4228 2541 3978 4382 5322 4109 3494 2744 3763 2143 2537 3966 4745 3621 4069 3303 3469 4529 4735 5095 5213 4617 3759 5100 4040 5006 3955 4704 4724 4957 4582 4295 3608 4000 4061 3169 4124 2997 4871 3728 4065 5838 5371 5301 4982 4324 5488 3102 2789 2965 3147 4167 2689 4837 3495 2640 3405 5785 3883 3171 3585 4143 4102 3486 3531 4244 3637 5113 5116 4454 5181 5397 3980 5012 2462 4686 3253 4792 3831 5048 3391 2725 3641 5827 3837 4126 6640 2860 2995 3731 3501 4625 2304 2504 2215 2116 2764 2625 5697 3790 6457 5023 3189 3459 3279 3894 2612 5056 4538 5056 5929 5503 5472 3908 5023 4891 3686 4696 4959 4964 4035 6068 5441 4900 4928 5920 3352 3914 4501 4223 4256 3743 2020 2685 4430 2427 2851 2697 2691 5393 5296 3896 5153 6089 5831 2096 4758 4199 3719 3414 3458 5125 4253 4523 3303 4427 4035 3386 2135 2962 2854 2336 5151 4641 3737 4853 4642 4030 2517 1782 2620 2873 5312 4049 3871 3165 4944 6012 4983 2996 3113 2315 5339 3757 5257 4985 4849 4689 4218 5191 4209 5564 3251 3814 4652 4338 3991 2713 2000 2645 3057 1867 2960 3307 3296 2501 2320 4722 4747 4605 3707 5550 2003 1599 4274 4461 4069 5352 6482 4866 5440 2916 5659 3842 4149 2119 3964 2181 2518 5268 3853 3256 3686 6098 3714 3666 4292 4079 3823 3728 5661 3890 4517 5239 4386 6607 3353 3752 4489 4616 4656 3420 4591 6722 4169 4493 3953 2954 2788 4478 2826 2302 5768 4397 4825 4837 5469 2155 4444 2541 3266 2476 5385 5001 4509 5898 4965 5492 6559 3636 3725 5696 3093 3457 5826 4230 5029 6092 6128 4995 5847 6086 5806 6008 4536 4493 5569 4966 5403 3480 3631 5837 3453 2932 3513 2588 3660 5674 4042 3978 3345 3032 3807 4245 4231 3334 4787 4034 2408 2495 2397 3285 4323 3768 5329 5005 3815 3842 4021 4676 3156 3398 6510 2809 6258 4891 4387 3189 3309 4339 2961 2992

Tree=0
num_leaves=53
num_cat=0
split_feature=48 30 44 16 44 11 16 11 1 44 54 23 2 20 13 13 17 52 18 51 44 2 30 23 17 54 43 2 30 43 9 44 14 14 14 11 21 52 1 23 2 44 23 9 30 51 18 11 18 1 26 16
split_gain=2132.86 376.199 207.693 163.095 156.873 85.4621 82.9729 75.0699 60.2694 58.6397 55.8041 46.5949 44.84 35.3528 38.2294 34.5448 32.6537 31.5789 29.2062 28.4007 28.049 25.4821 23.5781 22.6163 21.1442 35.1337 19.8915 19.0923 20.7882 18.1102 17.933 14.4063 23.0788 14.0121 13.4896 12.819 12.6926 11.1013 9.64373 20.3851 8.38551 7.01108 7.08559 5.72277 5.4594 5.1004 5.8984 3.9941 2.55239 3.82526 1.38889 0.0213161
threshold=1.0000000180025095e-35 0.64574617656965227 1.4203444921425452 1.0000000180025095e-35 2.5426317819304214 3941.5867346614991 1.0000000180025095e-35 745.51304229873983 8.285440820884153 1.4408772370371243 1.1206644645452788 -0.95717340122363648 1.0190225703201663 1.7460977722417987 -5.4637111144936128 -4.4887352897574724 5.5557429046302262 0.28157760123929226 42.964326687309352 1.0189863342321299 1.4477817231223096 -5.2930991785101851 0.84221611449869849 0.48685192253063642 2.6861586597034259 1.0148707343289456 38083.399878704142 7.8785490224266566 0.52306805161669601 13482.729515361612 1.1053851557180088 0.80591712606095911 0.51780164224727987 0.49838868841441736 0.44372776339341696 3539.599311676649 1.0044369560654076 -0.17596792662160218 5.6487156597746635 0.41275668860517617 -1.7556820917433484 0.92107698777914793 0.82174737970192813 1.8725874016206057 0.28518794435020922 -0.08289386013036705 26.85641628805983 2018.5623849161059 47.081122098798083 1.485943299905794 1.0091602584045962 1.5000000000000002
decision_type=2 2 2 2 2 2 2 2 2 2 2 2 2 2 2 2 2 2 2 2 2 2 2 2 2 2 2 2 2 2 2 2 2 2 2 2 2 2 2 2 2 2 2 2 2 2 2 2 2 2 2 2
left_child=3 2 7 24 6 10 9 8 13 11 12 -3 43 14 -2 26 20 -14 -7 22 27 -10 -11 -15 25 31 -9 28 -5 -8 -13 32 -1 -23 40 -6 -36 -18 44 -40 -17 42 45 -4 -33 -26 -47 -31 50 -50 -43 -49
right_child=1 4 5 16 35 18 29 15 21 19 -12 30 17 23 -16 34 37 -19 -20 -21 -22 33 -24 -25 41 -27 -28 -29 -30 47 -32 38 -34 -35 36 -37 -38 -39 39 -41 -42 48 -44 -45 -46 46 -48 51 49 -51 -52 -53
leaf_value=-0.94308694799801884 -0.91747395508838181 -0.8667582814576098 -0.95119635101459399 -0.90271484912403832 -0.93327930741343568 -0.87944381193272569 -0.83179926701045726 -0.88824415055288253 -0.88068705537109748 -0.87943580493818385 -0.84496137774381552 -0.82127602859039528 -0.9136574686273804 -0.86788937499648844 -0.86715258985200228 -0.85740572060056142 -0.90167440697481327 -0.86086861052340724 -0.79776514411503729 -0.81305625985835983 -0.9139455780234067 -0.84108793637957868 -0.81751244146990432 -0.80062741170628249 -0.95999797531683995 -0.86988674673874089 -0.82545063076720238 -0.81467206153726424 -0.83701036388642069 -0.8113402998806104 -0.79571951841109057 -0.9212746416827583 -0.86152501111166924 -0.80117236409848558 -0.83373387821668277 -0.8758900135629325 -0.78815756391842395 -0.95778269448927167 -0.95190063123607682 -0.88133273862532935 -0.81616617538211045 -0.95870279207324138 -0.90552385934792112 -0.91271810674218623 -0.94864606862229994 -0.94695910558060792 -0.9077512488555568 -0.78828062714318503 -0.91783658011389746 -0.95768938657201852 -0.93527817343390685 -0.77398506585340854
leaf_weight=12.085378766059877 31.702319502830505 22.638048052787781 40.572410821914673 16.552471280097965 14.739806890487673 12.959189355373384 17.199580132961273 17.25378280878067 13.164210021495817 46.635831773281097 20.879111588001251 84.228123664855957 55.926804959774017 17.642143070697784 94.943875730037689 14.879784345626829 14.610195219516756 26.198808372020721 17.167058527469635 24.299419701099396 14.826056420803068 30.039998352527618 12.710806548595427 16.86494779586792 19.887004613876343 12.646238088607786 16.379497468471527 15.149373471736906 14.761013209819792 18.095071792602539 147.50077724456787 15.139007687568663 9.5817686319351179 39.72922283411026 16.692448735237122 10.099740564823149 58.385153949260712 8.4058473110198957 13.218412697315218 12.042016625404356 31.625961005687714 143.28776454925537 8.686276972293852 8.3841662406921369 123.54073739051819 15.365709424018862 11.243615031242369 94.941976726055145 9.4092695713043231 8.2008266448974592 8.3950067758560163 84.518444359302521
leaf_count=56 134 78 192 66 66 47 50 65 48 170 65 234 233 61 329 49 58 88 41 64 62 92 34 41 97 44 46 40 44 47 354 65 32 98 49 36 133 41 63 44 85 693 35 35 579 72 46 217 40 40 38 175
internal_value=-0.905524 -0.834447 -0.857259 -0.932771 -0.811555 -0.892782 -0.807139 -0.841119 -0.85522 -0.819866 -0.905131 -0.810194 -0.914779 -0.869766 -0.879842 -0.819209 -0.882144 -0.896828 -0.831705 -0.849735 -0.866898 -0.827406 -0.865472 -0.833847 -0.942909 -0.933134 -0.856729 -0.851685 -0.87089 -0.787359 -0.804796 -0.937575 -0.906331 -0.817722 -0.809122 -0.90937 -0.797698 -0.922196 -0.941619 -0.91794 -0.828582 -0.951424 -0.937936 -0.944962 -0.945798 -0.944084 -0.931115 -0.783708 -0.955663 -0.937808 -0.957567 -0.781204
internal_weight=0 1159 581.391 507.034 577.608 182.088 552.768 399.303 244.087 338.013 151.961 254.367 131.082 161.153 126.646 155.217 84.305 82.1256 30.1262 83.6461 61.2889 82.9334 59.3466 34.5071 422.729 198.254 33.6333 46.4629 31.3135 214.755 231.729 185.607 21.6671 69.7692 121.583 24.8395 75.0776 23.016 163.94 25.2604 46.5057 224.475 55.1826 48.9566 138.68 46.4963 26.6093 197.555 169.293 17.6101 151.683 179.46
internal_count=5711 3456 1931 2255 1525 701 1423 1230 803 934 613 666 548 565 463 427 311 321 88 268 212 238 204 102 1944 883 111 150 110 489 588 839 88 190 316 102 182 99 751 107 134 1061 250 227 644 215 118 439 811 80 731 392
is_linear=0
shrinkage=1


Tree=1
num_leaves=57
num_cat=0
split_feature=48 40 16 43 43 55 28 45 55 23 13 8 51 17 43 1 4 25 19 18 28 17 3 51 17 42 13 41 17 21 55 54 21 54 4 20 16 16 3 40 45 4 26 22 52 9 19 6 23 17 26 4 3 51 21 18
split_gain=1900.07 451.096 153.216 97.5038 70.4189 68.1848 53.4062 53.288 51.4684 49.9374 48.9146 41.7604 41.3409 31.235 30.494 28.7939 27.4137 26.714 25.2751 21.5874 21.1894 20.4921 32.8603 21.5618 19.8165 25.2569 19.5918 19.431 19.3809 18.6839 17.8061 18.977 25.1491 16.8663 15.9769 14.4086 13.9009 13.5768 13.2108 11.2105 11.0943 10.9989 10.9147 10.3172 8.65159 7.93682 7.52426 7.0327 7.33204 8.29523 3.83915 3.38449 3.65529 2.76083 1.01564 0.946112
threshold=1.0000000180025095e-35 1.5000000000000002 1.0000000180025095e-35 19463.614151035123 10800.706930010927 0.89574729773779382 0.40272774732956407 28149.191386815754 0.67770733527781724 0.083058644267448745 1.0000000180025095e-35 0.79284494468805777 0.028097498423149094 2.979161952000394 20798.441440817933 9.5608774400948029 7647.1422452991801 0.24986855837521915 1.0000000180025095e-35 21.960523304301194 0.5184162641077984 2.6861586597034259 1.6885562996473606 0.5003922994700023 3.5859356424152549 64.500000000000014 6.088200823993799 2713819.1521726842 1.143664860528808 5.1496598890902323 0.65089483409707871 1.0376863609864146 3.9112874017550285 0.59942495937532847 6017.1224008001736 1.0554931883397205 1.0000000180025095e-35 1.5000000000000002 1.0268175565509663 2.5000000000000004 230296.30843112979 2092.4649369968379 0.44689839992683289 -0.29212237913534522 0.041609023268451888 1.028999723579066 1.5000000000000002 20.992638790010613 0.82174737970192813 5.6540316569982592 0.83614975378093126 6355.6645955640915 1.1123872317482173 -0.98415071985098568 5.0495025026134819 52.272863509860152
decision_type=2 2 2 2 2 2 2 2 2 2 2 2 2 2 2 2 2 2 2 2 2 2 2 2 2 2 2 2 2 2 2 2 2 2 2 2 2 2 2 2 2 2 2 2 2 2 2 2 2 2 2 2 2 2 2 2
left_child=2 3 21 7 34 30 12 9 -4 20 15 18 13 14 -6 17 28 -7 -12 26 29 22 27 -24 25 42 -14 43 -11 -2 -5 32 -32 36 -3 -13 54 38 39 -8 -29 -26 -10 -1 -17 -18 -21 48 51 -50 -45 55 -53 -40 -9 -23
right_child=1 4 8 5 6 10 37 33 24 16 11 35 19 -15 -16 44 45 -19 -20 46 -22 47 23 -25 41 -27 -28 40 -30 -31 31 -33 -34 -35 -36 -37 -38 -39 53 -41 -42 -43 -44 50 -46 -47 -48 -49 49 -51 -52 52 -54 -55 -56 -57
leaf_value=-0.010119517566389747 -0.038958539378972583 0.001725886651707654 0.07213564910892202 0.10667034136883144 0.023187661598724093 -0.021646501969478593 0.068374701056455614 -0.054231438695702003 -0.029565478581806401 0.050741672117902821 -0.017856421660012719 0.051197373315774612 0.033989623652242569 0.014339698747819653 0.082029896238760003 0.031886295536297488 0.05072198227636248 0.024436306669090531 0.041459927926696304 0.091799044945997249 0.043620151571666758 -0.053147549471046121 -0.01270759436758151 0.058652529614938928 -0.052984461707325209 0.064660922448052521 0.093747789528882172 0.015975707984933082 -0.0026838186489885184 0.02632819445123297 0.040943766155921574 0.11375923672851426 0.081806132679198409 0.024515966974247436 0.057210492710622507 0.082188671975349764 0.0081637857713232585 0.12033045415290711 0.083932371128512748 0.10465528346083054 -0.034732049945610556 -0.00070963525269960779 0.027323235142800072 -0.046363294359254077 0.080558587998226322 0.09765423833094998 0.11492828534051533 -0.007136195824269588 -0.006256102678728879 -0.047557895476837586 -0.018926042960453422 -0.016983776585162338 -0.051993492924546754 0.11263438661327622 -0.029732057401774186 -0.033180517450803512
leaf_weight=17.738597840070724 24.135959759354591 15.01410925388336 23.46584564447403 24.294034987688065 18.302888080477715 31.61352826654911 42.873911559581757 19.362649157643322 11.880158230662348 24.472202613949776 15.653866082429884 52.637575715780258 19.24174103140831 19.165660485625267 79.871259734034538 15.267228975892069 13.456344872713091 53.293291181325912 38.868971943855286 92.373516499996185 10.513632014393805 146.39764206111431 18.601196974515918 10.016851931810377 10.823401898145677 13.53664220869541 18.626045137643814 17.670370072126392 18.498438939452171 9.2726156115531904 55.060427099466324 12.938375115394591 47.947132542729378 9.4869614094495756 19.623698621988297 57.087800681591034 8.9050463289022428 96.649072334170341 16.443471923470497 28.267041638493538 10.69906212389469 16.260675370693207 9.1285855919122678 109.86953268945217 11.862391769886015 16.932241573929787 54.738567814230919 8.4655083417892438 16.321426093578339 16.224795073270798 11.302257299423216 13.343887194991114 9.4492789953947049 91.336813375353813 8.3876266181468946 9.9068415164947492
leaf_count=76 111 59 67 53 66 136 121 95 53 77 66 165 65 71 212 52 42 191 128 229 34 725 79 31 53 40 45 68 74 33 180 27 126 34 60 151 34 192 42 63 50 66 32 529 31 41 117 36 69 79 50 59 47 195 38 46
internal_value=0 0.0662932 -0.0264948 0.0409278 0.0902475 0.0512071 0.0935846 0.0145942 0.0222413 0.0289388 0.0394823 0.0534087 0.0815132 0.0621955 0.0713201 0.0188417 0.0490613 0.00711649 0.0242053 0.0935418 -0.00453877 -0.0365045 -0.0268407 0.0123204 0.00270759 0.0228482 0.0643692 -0.0336254 0.0276532 -0.020386 0.0740425 0.0667597 0.060323 -0.0215434 0.0337969 0.0676704 -0.0339241 0.106647 0.0989366 0.0834627 -0.00294779 -0.0225035 -0.00423738 -0.039778 0.0544654 0.0781909 0.100775 -0.0449866 -0.0464276 -0.0275373 -0.0439735 -0.0497246 -0.0326614 0.108693 -0.0477804 -0.0520465
internal_weight=0 1192.48 501.103 579.948 612.528 416.525 577.89 163.424 85.0953 117.281 276.285 164.248 302.32 117.34 98.1741 112.036 73.3592 84.9068 54.5228 184.98 43.9222 416.007 195.898 28.618 61.6295 34.5454 37.8678 167.28 42.9706 33.4086 140.24 115.946 103.008 46.1423 34.6378 109.725 36.6553 275.57 178.921 71.141 28.3694 27.0841 21.0087 138.91 27.1296 30.3886 147.112 220.109 211.644 32.5462 121.172 179.098 22.7932 107.78 27.7503 156.304
internal_count=5711 3456 2255 1919 1537 1306 1418 613 311 412 920 510 805 349 278 410 234 327 194 456 178 1944 883 110 244 125 110 773 151 144 386 333 306 201 119 316 167 613 421 184 118 119 85 655 83 83 346 1061 1025 148 579 877 106 237 133 771
is_linear=0
shrinkage=0.04


Tree=2
num_leaves=60
num_cat=0
split_feature=48 40 16 15 11 30 30 55 19 18 1 16 23 28 23 13 24 27 14 23 42 13 0 14 20 15 20 28 19 13 1 0 50 51 13 15 1 30 51 15 22 13 24 28 13 30 26 30 22 4 24 51 40 28 14 18 19 20 28
split_gain=1702.19 386.578 143.928 99.7623 98.6281 67.9406 52.3959 45.7088 40.4841 40.1888 38.744 36.7235 27.4587 26.2912 26.1354 22.7272 22.7105 20.8216 18.2046 17.6408 17.2702 15.961 15.8086 15.7777 15.6765 14.8022 16.4094 16.4645 13.8378 13.6499 15.1769 13.1336 12.8853 12.2657 19.979 10.3714 13.7333 10.0922 9.95708 13.1894 9.47147 8.93617 8.7142 8.64701 8.01637 7.48923 16.0482 6.9796 6.16061 5.93172 5.88372 5.83845 5.60675 7.21661 5.37347 4.56226 3.96597 2.53403 1.36244
threshold=1.0000000180025095e-35 1.5000000000000002 1.0000000180025095e-35 1.5000000000000002 2073.4464611355816 0.7339670304327347 0.64574617656965227 0.67770733527781724 1.0000000180025095e-35 17.759288819811491 11.481894713707625 1.5000000000000002 -0.10011020752101378 0.5443521352126891 0.067059576553565287 12.313912245095935 1.1833262154060986 0.4681047979582158 0.53770247713200037 0.82174737970192813 66.500000000000014 10.154725340616322 2.2964872533379554 0.51042600043701647 1.0621982412982718 2.5000000000000004 1.2463757308178594 0.26060348980025611 1.5000000000000002 -8.1017183579981893 3.5484748263527188 1.236733325444336 42.500000000000007 0.55636061314769802 6.9753030695913143 1.0000000180025095e-35 3.7932248911743165 0.56481045710692168 -0.77807168479708633 1.0000000180025095e-35 0.36563339466212291 -3.5163581173897573 0.81122482709064991 0.25196076096115511 5.2815625118118161 0.5847701540876924 0.83614975378093126 0.25454258520324929 -0.065838395192718335 4131.9743183217242 1.1979513165097357 -0.15980775958775281 2.5000000000000004 -0.024594909738564649 0.36966833920805903 52.272863509860152 1.0000000180025095e-35 0.8666617259455941 0.19361718259390423
decision_type=2 2 2 2 2 2 2 2 2 2 2 2 2 2 2 2 2 2 2 2 2 2 2 2 2 2 2 2 2 2 2 2 2 2 2 2 2 2 2 2 2 2 2 2 2 2 2 2 2 2 2 2 2 2 2 2 2 2 2
left_child=2 3 19 4 5 8 9 -4 32 37 -10 12 15 14 16 -6 -11 40 20 33 54 22 -7 -14 29 26 27 -19 -16 30 -8 35 -2 45 48 36 58 -3 39 -31 42 -15 -5 52 -20 47 50 51 -35 -27 -47 -1 53 -26 -9 -49 -40 -51 -21
right_child=1 6 7 17 11 21 24 18 10 13 -12 -13 23 41 28 -17 -18 25 44 31 -22 -23 -24 -25 43 49 -28 -29 -30 38 -32 -33 -34 34 -36 -37 -38 -39 56 -41 -42 -43 -44 -45 -46 46 -48 55 -50 57 -52 -53 -54 -55 -56 -57 -58 -59 -60
leaf_value=-0.042123546203220993 0.010028196393577347 -0.0081295376883315021 0.06735457334434293 0.0036939732168599264 -0.0060413366700961917 0.0034738447183620897 0.032797150973462565 -0.0089402562195537334 0.0077049503727352154 0.018838101386129787 0.05410821866925334 0.099322908478806246 0.045913123011379932 0.062517839040546003 0.060922740112247943 0.062100317098609657 0.081390079432662521 0.0090149215311737859 0.0062136281497548254 -0.053651069147221044 0.024616064494702879 0.078130410691584204 0.068228099884917168 0.087511697305881445 0.087464966655782739 0.066863091911764871 0.083030798609489032 0.068555474579501535 0.096395396584969192 0.038044871222181802 0.081059140281166897 0.026048645286814057 -0.029210740938990169 -0.010024553609300274 0.01926698219804418 0.0079831208189029296 0 0.044203681253497759 0.076972260229925468 0.092108023240508777 0.072007688931496242 0.10497496967962681 0.048336806571266426 0.10751210000949281 0.05389773866948528 -0.049061383344464631 0.021494804602646855 -0.048182476353136362 -0.053106464563897234 0.07766731922593946 -0.008263210832067696 0 0.10106785304878008 0.047435661513207564 -0.04760255546436979 -0.02384753582858478 0.10047956955950438 0.11191111631850538 -0.027297251078625122
leaf_weight=9.9831168651580828 17.393271759152412 12.178542315959932 24.140109300613403 14.368236124515535 23.259327501058578 14.31131085753441 19.024642661213875 10.763727009296419 144.47756694257259 33.282224297523499 35.90958708524704 27.070086181163788 48.142245590686798 14.330445557832716 50.989313423633575 11.169932574033735 13.133501335978506 16.19770243763924 12.369429096579553 22.491025134921077 11.849148347973822 27.876315832138062 10.648803025484083 24.041946247220039 26.669303700327873 18.693744316697121 26.263775154948235 14.475740224122999 34.68931046128273 16.033041536808014 29.242605090141296 9.4225566983222944 50.547005295753479 9.1304413229227084 14.294791385531424 12.225883349776266 14.28297984600067 10.341068506240843 28.660963088274002 16.623813629150391 11.106126084923742 46.55346754193306 14.669755160808561 137.39874024689198 11.299077942967413 22.584958061575893 8.722350746393202 225.69613483548164 16.695763811469078 13.517944246530531 8.7531930208206159 10.752831459045408 36.099454507231712 14.630215883255003 15.398855522274969 16.445617750287056 92.929593086242676 24.645612776279449 7.8257184177637091
leaf_count=49 65 48 67 55 92 54 60 45 548 118 108 58 149 39 144 31 33 61 48 113 42 71 29 58 63 52 66 39 78 50 71 35 221 40 55 49 59 32 71 37 30 96 46 277 35 113 33 1120 84 35 38 45 78 44 74 75 198 51 36
internal_value=0 0.0621117 -0.0257742 0.0387049 0.0288135 0.0160276 0.0838329 0.0211602 0.00716912 0.0673078 0.0171081 0.0573945 0.0463049 0.0732196 0.0625327 0.0161807 0.0373379 0.0664213 0.00257009 -0.0356553 -0.0143276 0.0570696 0.0322137 0.0603393 0.092265 0.075344 0.0594266 0.0380209 0.0758054 0.0833242 0.0627091 -0.0163093 -0.0189898 -0.039333 -0.0177762 -0.0236756 -0.0326145 0.0157305 0.0895187 0.06671 0.0403389 0.0956508 0.0270051 0.100468 0.0299935 -0.0421212 -0.024894 -0.044659 -0.0387183 0.0905477 -0.0382917 -0.0207293 0.0873213 0.0741635 -0.0325222 -0.0466212 0.0953074 0.101024 -0.047683
internal_weight=0 1221.6 495.128 588.786 434.847 301.164 632.81 85.8203 248.327 215.498 180.387 133.684 106.613 192.978 132.094 34.4293 46.4157 153.939 61.6802 409.307 38.0117 52.8364 24.9601 72.1842 417.312 113.795 56.9372 30.6734 85.6786 202.515 48.2672 66.2482 67.9403 343.059 40.121 56.8256 44.5997 22.5196 154.247 32.6569 40.1441 60.8839 29.038 214.798 23.6685 302.938 40.0605 262.878 25.8262 56.8573 31.3382 20.7359 77.399 41.2995 26.1626 242.142 121.591 38.1636 30.3167
internal_count=5711 3456 2255 1919 1484 1096 1537 311 942 588 656 388 330 508 373 123 151 435 244 1944 161 154 83 207 949 304 166 100 222 487 131 292 286 1652 179 257 208 80 356 87 131 135 101 462 83 1473 184 1289 124 138 151 94 185 107 119 1195 269 86 149
is_linear=0
shrinkage=0.04


Tree=3
num_leaves=50
num_cat=0
split_feature=48 30 44 16 44 55 54 16 16 23 18 44 55 23 13 15 54 18 15 13 52 51 30 44 54 1 2 51 44 3 51 44 44 43 55 53 54 20 18 13 26 27 20 23 30 51 2 30 53
split_gain=1532.07 253.714 163.687 135.312 122.363 66.7674 55.644 50.4091 49.8431 47.6899 46.1948 43.4482 40.769 33.4168 34.0189 30.993 36.2453 29.357 24.1409 22.3944 21.314 20.8388 21.6032 20.596 18.5559 17.5755 17.3181 16.8839 16.2267 18.2348 14.5597 14.3885 12.2958 12.2032 11.6504 10.323 9.6891 7.28185 7.1196 6.77443 6.59066 11.1926 5.03524 7.89282 3.24375 3.11218 3.0848 0.731079 0.549
threshold=1.0000000180025095e-35 0.64574617656965227 1.4203444921425452 1.0000000180025095e-35 2.5426317819304214 0.88725453752821715 1.1488506481344036 1.0000000180025095e-35 1.0000000180025095e-35 -0.11546639086226136 17.94649208907779 1.4408772370371243 0.67770733527781724 -0.72828257758981374 8.8918900966239853 2.5000000000000004 0.20297640171889597 48.358430973871606 2.5000000000000004 -2.2628968908399454 0.23675296347802985 1.0189863342321299 0.85425372793662158 1.9271647815786663 1.0148707343289456 4.9110151147081167 6.1757154552503506 0.028097498423149094 0.8859628065511459 1.646481499123668 0.52348852204927965 0.8859628065511459 1.2719602350868453 13482.729515361612 0.81911596425044342 -0.31129680452620673 -0.4750273274918434 1.3323865012921967 20.141201476530416 -4.3756780157113786 0.89681981514050657 0.85204775019370727 1.3059215476977051 0.27514308663254389 0.24843538602439655 -1.1981881811608226 -2.8088320502602437 0.7339670304327347 -0.23025561324213409
decision_type=2 2 2 2 2 2 2 2 2 2 2 2 2 2 2 2 2 2 2 2 2 2 2 2 2 2 2 2 2 2 2 2 2 2 2 2 2 2 2 2 2 2 2 2 2 2 2 2 2
left_child=3 2 8 24 7 17 18 11 9 15 25 13 -5 14 -3 16 -2 23 20 -12 -7 22 -13 -4 28 -11 -26 38 29 30 35 -15 -29 -9 -6 -1 37 -10 -14 -38 42 48 44 -44 -30 -35 -41 -47 -42
right_child=1 4 5 12 34 6 -8 33 36 10 19 21 27 31 -16 -17 -18 -19 -20 -21 -22 -23 -24 -25 26 -27 -28 32 40 -31 -32 -33 -34 45 -36 -37 39 -39 -40 46 41 -43 43 -45 -46 47 -48 -49 -50
leaf_value=-0.012482034922120355 -0.008695127505048833 0.0068572348326721615 0.046411811115161183 0.063134593257280797 0.018878327983691271 -0.040095844304898202 0.053381300211031747 0.059315555956289449 0.037482885584023247 -0.025172430453878483 0.042793674208225392 0.01975576998535138 -0.039847015706029762 0.095535997727431113 0.088063789041255586 0.079118538323952714 0.045710955727392484 0.073834935850404765 0.036508481109106275 0.073003048095869411 0.00024143860659011087 0.075221708777776522 0.078772605807257048 -0.010478324348063395 -0.033435669550929061 0.035271737419921394 0.038849880757580155 0.041773905041622629 -0.023947158076972973 0.033131164139101353 0.0056280100348645324 0.073978779847273052 -0.0061960023267070745 0.079474941627306159 -0.033676537563880914 -0.050503324982365656 0.05693383423275284 0.079081919906666687 0 0.071309823738993527 -0.050911953556734016 0.011122464696505512 -0.046602796129782798 -0.017001244958585154 -0.047326597247871111 0.089141075260228783 0.099428621993034913 0.10339034499035865 -0.026812366722618729
leaf_weight=19.166063010692596 50.739454731345177 20.90755307674408 20.412099108099937 24.737384766340256 12.417621120810511 62.461986273527145 19.062276482582092 18.716626986861229 18.945491254329681 12.890881910920145 64.046958357095718 50.374267175793648 14.018307968974115 104.70825788378716 13.722671613097189 12.501742109656332 31.154715746641159 26.313136667013168 10.255874797701834 125.69581592082977 30.552667245268822 26.613509863615036 12.458795309066771 19.170881286263466 10.306457087397577 17.59476825594902 10.071734726428984 19.660706281661987 13.54829181730747 8.6273571103811246 16.052373960614204 138.46360175311565 14.066503107547758 30.508561238646507 13.577935129404066 33.554208874702454 15.912488937377928 13.897331863641737 13.967519298195837 18.472437426447868 8.4527833610773104 10.205743744969366 30.129758805036545 32.050001263618469 202.59607706964016 50.123112231492996 44.040474146604538 140.05263121426105 7.8723404258489635
leaf_count=86 202 76 62 67 42 289 55 50 57 55 199 175 66 221 31 30 97 66 34 321 118 64 29 77 49 56 34 64 63 31 66 338 58 69 60 171 45 33 56 46 43 41 153 146 1024 106 89 264 37
internal_value=0 0.0584286 0.0400296 -0.0250726 0.0762333 0.00886471 -0.00854767 0.0798747 0.0537539 0.0454122 0.0556385 0.0702421 0.0201729 0.078146 0.0400171 0.0212931 0.0119782 0.0412275 -0.0202565 0.0629806 -0.0267734 0.0453218 0.0320719 0.0187294 -0.0348275 0.00932935 0.0017734 0.00246306 -0.0368099 -0.0199916 -0.0269822 0.0834521 0.0215775 0.0944596 -0.00821173 -0.0371049 0.0769867 0.0561861 -0.0201295 0.0852159 -0.0410088 -0.0205917 -0.0428797 -0.0317429 -0.0459635 0.0972732 0.0918165 0.0998927 -0.0409273
internal_weight=0 1246.77 614.121 489.084 632.645 188.229 122.333 606.65 425.893 314.624 220.228 367.249 86.4504 277.802 34.6302 94.3959 81.8942 65.8961 103.271 189.743 93.0147 89.4466 62.8331 39.583 402.633 30.4857 20.3782 61.713 382.255 77.4 68.7726 243.172 33.7272 239.401 25.9956 52.7203 111.268 32.8428 27.9858 78.4254 304.855 26.5309 278.324 62.1798 216.144 220.684 62.5129 190.176 16.3251
internal_count=5711 3456 1931 2255 1525 701 496 1423 1230 960 631 934 311 666 107 329 299 205 441 520 407 268 204 139 1944 111 83 244 1861 354 323 559 122 489 102 257 270 90 122 180 1507 121 1386 299 1087 439 135 370 80
is_linear=0
shrinkage=0.04


Tree=4
num_leaves=53
num_cat=0
split_feature=48 40 16 15 30 55 43 43 55 30 18 43 2 23 23 13 20 17 54 41 26 21 17 2 55 23 9 9 50 28 6 54 28 22 21 20 5 18 41 16 2 20 26 23 17 24 51 13 18 53 13 26
split_gain=1384.16 312.239 127.191 83.4772 71.1421 68.3219 51.5153 38.9197 36.5526 34.0635 40.8588 33.8548 27.5813 24.5991 24.239 24.0771 21.908 20.3889 29.6757 23.1103 20.1222 18.8864 17.8707 19.8656 15.9297 20.0546 15.7681 14.4553 17.9773 14.126 13.0218 12.2928 11.161 10.1208 9.34035 16.0606 9.19144 9.13495 9.08117 8.86208 9.70251 7.29782 7.18607 7.05308 8.57955 6.38757 6.32668 6.01795 2.45226 1.44513 1.371 0.349096
threshold=1.0000000180025095e-35 1.5000000000000002 1.0000000180025095e-35 1.5000000000000002 0.7339670304327347 0.89454555128916835 14204.558115333433 34449.230009146944 0.67770733527781724 0.64574617656965227 17.759288819811491 23822.584417552389 0.20313734894033944 -0.10706127912989812 0.21387712568605602 2.9558157630904893 1.2710174557107274 2.6861586597034259 1.0148707343289456 2713819.1521726842 0.75542637234813814 5.0495025026134819 3.5859356424152549 5.0178310752792692 0.89318178425718897 0.067059576553565287 0.54045064400850629 0.84851389638278796 48.500000000000007 0.66999147970699791 1.9125839659309871 0.089992418112617462 0.073825357367017855 -0.29212237913534522 4.3145964323205002 0.92068716545312801 1.8174079221229824 20.704603392298051 329549.91115768376 1.0000000180025095e-35 -2.4357695913100024 0.98317254535602028 1.1691791339872926 0.82174737970192813 5.6540316569982592 0.29447684015599612 0.93496175424604211 -6.148384268277522 52.272863509860152 0.059726300563773212 10.424457527587466 -0.36313513031261169
decision_type=2 2 2 2 2 2 2 2 2 2 2 2 2 2 2 2 2 2 2 2 2 2 2 2 2 2 2 2 2 2 2 2 2 2 2 2 2 2 2 2 2 2 2 2 2 2 2 2 2 2 2 2
left_child=2 3 17 4 5 12 16 15 -4 10 -8 14 29 -9 21 -7 20 18 19 33 30 -5 23 -10 47 -26 -13 -6 -29 -2 -3 -14 -21 36 35 -28 -1 -24 -16 40 41 -11 43 48 -45 -42 -35 -12 50 -30 -19 -41
right_child=1 6 8 11 27 7 9 13 22 39 24 26 31 -15 38 -17 -18 42 -20 32 -22 -23 37 -25 25 -27 34 28 49 -31 -32 -33 -34 46 -36 -37 -38 -39 -40 51 45 -43 -44 44 -46 -47 -48 -49 -50 -51 -52 -53
leaf_value=-0.032845845195919432 -0.0044975893458423667 0.017835084150359965 0.059376421866912284 -0.023987932242409474 0.031153223638803667 -0.02315691216972916 0.0057790213164659607 -0.0020228845610978734 -0.011385042622096357 0.037366412076867757 0.050422339332228172 0.027598194270947892 0.042167472310311115 0.04006948142512945 0.07310297017316407 0.0090852751339457315 0.069570294026986709 -0.051039664537063587 0.033218391010518183 -0.018638020476725407 -0.014523564567973895 0.045311842304990101 -0.045489569687820454 0.048223683903602571 0.029389789178087516 0.070439205920250006 0.03182249049012225 0.032803362284274225 0.095400548882151298 0.045641288575168075 0.068512550826856741 0.076335922744607917 0.029036341545450362 -0.041843566924547916 0.095696275588528792 0.081575291685515611 0.021281265773781827 3.5049142313468535e-05 0.026647000059356982 0.082219128160595997 0.048744029510685752 0.073659951170267343 -0.0035042545123872772 -0.0032922061812489301 -0.04592211663679921 0.085886483189192245 -0.0031629834538009832 0.088356843395242177 -0.025233002105244533 0.06993542509147134 -0.03684942380017589 0.095934238751067213
leaf_weight=10.30989606678486 23.99490287899971 18.803799346089363 25.264970690011978 15.028269872069361 25.489218071103096 76.533362209796906 18.056569769978523 33.749359741806984 15.720740497112272 17.858371704816818 11.271651342511175 12.180699855089186 48.85422171652317 61.568001851439476 20.40283177793026 70.523617506027222 30.794859856367111 133.06796589493752 12.874989807605742 17.015793547034267 13.699231207370756 10.172868415713308 12.929449498653414 19.235298171639442 29.949830770492554 64.173949107527733 16.95680658519268 17.694044500589371 20.361930653452873 13.586593970656393 15.727526158094404 30.661580219864845 13.827272802591322 116.72419957816601 37.467946246266365 35.668327823281288 8.8586045056581479 13.867725044488905 12.423733547329901 43.51362544298172 11.287030592560766 27.486299857497215 7.9271046817302695 15.579283803701403 15.710380375385283 157.04062224924564 7.969975769519805 69.603419899940491 10.954867914319037 22.262938752770424 25.169851124286652 133.3846619874239
leaf_count=50 92 63 67 63 78 329 65 130 66 53 31 39 144 191 50 261 77 701 44 78 54 31 63 59 98 156 53 54 40 38 39 73 52 589 77 81 35 56 41 89 30 65 34 67 80 328 35 143 52 54 127 246
internal_value=0 0.0551391 -0.0243971 0.0343051 0.0253078 0.0174103 0.0741285 0.00520964 0.0192339 0.0782741 0.063937 0.0590977 0.0424579 0.0250941 0.033947 -0.00763055 0.043121 -0.0340249 -0.0242186 -0.0285861 0.0255532 0.00378826 0.00234099 0.021251 0.0698426 0.057684 0.0730629 0.0580191 0.0688943 0.0136026 0.0417802 0.0558092 0.00244893 -0.0353113 0.0789281 0.0661313 -0.00729442 -0.021835 0.0564146 0.0852573 0.0787773 0.0600803 -0.0427305 -0.0442117 -0.0253846 0.0835885 -0.0394852 0.0834917 -0.0475546 0.0831529 -0.0489568 0.0928214
internal_weight=0 1268.23 483.008 605.581 445.28 359.472 662.651 242.374 87.0182 583.626 193.055 160.301 117.097 95.3174 58.0277 147.057 79.0254 395.99 187.581 174.706 48.2306 25.2011 61.7532 34.956 174.999 94.1238 102.274 85.8081 60.3189 37.5815 34.5313 79.5158 30.8431 143.863 90.0931 52.6251 19.1685 26.7972 32.8266 390.571 213.672 45.3447 208.409 200.482 31.2897 168.328 124.694 80.8751 169.193 42.6249 158.238 176.898
internal_count=5711 3456 2255 1919 1484 1258 1537 911 311 1304 493 435 347 321 185 590 233 1944 883 839 156 94 244 125 428 254 250 226 148 130 102 217 130 709 211 134 85 119 91 811 476 118 1061 1027 147 358 624 174 880 94 828 335
is_linear=0
shrinkage=0.04


Tree=5
num_leaves=44
num_cat=0
split_feature=48 40 44 55 44 16 10 16 44 53 15 19 16 24 51 21 54 40 54 2 13 2 53 9 13 51 21 2 44 2 54 23 54 11 28 16 44 9 53 13 53 0 54
split_gain=1299.18 262.357 133.749 90.7201 78.9712 62.0473 61.7395 43.4001 47.8137 38.717 33.023 36.9319 30.5589 28.767 25.8057 24.9337 23.2545 22.1866 21.3182 34.3037 20.0268 18.372 15.9151 15.6387 15.3948 16.6663 13.7014 13.6827 13.2509 16.8963 12.4697 10.9909 11.9196 10.1239 8.45907 8.40442 8.34964 8.21509 7.90022 6.62679 11.6245 5.885 3.57257
threshold=1.0000000180025095e-35 1.5000000000000002 1.5170285892321502 0.66264401187530575 2.5426317819304214 1.5000000000000002 1.0000000180025095e-35 1.0000000180025095e-35 1.1892615044337504 0.41357588377881283 2.5000000000000004 1.0000000180025095e-35 1.0000000180025095e-35 1.1303235076579796 0.19963446706069948 5.0963280912490143 0.75356911866631238 2.5000000000000004 0.81572149265875626 3.7574956895294069 -1.2591312730399966 1.0859469030259157 0.42777759181831493 0.53439862362428581 9.3713170449765482 0.41557523639787103 8.4030159578879537 -10.260432913631282 1.4897432217493012 8.3678698375497103 -0.083819359689685402 0.87199139559111594 0.089992418112617462 2512.5532718096333 0.7440023480852519 1.5000000000000002 1.3227488058745027 1.0266362823461412 -0.42014905449259249 4.7519157838386761 -0.52376449174598771 2.6871534091041869 -0.34106928473980452
decision_type=2 2 2 2 2 2 2 2 2 2 2 2 2 2 2 2 2 2 2 2 2 2 2 2 2 2 2 2 2 2 2 2 2 2 2 2 2 2 2 2 2 2 2
left_child=3 2 6 -1 7 9 10 8 27 20 11 16 18 17 -11 -13 -2 -10 26 -20 41 -22 28 -8 25 -25 31 -3 29 33 -29 36 -33 -14 -6 39 -5 -12 -15 40 -9 -4 -26
right_child=1 4 5 12 34 -7 23 35 13 14 37 15 22 38 -16 -17 -18 -19 19 -21 21 -23 -24 24 42 -27 -28 30 -30 -31 -32 32 -34 -35 -36 -37 -38 -39 -40 -41 -42 -43 -44
leaf_value=0.054681846293320416 -0.011964410405684306 0.041141201755671215 -0.049113939128559637 -0.034047654732614341 -0.0081949643834716372 0.083883576185643849 0.032145064644003352 0.038710446280032874 0.016825681583207189 -0.0018395409389853604 0.040142000994761118 0.025817781711566835 -0.040084590935836849 0.044117927670766666 0.064050128925112207 0.059071631764887604 0.053251562596931618 0.058032375099749837 -0.051552277036353136 0.030979570114479393 -0.033215678374015727 0.011340342703966404 0.045117393078819505 0.045022768898312186 0.067428690986050935 0.083111410238827926 0.013297886744543481 0.063966087122557941 -0.052533712868240177 0.042170130625885802 0.086684223140862451 -0.032795676375196862 0.0086583024751737368 0.0043533900868207749 0.034559128074782439 0.094704551038426871 -0.048919941920330418 0.082779823595877544 0.081177260498939946 0.088038210150386695 0.076967816702413247 -0.013419091013740525 0.094513226801961822
leaf_weight=21.774929195642471 48.874001190066338 19.844663053750992 29.954350873827934 205.84988681972027 19.746817871928219 13.114626571536062 24.927745833992958 18.88787604868412 60.38646487891674 19.648352548480034 14.318374887108801 121.20623491704464 14.202674835920336 17.383092686533928 17.396012812852859 53.467916876077652 10.234270900487898 33.076946943998337 12.838913902640341 20.1632090061903 22.142889395356178 42.370481267571449 9.3640080988407117 65.401361629366875 23.234197124838829 28.779808893799782 8.6261618286371213 73.293734431266785 9.3552789092063886 10.531211018562315 130.11046294867992 29.021609738469124 16.980100810527802 17.605430796742439 11.100323364138601 114.76068794727325 99.64948795735836 23.459484800696373 34.682359606027603 78.790227189660072 69.957019567489624 11.630536019802092 36.656785801053047
leaf_count=57 192 56 142 1039 76 27 74 51 197 77 41 397 67 48 48 144 29 82 67 73 100 154 30 183 55 61 37 175 46 33 262 142 71 69 33 201 529 50 75 150 147 48 71
internal_value=0 0.0530771 0.0338706 -0.024221 0.0701183 0.00189335 0.0449224 0.0730813 0.0637361 -0.00574776 0.0327266 0.0269466 -0.0280749 0.0454603 0.0291354 0.0361771 -0.000188929 0.0317218 -0.0321617 -0.00100164 -0.0181036 -0.00387818 -0.00152853 0.0632435 0.068101 0.057091 -0.0349797 0.0754933 -0.0104899 -0.000514444 0.0786986 -0.0362123 -0.0172929 -0.0153675 0.00705148 0.0851352 -0.0389956 0.0675237 0.0694637 0.0783029 0.069179 -0.0396395 0.0847221
internal_weight=0 1288.84 606.817 475.963 682.021 156.257 450.56 651.174 368.778 143.143 271.56 233.782 454.188 145.529 37.0444 174.674 59.1083 93.4634 393.129 33.0021 106.098 64.5134 61.0586 179 154.072 94.1812 360.127 223.249 51.6946 42.3393 203.404 351.501 46.0017 31.8081 30.8471 282.396 305.499 37.7779 52.0655 167.635 88.8449 41.5849 59.891
internal_count=5706 3446 1893 2260 1553 596 1297 1444 895 569 853 762 2203 402 125 541 221 279 1958 140 444 254 245 444 370 244 1818 493 215 169 437 1781 213 136 109 549 1568 91 123 348 198 190 126
is_linear=0
shrinkage=0.04


Tree=6
num_leaves=49
num_cat=0
split_feature=48 40 44 16 44 16 10 16 44 19 30 14 19 4 3 15 54 2 2 51 44 3 17 3 7 21 8 13 23 0 15 21 17 9 2 13 14 44 30 17 15 30 18 14 45 30 16 15
split_gain=1180.51 234.619 120.521 83.8019 70.4693 56.2311 55.0717 39.0803 43.1108 37.015 35.0118 30.7085 29.8406 35.8564 28.176 26.7674 20.3098 32.0568 18.9407 18.632 18.3546 18.1403 16.8803 22.577 16.3533 15.3083 15.2503 14.4762 14.0283 13.6895 13.3846 13.036 12.9123 12.0262 11.9543 11.2678 10.8876 12.2827 12.0733 9.09894 8.77303 7.99942 7.27925 4.79517 4.35115 2.00585 1.88136 4.13266
threshold=1.0000000180025095e-35 1.5000000000000002 1.5170285892321502 1.0000000180025095e-35 2.5426317819304214 1.5000000000000002 1.0000000180025095e-35 1.0000000180025095e-35 1.3757671742405841 2.5000000000000004 0.58658523355231251 0.54940616564298483 1.0000000180025095e-35 3757.2205917966262 1.1865325767403929 1.5000000000000002 0.81572149265875626 3.7574956895294069 5.5142033569101025 0.52348852204927965 1.9808808876030268 0.90169120147836324 1.1154761701976355 1.3236098483538929 10.500000000000002 3.4068086723510307 0.98396334334781621 -8.1017183579981893 -0.72828257758981374 2.5074378381328084 1.0000000180025095e-35 8.4030159578879537 3.6406329070056236 1.0266362823461412 7.5684131486549342 4.9842631870535028 0.37944718379574666 0.84980639517460854 0.53457478670398928 2.168889951261717 1.0000000180025095e-35 0.52306805161669601 48.358430973871606 0.31940968586167906 131236.07741241201 0.62775244111002448 1.5000000000000002 1.0000000180025095e-35
decision_type=2 2 2 2 2 2 2 2 2 2 2 2 2 2 2 2 2 2 2 2 2 2 2 2 2 2 2 2 2 2 2 2 2 2 2 2 2 2 2 2 2 2 2 2 2 2 2 2
left_child=3 2 6 16 7 9 12 8 21 15 30 32 14 29 33 19 31 -18 -15 -4 -17 25 27 26 -12 -3 -24 -8 -23 -14 -10 36 34 -2 -5 -13 45 38 -38 -39 -16 -9 -6 -29 -34 -1 47 -43
right_child=1 4 5 11 42 -7 22 41 10 -11 24 35 13 18 40 20 17 -19 -20 -21 -22 28 23 -25 -26 -27 -28 43 -30 -31 -32 -33 44 -35 -36 -37 37 39 -40 -41 -42 46 -44 -45 -46 -47 -48 -49
leaf_value=-0.051003344997237826 -0.035905937936944174 0.032723569860808113 -0.034818919483863675 -0.008875328992771582 -0.0077001487205713304 0.079025152522126579 0.035652357130751107 0.058329144719769195 -0.029516883577341609 0.044400983636133672 0.014268220185399366 0.014039047192448036 0.0025214353898630674 0.036505002946290367 0.011655330403505635 0.049683754451423659 -0.05080568646886692 0.02937808247524884 0.067545803173717778 0.0050775716806396925 -0.013128501097476835 0.03636130694892626 0.0059120223169187962 0.073846271038053912 0.060373331492327584 0.07036898233755802 0.048466370998896766 0.0448357743840542 0.078809870775295499 0.042224132725584014 0.027443581027005972 0.012707991704372269 -0.045939670224445943 0.0068665941011787157 0.044093939006044941 0.062029634829581293 -0.025083955237169997 -0.024709387593034888 0.019551887297608789 -0.042039432448287048 0.056103857905460998 0.068714577975844515 0.031644077319267501 0.083380278130442007 -0.006106438147297619 -0.023358449228669281 0.089193725433245441 0.085972037774720303
leaf_weight=72.526273608207703 18.970325157046318 39.324696570634842 69.318247467279434 18.531154572963718 19.422914937138561 13.382833346724508 16.789927244186401 31.561586380004883 13.517123728990557 19.884367361664772 16.52455660700798 14.844375506043432 47.029481634497643 74.002378791570663 13.599909216165544 15.012462660670282 12.518836677074431 20.428074955940247 61.481480941176414 24.802594318985939 13.69876344501972 15.644707739353178 24.342219784855843 31.161033272743225 63.28652748465538 35.554732695221901 32.27226223051548 8.8136063367128354 178.4813909381628 19.806474596261978 12.094488471746443 8.68289667367935 12.487931504845621 21.987120762467384 10.082031458616255 19.105113595724106 32.234320878982544 87.697290807962418 13.162465572357176 132.22091168165207 17.365643516182899 69.323382243514061 11.482667297124861 68.544042348861694 8.017692416906355 7.2926613986492148 109.26362408697605 76.814540058374405
leaf_count=394 83 110 315 75 74 27 48 74 55 62 53 54 168 224 47 43 67 73 150 93 56 44 81 68 153 79 84 23 363 57 38 37 60 78 29 51 159 435 54 703 46 146 35 140 33 36 188 141
internal_value=0 0.0503437 0.0322341 -0.0235695 0.0663146 0.00180796 0.0426089 0.0690739 0.0602666 -0.00554965 0.0380878 0.0127308 0.0311197 0.0389932 0.00871242 -0.013851 -0.0314021 -0.000973447 0.0508367 -0.0242015 0.0195338 0.0688444 0.0597565 0.0463218 0.0510958 0.0510369 0.0305498 0.071906 0.0755324 0.0146468 -0.00214891 -0.0341974 -0.00729613 -0.0128099 0.00972571 0.041803 -0.0354256 -0.0313026 -0.0118224 -0.0352406 0.0373625 0.080424 0.00675204 0.0793963 -0.0313537 -0.0487562 0.0830121 0.0780774
internal_weight=0 1304.56 612.265 469.832 692.297 156.099 456.166 661.391 374.428 142.716 105.423 83.0683 274.243 202.32 71.923 122.832 386.764 32.9469 135.484 94.1208 28.7112 269.006 181.923 87.7755 79.8111 74.8794 56.6145 94.1476 194.126 66.836 25.6116 353.817 49.1188 40.9574 28.6132 33.9495 345.134 265.315 45.3968 219.918 30.9656 286.963 30.9056 77.3576 20.5056 79.8189 255.402 146.138
internal_count=5706 3446 1893 2260 1553 596 1297 1444 895 569 299 302 853 599 254 507 1958 140 374 408 99 596 444 233 206 189 165 211 407 225 93 1818 197 161 104 105 1781 1351 213 1138 93 549 109 163 93 430 475 287
is_linear=0
shrinkage=0.04


Tree=7
num_leaves=56
num_cat=0
split_feature=48 30 55 37 43 43 55 2 23 15 3 14 17 3 45 21 3 3 3 15 17 2 29 18 43 1 3 41 17 30 22 42 55 15 14 30 2 17 25 29 43 22 2 41 21 30 6 5 1 5 7 53 14 11 24
split_gain=1075.95 167.208 80.5138 71.8012 67.6916 52.731 37.7693 39.8969 37.5519 35.7384 32.7499 30.088 33.6131 46.9661 26.9956 25.8854 24.3012 22.9579 22.1346 20.9623 20.4323 19.0407 18.6197 17.1913 16.6843 16.6756 16.0978 15.3958 14.5434 14.1555 13.9512 13.5225 12.3608 11.7697 9.29654 9.14814 8.9713 8.80295 8.75373 8.55673 7.55355 6.73887 6.62819 6.33094 6.02987 5.27341 7.18676 4.41478 3.57435 2.97831 6.67191 2.78112 2.5642 0.963991 0.624029
threshold=1.0000000180025095e-35 0.57174939037939054 0.66264401187530575 1.0000000180025095e-35 16889.734132581219 19151.033991811513 0.92310660471566719 5.3309158012042106 -0.5210210356939361 1.5000000000000002 1.0890508897071296 0.47228309240854555 2.8841860022766883 1.585060750257419 28819.416423762053 3.7172099505056106 1.6083816822219561 1.7667408534592182 1.502332189931544 1.5000000000000002 2.8518543355846391 6.1757154552503506 -0.55935189827435849 24.664074582176543 12071.086374075063 3.1333033998426978 1.5705235389865801 2606140.9474677197 2.0222523474472753 0.71134241715662549 0.26249320080867128 27.500000000000004 0.96277504920587409 1.0000000180025095e-35 0.4323115330364557 0.59855748779048368 6.0101498842557364 6.9505631264278325 -0.089973388634624438 -0.25353451343103262 12533.707576327854 0.48145081465586609 13.887955174214584 947503.79171799624 4.0386422151519001 0.73949269693075925 -11.406866386232702 0.23544931946316958 3.027090691448683 2.1706295353562504 30.500000000000004 -0.6169805935407785 0.39217991200632074 2571.8713413742153 0.57816328356600732
decision_type=2 2 2 2 2 2 2 2 2 2 2 2 2 2 2 2 2 2 2 2 2 2 2 2 2 2 2 2 2 2 2 2 2 2 2 2 2 2 2 2 2 2 2 2 2 2 2 2 2 2 2 2 2 2 2
left_child=2 4 -1 5 18 8 22 17 26 10 15 38 13 27 16 -7 -10 19 25 -8 -12 -15 -6 -9 -5 54 -3 32 34 -16 -30 -27 -13 -25 -24 41 -29 -37 39 -4 -33 47 49 -41 -19 46 -26 -14 -11 53 -51 -48 -50 -40 -2
right_child=1 3 11 24 6 9 7 23 14 48 20 12 35 21 29 -17 -18 44 -20 -21 -22 -23 28 33 45 31 -28 36 30 -31 -32 40 -34 -35 -36 37 -38 -39 42 43 -42 -43 -44 -45 -46 -47 51 -49 52 50 -52 -53 -54 -55 -56
leaf_value=0.050538749567346282 -0.054816715621425108 -0.054313691591499479 0.007258926395951648 0.036729797287356009 0.015912573236338604 0.018795058605139539 -0.011029634831340715 0.0097091762253306568 0.03018574052748893 0.060654247079573079 0.066021970968198646 -0.0057514871947647404 -0.013627691664502299 0.0084478572048878771 -0.022977678971843298 0.054038995097655973 0.072859722375398589 0.024014069136454489 0.027098050740102068 0.03056370418995865 0.03315449999277089 0.075890221250621184 0.043722118425089801 0.035500865495480531 0.029721559890570792 0.03008955996614544 0.014368138210871325 -0.0076646436650335938 0.0083835865969697672 0.029365973260795278 0.064042601201769897 -0.044814579567294184 -0.039886921621806383 0.068820422975263557 0.075390609530116601 0.016235024404426542 0.038558973746507921 -0.037478544801728464 -0.052160161174321297 -0.0096045174160454532 0 0 -0.0070188843266531424 -0.04629510445724553 0.063381118350011506 0.083764000495551535 0.051117016907870232 -0.043722547242743603 0.064530550969666964 -0.043307980560590223 -0.0068790907484725695 0.077694442279718001 0.087008342171164529 -0.031902003377379196 -0.030957779043358693
leaf_weight=22.233993962407112 12.687683477997782 10.465535372495653 11.193864375352858 18.362646594643593 21.116415500640869 76.136815115809441 70.514101698994637 19.426434680819511 53.004202410578728 30.28843529522419 179.56345705688 30.701642394065857 10.472755834460257 13.85286468267441 14.535202398896216 62.092280045151711 38.485354036092758 18.098733216524128 23.500486224889755 26.274152934551239 39.911637410521507 13.670473784208296 25.390968218445778 37.101971447467804 8.7772175222635251 12.952555909752844 10.303954139351843 17.364300504326824 17.617074832320217 17.888485834002495 12.712644100189207 10.440295830368997 40.761085912585258 38.531573951244354 61.063418626785278 10.935421228408815 10.174761578440664 8.0283296853303892 79.497806802392006 13.790522724390028 13.51115722954273 7.5657836794853202 8.663861006498335 20.102762162685394 11.535235226154326 160.07984079420567 14.454163804650305 80.527668178081512 23.086566403508186 43.306920886039734 11.068704441189764 55.295433476567268 63.945992916822433 9.8988191783428174 8.1930069327354413
leaf_count=57 61 50 50 51 67 234 277 67 159 71 401 138 51 58 61 155 85 56 76 78 111 36 68 109 23 42 35 79 57 53 29 49 216 90 127 45 36 42 439 65 52 35 39 109 29 279 33 434 51 229 53 104 120 49 36
internal_value=0 0.0478687 -0.0229397 0.0579867 0.027678 0.0504879 0.035131 0.0247201 0.0290507 0.0569621 0.050459 -0.0267089 -0.0171813 -0.00274853 0.0374144 0.0348234 0.0485063 0.00982322 -0.00513756 0.000217148 0.0601708 0.0429826 0.0516455 0.0442818 0.0759176 -0.0185499 -0.0200454 -0.0157047 0.0579278 0.00554121 0.0326334 -0.00192673 -0.0255024 0.0529061 0.0664722 -0.0325549 0.00929147 -0.00618944 -0.0383619 -0.0220131 -0.0199433 -0.0374607 -0.0430488 -0.0320025 0.0403776 0.0788167 0.0682061 -0.0404652 0.0764488 -0.0451112 -0.036216 0.0726808 0.0815056 -0.0502027 -0.0467769
internal_weight=0 1317.35 463.812 876.677 440.668 619.708 359.383 221.482 144.683 475.025 357.704 441.578 244.055 126.525 123.913 138.229 91.4896 126.422 81.2852 96.7883 219.475 27.5233 137.901 95.06 256.969 57.7847 20.7695 99.0018 116.784 32.4237 30.3297 36.904 71.4627 75.6335 86.4544 117.53 27.5391 18.9638 197.523 45.0871 23.9515 98.5662 152.436 33.8933 29.634 238.607 78.5268 91.0004 117.321 143.772 54.3756 69.7496 87.0326 89.3966 20.8807
internal_count=5706 3446 2260 2076 1370 1586 1054 706 443 1143 901 2203 1170 563 358 389 244 440 316 355 512 94 348 266 490 240 85 469 281 114 86 143 354 199 195 607 115 87 1033 224 101 520 809 174 85 439 160 485 242 770 282 137 171 488 97
is_linear=0
shrinkage=0.04


Tree=8
num_leaves=55
num_cat=0
split_feature=48 40 16 16 43 43 2 51 19 16 14 3 54 19 14 54 2 17 11 54 3 17 18 55 54 20 29 17 55 19 40 30 4 9 43 9 25 50 55 5 0 30 21 29 23 41 16 30 54 2 20 22 5 7
split_gain=982.643 200.045 76.2551 71.4612 70.7631 39.5625 34.3945 30.987 30.1186 27.1152 27.0496 25.3388 22.9012 19.7879 19.526 26.163 29.4189 17.0877 16.9134 16.4731 15.9362 15.7136 15.0086 14.0681 18.6016 17.6204 14.5815 13.8774 13.7559 12.6555 12.4083 11.8671 11.684 11.5292 10.9549 10.4286 9.07462 11.5445 10.4727 9.68999 9.21253 8.66625 8.53079 8.35625 7.62941 6.49996 5.77936 7.92347 10.056 5.47001 3.19288 2.92595 2.06539 0.748862
threshold=1.0000000180025095e-35 1.5000000000000002 1.0000000180025095e-35 1.0000000180025095e-35 21770.487449139488 14204.558115333433 5.3309158012042106 0.26399221299320075 2.5000000000000004 1.0000000180025095e-35 0.54940616564298483 1.0890508897071296 0.34310345415177879 1.5000000000000002 0.42557542012985311 0.81572149265875626 5.5938874713088849 1.4299131166679748 2538.5103522606446 0.43065337163500322 1.0700405339884758 3.0683972940063593 17.357726169765936 0.70632901866274134 1.1488506481344036 1.4398892357325066 0.3665079955126494 2.8518543355846391 0.97825120601548554 1.0000000180025095e-35 1.0000000180025095e-35 0.61287341420574448 2625.6781679974033 1.244730449670836 13918.704036454477 0.81724286776516419 -0.1027706361573566 36.500000000000007 0.96537977423907628 4.4255693470287119 0.10696698104158746 0.57840812813127995 4.709363685593801 -1.1023650346925096 0.90418433053258307 304770.19202727242 1.5000000000000002 0.73949269693075925 -0.43084543853668961 14.725838023007791 1.5412389968302578 0.16580517594554084 1.2984803746709324 31.500000000000004
decision_type=2 2 2 2 2 2 2 2 2 2 2 2 2 2 2 2 2 2 2 2 2 2 2 2 2 2 2 2 2 2 2 2 2 2 2 2 2 2 2 2 2 2 2 2 2 2 2 2 2 2 2 2 2 2
left_child=2 3 14 4 7 23 8 19 12 11 18 32 -6 33 44 36 -17 30 51 34 31 -20 -13 -3 25 26 -25 29 -29 -8 -5 -19 42 -9 -2 -34 37 -16 -39 49 -41 -12 -7 -24 50 -21 47 48 -11 -38 53 -4 -32 -1
right_child=1 5 10 17 6 9 27 13 -10 46 41 22 -14 -15 15 16 -18 20 21 45 -22 -23 43 24 -26 -27 -28 28 -30 -31 52 -33 35 -35 -36 -37 39 38 -40 40 -42 -43 -44 -45 -46 -47 -48 -49 -50 -51 -52 -53 -54 -55
leaf_value=-0.051436974360686401 -0.054053347952504861 0.058932584087582916 -0.051703192889587614 0.034829144649071823 0.0021491014106213265 0.001847091193099692 0.028887027399975868 -0.015626583513876129 0.058821356258409611 0.035347833571662893 0.02208064028631803 0.034267827907902858 0.035540215383901862 0.045919583182078477 0.019243186186883636 -0.03271871411417019 0.053588251966645135 -0.01222835850556816 0.036631825485362916 0.028365859104516833 0.056090393810164486 -0.020006724893868195 0.037179685800820636 -0.035745187207956754 0.058590684350360259 0.04289648864738986 0.02422101474536964 0.044900654808900077 -0.0090512722350890116 0.059492525458646729 0.055791908213375895 0.041070913378570273 0.021936119440575649 0.02700709976471484 -0.016415857146195749 0.055052761656679626 -0.036634193764946907 0.002511678007607735 -0.044688101459426609 0.019787471378007362 -0.031551871360424942 0.065194524512939805 0.044163924396178937 0.070991917486508391 -0.016009086512532224 -0.013811242043159063 0.081539074181279841 0.07787083017975753 0.067247472547562887 -0.0003828368667587106 -0.02301115099966286 -0.015458469875271925 0.078802990862984743 -0.034146930375425641
leaf_weight=84.761014968156815 19.41973003745079 23.221910670399666 10.194560319185259 19.814765259623528 105.49000811576843 19.033256858587265 32.264301240444183 25.080569446086884 26.609955251216888 26.266486018896103 21.546831026673317 26.126443937420845 47.951119810342789 25.5209980905056 13.448126435279844 10.863321125507357 13.806157693266867 14.143163427710535 16.916868895292286 13.124665021896364 27.888973221182823 13.69293190538883 15.685227468609808 16.320425003767017 14.953176543116568 13.523823514580725 10.025594934821127 15.779588803648949 13.412674754858017 91.149106293916702 18.107929259538651 11.695775389671324 21.199370384216309 16.4241653829813 38.359479159116745 82.260587587952614 153.58500841259956 12.339119836688043 17.057217463850975 10.65246617794037 10.728037118911741 12.903815150260924 13.107067450881003 178.91590249538422 16.386528760194778 9.5449715107679349 110.90204963088036 74.752847149968147 59.774845868349075 7.6701102256774893 10.926723212003706 7.8493855446577063 50.447117537260056 12.525661319494246
leaf_count=483 97 53 52 57 371 62 98 99 68 67 73 70 139 73 59 56 41 52 51 42 66 59 40 67 36 36 31 40 49 219 42 30 62 51 159 194 824 58 94 47 57 32 33 363 79 40 187 132 120 35 57 35 101 68
internal_value=0 0.0455839 -0.0223362 0.0289814 0.0215333 0.0601734 0.0317491 -0.00145277 0.0197214 0.0635412 0.0121794 0.0559697 0.0127273 0.0184867 -0.0300272 -0.0234106 0.0151883 0.0539324 -0.00682721 -0.018223 0.0352071 0.010977 0.0644923 0.0327335 0.0210724 0.00626094 -0.0124563 0.0457729 0.0199191 0.0517073 0.0649721 0.0116981 0.0418596 0.00105472 -0.0295568 0.0484932 -0.0277061 -0.0105829 -0.0247055 -0.0316256 -0.00552834 0.0391366 0.0198037 0.06841 -0.0430974 0.0101556 0.0733303 0.0674058 0.0578567 -0.0349893 -0.0470148 -0.037264 0.0732578 -0.0494827
internal_weight=0 1328.3 457.854 622.229 480.131 706.069 332.657 147.475 180.051 628.024 83.1044 356.328 153.441 67.0257 374.749 250.15 24.6695 142.098 48.6537 80.4488 53.7279 30.6098 220.728 78.0449 54.823 39.8698 26.346 152.606 29.1923 123.413 88.3698 25.8389 135.6 41.5047 57.7792 103.46 225.48 42.8445 29.3963 182.636 21.3805 34.4506 32.1403 194.601 124.6 22.6696 271.696 160.794 86.0413 161.255 108.213 18.0439 68.555 97.2867
internal_count=5706 3446 2260 1893 1545 1553 984 561 578 1330 302 824 510 223 1958 1271 97 348 197 338 148 110 473 223 170 134 98 406 89 317 200 82 351 150 256 256 1174 211 152 963 104 105 95 403 687 82 506 319 187 859 608 87 143 551
is_linear=0
shrinkage=0.04


Tree=9
num_leaves=50
num_cat=0
split_feature=49 16 30 16 43 23 54 13 4 9 43 16 43 15 1 14 21 51 14 14 54 2 9 30 54 11 1 1 51 9 54 41 15 52 43 19 13 45 30 26 23 2 51 15 20 51 43 11 20
split_gain=899.322 147.526 90.11 71.8453 47.9889 43.335 41.2331 39.5498 29.4285 27.7853 27.4667 27.4039 29.7074 26.6941 24.7769 24.6965 22.5782 23.8505 21.1954 19.0015 24.6595 25.2702 16.8127 16.5247 16.4316 15.8817 16.8823 15.2599 14.34 13.6354 13.529 12.7133 12.4683 10.5718 12.2268 10.1779 9.66421 8.89869 8.53208 10.8903 7.47725 7.26213 4.63044 3.70824 3.15408 2.88078 2.29114 1.71952 0.997954
threshold=1.0000000180025095e-35 1.0000000180025095e-35 0.57174939037939054 1.0000000180025095e-35 21770.487449139488 -0.83108745847977905 0.6604469835769563 -6.3256997423562087 3370.3658732292147 0.78880001771592911 21205.081858885034 1.5000000000000002 13482.729515361612 1.0000000180025095e-35 3.1333033998426978 0.54940616564298483 4.6547702066842467 0.48876439356220996 0.30877389131898142 0.42557542012985311 0.78940703571625814 5.2678388670274598 1.0842562095855823 0.73949269693075925 0.049457903301059515 2538.5103522606446 2.9843399811743039 7.5071103882100427 0.19403139810514544 1.8543494120065336 1.1206644645452788 517809.93756926223 1.5000000000000002 0.41136698136912347 33846.748671773945 1.0000000180025095e-35 4.9842631870535028 19706.133492103345 0.28518794435020922 -0.0092514088575217073 0.90418433053258307 14.944803364886814 0.48876439356220996 1.0000000180025095e-35 1.5412389968302578 0.22574916039968398 22756.253604026642 2329.6536318335161 0.48245904172547605
decision_type=2 2 2 2 2 2 2 2 2 2 2 2 2 2 2 2 2 2 2 2 2 2 2 2 2 2 2 2 2 2 2 2 2 2 2 2 2 2 2 2 2 2 2 2 2 2 2 2 2
left_child=1 2 4 19 13 6 31 10 16 35 24 12 29 37 -15 25 17 -6 -9 40 32 -22 -20 33 -7 45 -27 -11 -16 -3 -12 46 38 34 -14 -10 -17 -1 39 -21 44 -40 -39 -35 -2 -5 -4 -25 -13
right_child=3 11 5 15 8 7 -8 18 9 27 30 48 23 14 28 36 -18 -19 22 20 21 -23 -24 47 -26 26 -28 -29 -30 -31 -32 -33 -34 43 -36 -37 -38 42 41 -41 -42 -43 -44 -45 -46 -47 -48 -49 -50
leaf_value=0 -0.048853729088137836 -0.0061890447341531873 -0.023893312211451977 -0.050756962148800017 -0.026523379587404805 -0.036226289633062757 0.049368782480857014 0.015835888941414737 -0.015957095717964789 0.03643195740878525 0.02998767266686864 0.058410816603347432 0.03073973861140181 -0.025384599324857173 0.0084480968728227728 0.011630888496610868 0.03669645907889544 0.031408299372807529 0.045015122712823798 0.024892411399696092 -0.032377589923328509 0.045080494561150694 0.064188910540747324 0.054746179282243228 0.019765949854203047 0.032214462403908788 -0.028898456872432768 0.068870367988922973 0.061339908452128354 0.048242991262395507 0.065436183230348707 0.01019801638218 0.020552413098774695 0.052750422655412112 0.057638411350005317 0.023736612842928679 0.055533499661826177 -0.044297246521086846 -0.033645684013063663 -0.02887593827638479 -0.015507973632370218 0.0027116728695306702 -0.010676256479756474 0.079792845592228392 -0.022395243824396279 -0.014534812329796469 -0.057276222525511351 0.076446086911128544 0.077315422743259365
leaf_weight=16.603196009993553 94.677625522017479 17.701836451888088 9.3373725861311012 10.092643499374391 35.346497803926468 13.413685694336889 22.997347205877304 22.521876618266106 13.602807253599165 64.669225871562958 71.53842031955719 17.425511881709099 62.754718601703644 15.290206849575041 17.319994866847992 15.108901143074034 27.147527039051056 16.167300745844841 129.28814649581909 9.9724349230527896 10.985885411500933 15.868726462125776 211.28369137644768 16.827636316418648 20.839276179671288 20.027840077877048 10.662541285157202 40.844524726271629 16.581442967057228 11.74939228594303 24.441821470856667 11.867622464895247 7.8637436479330054 25.394239023327827 55.034855589270592 36.914672255516052 19.740799695253372 26.664920791983604 179.94085000455379 13.736840710043905 16.255028426647186 8.5413683950901014 10.425262242555617 24.656017646193504 10.79190734028816 7.6532134264707556 8.9758689254522306 75.084316164255142 146.1957246363163
leaf_count=62 551 63 40 53 142 57 58 67 53 182 199 35 171 64 63 54 76 46 328 44 58 49 458 36 64 64 46 91 43 29 50 39 35 57 123 111 51 127 974 73 79 38 41 45 57 34 40 131 255
internal_value=0 0.0434909 0.0339239 -0.021748 0.0175861 0.0439736 0.00930474 0.0476759 0.0275659 0.037623 0.0284324 0.0620962 0.0543648 -0.00508144 0.0159916 0.0116582 0.00737566 -0.0080088 0.0545062 -0.0293325 -0.0227847 0.0129429 0.0570067 0.0586969 -0.00197975 -0.00661896 0.0104978 0.0493149 0.0350813 0.0154798 0.0393734 -0.0210775 -0.0272147 0.0507162 0.0435617 0.0127712 0.0371882 -0.024585 -0.0290767 -0.00572475 -0.0423979 -0.0319323 -0.0353819 0.0668371 -0.0463546 -0.0364616 -0.0417711 0.0728576 0.0755226
internal_weight=0 1336.91 884.083 451.92 337.578 546.505 53.1782 493.327 234.693 156.031 130.233 452.824 289.203 102.885 49.1916 83.2859 78.6613 51.5138 363.094 368.634 246.91 26.8546 340.572 259.752 34.253 48.4362 30.6904 105.514 33.9014 29.4512 95.9802 30.1809 220.055 167.84 117.79 50.5175 34.8497 53.6934 212.191 23.7093 121.725 188.482 37.0902 50.0503 105.47 17.7459 18.3132 91.912 163.621
internal_count=5706 3446 2501 2260 1101 1400 177 1223 701 437 370 945 655 400 170 302 264 188 853 1958 1271 107 786 563 121 197 110 273 106 92 249 119 1164 396 294 164 105 230 1129 117 687 1012 168 102 608 87 80 167 290
is_linear=0
shrinkage=0.04


Tree=10
num_leaves=48
num_cat=0
split_feature=48 40 15 55 10 30 43 43 43 9 17 4 30 17 54 21 2 17 15 24 4 5 15 21 9 15 28 45 55 25 45 30 3 24 51 14 15 30 21 15 28 54 54 22 9 43 45
split_gain=828.305 182.756 67.5416 55.1437 52.4868 37.5475 31.7793 31.2759 30.778 27.8889 26.5905 24.7125 22.7125 22.1573 17.0227 16.3337 15.7561 15.5756 14.8212 16.2708 16.4838 14.5686 13.9532 12.8916 17.6279 11.899 11.833 11.7676 19.0258 10.4742 10.3523 10.1187 9.65763 9.6399 9.22544 8.0971 11.4784 11.6312 10.5047 7.89133 8.33658 7.81989 6.38462 4.99097 3.62451 1.63871 5.21185
threshold=1.0000000180025095e-35 1.5000000000000002 2.5000000000000004 0.68856433963730657 1.0000000180025095e-35 0.7339670304327347 16348.624363843397 25335.52422925959 34449.230009146944 1.0658794384812691 1.9049535955702837 4086.8960466498397 0.64574617656965227 3.8411014491371005 0.96306405112566906 1.3128364903645227 -9.2510537258914347 1.7198226612052812 1.5000000000000002 0.58972964039747811 3997.0074508362291 2.2899159747225357 1.0000000180025095e-35 6.1700736297231549 1.0953287225914214 1.0000000180025095e-35 0.79285445155067857 38927.288115032585 0.94723226792285098 -0.22317878497016488 133008.99821775383 0.71742786527857005 0.85325759105348653 0.62531077075927033 -0.84153034459000675 0.47228309240854555 1.0000000180025095e-35 0.53294372297708492 5.0495025026134819 1.5000000000000002 0.86233330919555129 -0.21417861363955423 -0.071702532450615683 0.14637162284358884 0.80040532812040144 87157.877898207415 102025.45703747346
decision_type=2 2 2 2 2 2 2 2 2 2 2 2 2 2 2 2 2 2 2 2 2 2 2 2 2 2 2 2 2 2 2 2 2 2 2 2 2 2 2 2 2 2 2 2 2 2 2
left_child=3 2 4 -1 5 8 18 9 13 17 14 -10 16 -2 21 25 -8 -6 19 -3 -21 29 30 24 -7 -9 35 42 -29 -5 -23 -11 -31 -4 -17 45 38 -38 -37 40 41 -14 -18 -22 -35 -12 -47
right_child=1 6 33 10 7 23 12 15 11 31 26 -13 39 -15 -16 34 27 -19 -20 20 43 22 -24 -25 -26 -27 -28 28 -30 32 -32 -33 -34 44 -36 36 37 -39 -40 -41 -42 -43 -44 -45 -46 46 -48
leaf_value=0.034013512264662892 -0.0014460413795330852 -0.0052011788001688096 0.039710464819454429 0.0057262962207862145 0.0097895749517375435 -0.0015289563132226134 0.0079247018648405075 0.0025571809816063405 -0.0048647824229467746 0.024011039791499024 -0.050439229197323694 0.033270970707723099 0.039743922470775295 -0.050268152039467877 0.03147560665756427 0.028971248152159776 0.047011140168885752 -0.042040573377938158 0.06168596725092014 0.0070441177130245837 0.029101090227464346 0.0046860142219121307 0.037994665339217186 0.073274861271338698 0.050219932452745808 0.050625083275262689 0.0032237658395849805 0.055763068534802222 0.013986205583920783 -0.050685051401022196 -0.04164432703310425 0.063169755521824064 -0.020318173088417497 0.051348531814502225 0.063035978269725651 -0.037794028121607343 -0.022021627453896554 0.031504560192978322 0.0037396149790140539 0.075835496237515579 0.070996192058672483 0.060288381951234281 0.068034637962835598 0.058090860568839234 0.08080518562555937 -0.0076668934980093986 -0.042196945303890974
leaf_weight=26.59611801803112 144.33046922087669 18.331647872924805 26.681158050894737 14.919038012623785 31.650413870811462 17.603450939059258 15.54522882401943 19.639372512698174 40.587566912174225 32.16101485490799 44.325680494308472 78.430943161249161 46.291448727250099 16.267304211854935 12.841133847832678 18.090551063418388 52.457769140601158 12.57428629696369 28.374792188405991 22.81907731294632 18.008391976356506 22.238641947507858 12.628082096576689 14.509969398379324 24.214646399021149 14.599373862147329 13.24268166720867 40.541266977787018 32.604863032698631 25.370770081877708 11.08088134229183 17.463238045573235 58.351869687438011 15.93215227127075 79.252955809235573 98.539387986063957 20.337391540408138 8.9740025550127012 10.155432149767874 95.719479188323021 105.53160634636879 151.73572964966297 66.080499917268753 33.990319132804871 33.593924582004547 9.2061589211225492 56.378611266613007
leaf_count=73 551 63 70 69 103 60 48 62 147 97 262 226 110 76 43 49 126 55 62 73 49 105 50 30 59 34 56 87 97 145 59 37 296 41 168 542 107 36 47 167 184 308 131 77 65 46 322
internal_value=0 0.0415101 0.0258129 -0.0212864 0.0209537 0.0108621 0.0552189 0.0358934 0.00478638 0.0179371 -0.0248577 0.0201927 0.0590083 -0.00657848 -0.0117117 0.0485163 0.0478104 -0.00492298 0.0360765 0.0279168 0.0361753 -0.0157062 0.00265319 0.0405645 0.0283438 0.0237477 -0.0327064 0.0509594 0.0374816 -0.0243554 -0.0106772 0.0384262 -0.0298603 0.0611551 0.0569725 -0.0346761 -0.0278108 -0.0050266 -0.033804 0.0647364 0.0611019 0.0556361 0.0590212 0.0485788 0.0720569 -0.0430554 -0.0376077
internal_weight=0 1365.61 637.583 445.186 561.376 335.944 728.032 225.431 279.616 93.849 418.59 119.019 606.508 160.598 157.43 131.582 207.23 44.2247 121.524 93.1494 74.8178 144.589 45.9476 56.3281 41.8181 34.2387 261.159 191.684 73.1461 98.6417 33.3195 49.6243 83.7226 76.2072 97.3435 247.917 138.006 29.3114 108.695 399.278 303.559 198.027 118.538 51.9987 49.5261 109.91 65.5848
internal_count=5770 3512 1930 2258 1754 1149 1582 605 1000 292 2185 373 1258 627 767 313 489 158 324 262 199 724 214 149 119 96 1418 441 184 510 164 134 441 176 217 1362 732 143 589 769 602 418 257 126 106 630 368
is_linear=0
shrinkage=0.04


Tree=11
num_leaves=50
num_cat=0
split_feature=48 40 44 16 44 19 29 53 40 44 29 28 21 55 18 21 6 20 15 18 51 52 38 44 24 13 15 9 52 54 13 21 4 55 15 20 28 6 40 28 13 8 24 44 41 23 1 20 24
split_gain=760.361 168.063 108.33 62.8875 61.8348 50.4642 38.2038 26.4869 26.3068 31.9921 23.0254 23.8049 22.9703 21.3909 20.5551 20.4766 20.5673 30.3288 20.4639 18.1703 17.8901 17.6961 15.6788 15.1575 17.2776 14.5699 13.5177 13.3587 13.3107 11.746 11.5618 11.3088 10.4041 9.67954 12.2307 9.21946 10.6258 9.14859 8.94434 8.23374 7.37881 7.3579 5.349 5.92775 4.65995 3.9141 3.84149 3.38379 1.21482
threshold=1.0000000180025095e-35 1.5000000000000002 1.5170285892321502 1.0000000180025095e-35 2.4373878477020603 2.5000000000000004 -0.27832797507821272 0.41357588377881283 2.5000000000000004 1.4090172371941942 0.3665079955126494 0.40950760908537631 8.4030159578879537 0.92917245432177287 39.624072351700775 3.8170118588096407 3.0145534016233744 1.3059215476977051 1.5000000000000002 11.503639793405766 -0.27366112257604736 0.54954735442467106 1.0000000180025095e-35 0.75754337635358215 1.0151602289620647 9.2684498889354838 1.0000000180025095e-35 2.2841932841596919 -0.65737854766375903 0.20297640171889597 8.4931665525152891 3.2313159915946761 5250.7090635542072 0.65089483409707871 1.0000000180025095e-35 1.1367635033382963 0.11105991351794883 7.0034862861434721 1.0000000180025095e-35 0.1339920411098437 -1.2591312730399966 1.0565391180481902 0.45132280522187662 1.0562782557098715 3715807.8399329162 -0.085352685487909932 2.378620936235365 1.3793911689622191 0.53330844658705989
decision_type=2 2 2 2 2 2 2 2 2 2 2 2 2 2 2 2 2 2 2 2 2 2 2 2 2 2 2 2 2 2 2 2 2 2 2 2 2 2 2 2 2 2 2 2 2 2 2 2 2
left_child=3 2 6 12 8 7 13 21 9 33 11 -11 23 31 -9 16 17 -8 20 -5 -15 40 29 24 25 48 -18 30 -25 37 -6 41 38 -3 -35 44 -37 -21 -17 -12 -4 -2 43 -10 -30 47 -34 -44 -1
right_child=1 4 5 19 27 -7 15 14 42 10 39 -13 -14 18 -16 32 26 -19 -20 22 -22 -23 -24 28 -26 -27 -28 -29 35 -31 -32 -33 46 34 -36 36 -38 -39 -40 -41 -42 -43 45 -45 -46 -47 -48 -49 -50
leaf_value=-0.021599992468429408 -0.0034519894883049767 0.072390426030942798 -0.046355839575914645 -0.026893468212403057 -0.038504034666686032 0.049024905231208428 0.00039110397460047054 -0.015145828860067491 0.068853550917969852 -0.010883871930902225 0.02705867595089306 0.038338814975039943 0.033982223855166131 -0.045492509640059228 0.046919114782793744 0.012819884758883474 0.030513356890367729 0.046269499568229872 0.034656113623091546 -0.030982626410583438 0.0039632047836292619 0.0097888030206022374 0.042909306092911645 0.0052560446533413173 0.042120013281366595 0.024857642067681391 0.061572323455511065 0.037950669075022141 -0.042403440745291406 0.031631693393340606 0.014118664866163852 0.049494525850783358 0.04583929072891782 0.042353452521771882 0.060948998871541954 -0.035012959983438272 -0.010314309099454655 0.01610788121663655 0.048733634379743325 0.065834217724889982 -0.020975300178427161 0.035120402373075621 0.046872738931247396 0.036316936685898631 -0.016724628763449132 0.071269730723712552 0.067184920063931938 0.069883842692547327 -0.048761952165511546
leaf_weight=7.343347564339644 15.977893486618997 50.817846968770027 31.971504256129265 16.421231731772423 13.654682099819185 24.402689784765244 57.601503908634186 15.423506438732145 18.053733676671982 31.385729998350143 16.247231259942055 30.30445770919323 8.7983545213937742 17.003505662083626 17.776996701955795 17.454204916954041 51.018918290734291 38.653844609856606 20.296516358852386 16.127651154994968 34.442421361804008 20.6896902769804 26.884249418973923 13.580579638481138 8.9103466570377332 7.3551248162984839 46.054954037070274 11.203240469098089 160.86649285256863 14.874705061316488 12.003047853708265 32.348920196294785 28.18447034060955 125.77673818171024 126.54764485359192 73.899159952998161 47.950278028845787 10.299308449029921 38.491527318954468 26.510185956954956 52.357883557677269 14.25352807343006 36.91185250878334 26.976096600294113 14.641725242137907 178.96282029151917 65.745615124702454 25.248317688703537 11.662908911705015
leaf_count=40 53 86 154 73 56 67 192 61 33 110 44 72 36 76 50 54 145 96 55 74 119 72 76 66 34 32 102 30 932 49 36 77 69 294 256 416 248 37 93 52 218 38 82 64 77 321 139 46 68
internal_value=0 0.0397143 0.024692 -0.0207098 0.0528395 -0.0034329 0.0342899 -0.0128956 0.0555211 0.048752 0.0292356 0.013194 -0.0280985 0.0159929 0.0178922 0.041389 0.0324938 0.0190542 0.000881857 0.010138 -0.0123759 -0.0227737 0.0193361 -0.0297482 -0.00444445 -0.0210263 0.045564 0.00199413 -0.0325706 0.00343962 -0.013587 0.0330102 0.0526665 0.0553894 0.0518088 -0.0343432 -0.0254572 -0.0122163 0.0379126 0.0517654 -0.0309128 0.0145635 0.0650396 0.0501173 -0.0403723 0.067689 0.0611287 0.0567983 -0.0395474
internal_weight=0 1370.75 640.15 439.615 730.604 162.622 477.528 138.22 693.743 407.59 104.448 61.6902 355.008 134.323 33.2005 343.205 193.329 96.2553 71.7424 84.6071 51.4459 105.019 68.1859 346.21 35.2717 26.3614 97.0739 36.861 310.938 41.3017 25.6577 62.5803 149.876 303.142 252.324 297.358 121.849 26.427 55.9457 42.7574 84.3294 30.2314 286.153 45.0298 175.508 241.123 93.9301 62.1602 19.0063
internal_count=5770 3512 1930 2258 1582 622 1308 555 1460 914 278 182 1949 418 111 890 535 288 250 309 195 444 236 1913 174 140 247 122 1739 160 92 168 355 636 550 1673 664 111 147 96 372 91 546 97 1009 449 208 128 108
is_linear=0
shrinkage=0.04


Tree=12
num_leaves=52
num_cat=0
split_feature=48 40 16 15 11 43 8 16 15 43 5 21 13 9 21 3 13 14 52 21 5 18 50 14 23 51 3 8 5 18 14 9 43 9 3 18 25 0 23 7 1 9 20 43 1 3 4 3 15 27 43
split_gain=699.053 155.254 59.2527 58.8512 47.9608 37.0326 33.1198 28.5628 31.6434 27.0006 22.3195 21.5312 21.3066 19.6823 20.1562 19.0955 19.0564 19.0088 17.5607 17.2994 16.9225 17.2381 18.2511 16.8069 16.4562 14.9017 14.8051 23.3643 13.7772 13.5535 24.5576 15.783 13.0802 12.9982 11.0514 10.8497 10.1907 9.28438 8.90348 10.4007 8.5875 7.65259 7.01218 5.07011 4.99583 4.08798 2.52445 2.18266 1.78296 5.79826 0.383358
threshold=1.0000000180025095e-35 1.5000000000000002 1.0000000180025095e-35 2.5000000000000004 2073.4464611355816 30439.090131014957 1.3713421838449156 1.5000000000000002 1.5000000000000002 21205.081858885034 1.5860055809641798 8.4030159578879537 11.303167768060071 1.1053851557180088 2.7034735831963341 0.63711684902745602 -11.1095110847477 0.41160802883173569 -0.13533199367424523 3.6739367337641506 2.9446746973887112 27.68590376818246 95.500000000000014 0.32988961359700314 -0.15140976934477382 0.50956110403855626 1.5406883143374552 0.97370245994644244 2.9871045305873638 20.891123312523224 0.60955302581066073 0.78880001771592911 27884.8417246438 1.7902510398546896 2.3547350769939368 36.273433870510381 0.10041340468570627 1.0000000180025095e-35 0.87199139559111594 22.500000000000004 2.2511538401815918 0.75086904969678503 1.1425648059228453 21770.487449139488 1.3623014805051372 1.4443730515903559 2121.0658275666819 0.75244530045476343 2.5000000000000004 0.818791603157356 15860.494123091697
decision_type=2 2 2 2 2 2 2 2 2 2 2 2 2 2 2 2 2 2 2 2 2 2 2 2 2 2 2 2 2 2 2 2 2 2 2 2 2 2 2 2 2 2 2 2 2 2 2 2 2 2 2
left_child=2 3 11 4 5 6 16 8 9 15 12 20 -7 14 25 33 -2 36 -17 -8 34 37 35 -15 -12 -6 27 -19 40 30 -11 -31 -16 -3 38 -23 -4 46 42 -40 -29 -5 -1 -25 -10 -39 -22 -43 49 -46 -9
right_child=1 7 17 41 13 10 19 50 44 29 24 -13 -14 23 32 18 -18 26 -20 -21 21 22 -24 43 -26 -27 -28 28 -30 31 -32 -33 -34 -35 -36 -37 -38 45 39 -41 -42 47 -44 -45 48 -47 -48 -49 -50 -51 -52
leaf_value=-0.044327857124948564 -0.050104315725982812 -0.032238816292135375 0.0063156128919054019 0.031165404492766089 -0.01247611728327707 -0.016281948891017878 0.002870366029087469 0.054516380137604063 0.043126793453580697 0.045645645787783316 0.0098541848274265181 0.032141411505687827 0.033489724698044829 0.0064283239851296763 0.016947433675385048 0.012745609847668909 -0.0061883960851357748 -0.027481880092900642 0.045752403728662662 0.046517154502141653 -0.015889274546389897 0.059524807050844022 -0.035527233225550243 0.038810338644857015 0.040763163007375515 0.040743692076191024 0.059318222008309683 0.032503852699791995 0.066021658143593079 0.034188424217773274 -0.013329365602102574 0.057498127142741197 0.060457251301342767 0.024161186014065333 0.008695575971202487 0 -0.046111483749033823 -0.049240286870235128 0.014461837910396867 -0.030721665077416273 -0.016458931822866486 0.048631208613274579 -0.0290000070851552 0.064697117660090772 0.046064278662307202 -0.012456455927893609 0.01519761108313358 0.070646554254246333 0.0748738735473337 0.073341379637622023 0.070641624869321989
leaf_weight=133.01763516664505 18.187035009264946 12.910038933157923 10.592057257890703 18.101084008812904 30.078493013978004 36.21070522069931 31.879804387688637 18.263963162899017 22.151970714330673 39.499429151415825 40.089353144168854 8.9498671591281873 21.59504047036171 12.858724415302275 22.157048985362053 42.528375297784805 114.30867387354374 16.379732668399811 71.959833651781082 27.397164046764374 8.8334623128175718 11.117776468396192 8.0013809055089933 22.801941454410553 99.219094440340996 11.1980984210968 12.657998800277708 12.560765922069551 11.054227739572523 66.948447406291962 15.158807486295698 205.37673166394234 24.816505715250969 12.33003295958042 8.90412889420986 7.9416298717260352 11.933501496911047 21.231773421168331 11.491267278790472 24.176428824663162 9.5889280438423139 20.546774744987488 90.695101976394653 52.036809772253036 32.010266199707985 7.8960891813039771 7.1074345707893363 38.735196486115456 54.7645323574543 32.591486275196075 105.31715793907642
leaf_count=802 87 50 41 51 107 133 114 37 50 88 131 36 59 39 67 125 441 71 170 74 47 43 46 60 260 27 33 41 26 163 49 414 51 34 37 41 58 128 52 129 39 48 513 104 71 41 34 77 96 58 177
internal_value=0 0.038049 -0.0201466 0.023638 0.0190968 0.0111918 -0.00126685 0.0506596 0.0469645 0.0417896 0.0233517 -0.0274287 0.00220793 0.0364355 0.0226858 0.0267488 -0.0124395 0.00971312 0.033683 0.0234211 -0.029066 -0.0115273 0.0132933 0.0499698 0.0320079 0.00192665 0.0211765 0.0108027 0.0301481 0.0481398 0.0290937 0.0518702 0.0405037 -0.00427172 -0.0337125 0.0347144 -0.0212555 -0.0266801 -0.0352257 -0.015833 0.010859 0.0563622 -0.0382302 0.0572177 0.0637802 -0.039979 -0.00126174 0.0635943 0.067356 0.0603768 0.0685389
internal_weight=0 1374.03 434.131 642.218 564.834 388.887 191.773 731.811 608.23 466.712 197.114 349.364 57.8057 175.948 88.2501 139.728 132.496 84.7672 114.488 59.277 340.414 72.1295 27.0608 87.6975 139.308 41.2766 62.2417 49.5837 33.2039 326.983 54.6582 272.325 46.9736 25.2401 268.285 19.0594 22.5256 45.0688 259.38 35.6677 22.1497 77.3831 223.713 74.8388 141.518 29.1279 15.9409 59.282 119.366 64.6018 123.581
internal_count=5770 3512 2258 1930 1754 1299 716 1582 1368 1093 583 1949 192 455 252 379 528 309 295 188 1913 380 130 203 391 134 210 177 106 714 137 577 118 84 1533 84 99 250 1496 181 80 176 1315 164 275 169 81 125 225 129 214
is_linear=0
shrinkage=0.04


Tree=13
num_leaves=53
num_cat=0
split_feature=48 40 16 15 30 13 51 11 9 43 15 2 21 43 24 6 21 13 43 18 5 18 18 13 30 20 43 16 41 2 30 15 18 26 52 3 3 28 0 20 30 23 24 6 3 40 42 9 43 16 25 29
split_gain=643.359 143.766 55.8494 53.5879 45.2452 36.4827 31.4175 28.1884 27.6935 26.5035 25.7966 30.118 25.588 23.576 21.549 20.9341 20.1981 18.3423 16.8528 16.606 16.2475 16.1272 16.2176 15.8899 14.422 14.0625 13.927 13.8053 13.4811 13.9093 16.8781 13.3891 12.9517 12.0525 11.971 10.5693 9.75064 9.21623 8.92564 8.87579 9.39477 9.38114 8.37057 4.74639 4.00659 3.9073 4.96255 2.70727 2.59833 3.47358 2.46008 0.24744
threshold=1.0000000180025095e-35 1.5000000000000002 1.0000000180025095e-35 2.5000000000000004 0.54524373242881086 -8.692407689312887 -0.80791580721196576 1634.0808894963686 1.0953287225914214 29367.599811028249 1.5000000000000002 -2.5650115307726398 5.9323233356293352 31267.855897439116 1.2528443913901011 0.093592367358425146 8.4030159578879537 -6.3256997423562087 11444.840711363528 11.503639793405766 2.9446746973887112 27.68590376818246 34.921389206310884 6.6517783957463523 0.56137753306100879 1.1238879468076854 40173.953113729411 1.5000000000000002 1047920.9957448463 6.3838604239937089 0.53294372297708492 1.0000000180025095e-35 44.589667359884778 0.36495360550336969 -0.40500265366778682 2.3547350769939368 1.4597042190759122 -0.0018658201021236804 1.0000000180025095e-35 1.3855455811554755 0.68084700305511836 0.41275668860517617 0.62531077075927033 6.7370675895593495 1.4443730515903559 2.5000000000000004 29.500000000000004 0.80040532812040144 27349.122309132432 1.5000000000000002 0.48757210658333522 -0.68097152769286839
decision_type=2 2 2 2 2 2 2 2 2 2 2 2 2 2 2 2 2 2 2 2 2 2 2 2 2 2 2 2 2 2 2 2 2 2 2 2 2 2 2 2 2 2 2 2 2 2 2 2 2 2 2 2
left_child=2 3 16 4 6 9 36 10 12 25 11 14 -7 32 23 -15 20 26 -9 -4 35 38 -23 -3 33 -6 -13 28 -21 30 -30 -11 -8 -20 -19 39 43 -10 50 40 -1 -41 -5 -2 -40 46 -12 -44 49 -26 -22 -50
right_child=1 7 19 42 5 8 13 18 37 31 45 17 -14 15 -16 -17 -18 34 24 27 21 22 -24 -25 48 -27 -28 -29 29 -31 -32 -33 -34 -35 -36 -37 -38 -39 44 41 -42 -43 47 -45 -46 -47 -48 -49 51 -51 -52 -53
leaf_value=-0.039854427663232252 -0.051807599735730556 -0.032453812918241405 -0.026299523179338313 0.034034748951066222 -0.051777516953404205 0.0077929789390802865 -0.01397136687526958 0.023650987103928506 0.028714574154443184 0 0.06230006135096975 0.0046563977304542002 0.049484701296409909 0.0051804252574978397 0.041667012606104149 0.043096105038674851 0.030438385469172151 0.019990147577981569 0.050517062752621113 -0.025374733103001781 -0.015722764110686335 0.045103382957171798 -0.015570018175319143 0.017868075739086529 0.050430549084749379 1.3472085781987131e-05 0.04824296833599985 0.056914806562888373 -0.024423409073579636 0.04729955167314185 0.040014186750555999 0.047257249742969326 0.015940544931924389 0.0071404517593543597 0.052816076861396201 0.0083319101899792629 0.0031523190514922308 0.052766755369808495 -0.048693075262872053 -0.033712741942489244 0.00028692361172547905 0.0025510938324013223 0.045643397931737717 -0.016603511594138105 -0.012060745369999721 0.071179914152936744 0.033146175840597605 0.071346398254289137 0.055947539998507989 0.066830335514003192 0.014968182278407715 0.068074312825563518
leaf_weight=200.40852133929729 17.954250469803814 20.803134515881538 16.258810073137283 27.214846283197403 15.138681352138518 83.307115450501442 58.988963976502419 25.637716263532639 39.323914021253586 19.259959697723389 27.043162301182747 34.504509896039963 33.084099188446999 44.298126563429832 20.277631059288979 51.001178964972496 9.0919618457555753 22.749260023236275 35.527106717228889 13.026910975575445 8.7775844037532789 12.752542048692705 14.487632617354391 18.416829213500023 87.504669547080994 17.229527652263641 18.036541506648064 11.780018806457518 15.725158154964449 17.582340016961098 10.479108199477194 19.762885436415672 37.410418912768364 15.507014155387877 131.87048594653606 8.9378149360418302 11.887958228588102 105.58564186096191 20.628264293074611 24.924430266022682 9.1553813517093641 19.637603580951691 16.307236447930336 11.824782833456991 7.8431688398122779 36.392343252897263 20.695600882172585 34.42897766828537 30.450582012534142 46.033094763755798 7.1446754783391944 140.76115487515926
leaf_count=1209 83 78 73 70 69 265 238 72 113 63 54 103 80 142 47 132 36 61 74 58 47 51 79 51 182 62 39 28 70 48 32 46 130 44 282 37 41 242 128 146 45 96 41 48 41 64 50 65 58 79 34 244
internal_value=0 0.0364843 -0.0196045 0.0226421 0.0183022 0.0277726 0.00472521 0.0486237 0.0346902 0.00223385 0.0402126 0.0339192 0.0198755 0.0116176 0.00850907 0.0256924 -0.0267805 0.0411288 0.0562777 0.00931874 -0.0284051 -0.0111794 0.0126419 -0.00857906 0.0585659 -0.0241794 0.0200971 0.0180388 0.00942679 0.0201881 0.00110837 0.0244703 -0.00222136 0.0377282 0.0481278 -0.0330262 -0.0265084 0.0464193 -0.0260464 -0.0345387 -0.0380464 -0.0175846 0.0537499 -0.0386316 -0.0393243 0.0597629 0.0502911 0.0637415 0.061962 0.0563562 -0.00118653 0.0661229
internal_weight=0 1376.22 428.642 644.009 566.058 332.692 233.366 732.211 261.301 71.3911 350.789 266.658 116.391 191.699 59.4976 95.2993 343.79 207.161 381.421 84.8523 334.698 71.6339 27.2402 39.22 355.784 32.3682 52.5411 68.5935 56.8135 43.7866 26.2043 39.0228 96.3994 51.0341 154.62 263.064 41.667 144.91 44.3937 254.126 209.564 44.562 77.9511 29.779 28.4714 84.1311 47.7388 50.7362 304.75 133.538 15.9223 171.212
internal_count=5770 3512 2258 1930 1754 940 814 1582 700 240 829 661 345 642 176 274 1949 485 753 309 1913 380 130 129 681 131 142 236 208 150 102 109 368 118 343 1533 172 355 250 1496 1254 242 176 131 169 168 104 106 563 261 81 302
is_linear=0
shrinkage=0.04


Tree=14
num_leaves=61
num_cat=0
split_feature=42 40 44 16 44 19 30 17 29 40 44 53 15 3 28 29 17 28 52 16 30 3 18 15 24 6 24 20 44 17 55 17 30 7 24 21 25 4 44 52 13 18 29 21 21 30 52 28 2 28 42 24 44 21 23 43 20 4 6 55
split_gain=578.262 138.077 100.647 54.2754 53.8445 47.2416 37.0531 26.5303 25.4879 24.141 29.5898 22.3117 21.6224 27.5961 25.249 21.2436 21.0507 19.9247 18.3001 17.8609 17.1328 19.9057 16.7754 15.2092 18.4696 14.8466 13.4063 12.4288 12.3684 12.361 16.4729 12.3385 13.6629 12.286 11.8969 11.8656 10.7957 10.3884 9.88782 13.0644 14.4113 9.80992 8.98566 8.53524 8.11703 7.33828 6.99432 6.34817 5.20492 9.53555 4.51778 4.40679 4.94055 4.25488 3.66608 3.60193 3.29102 3.04346 2.24016 0.753074
threshold=44.500000000000007 1.5000000000000002 1.5170285892321502 1.0000000180025095e-35 2.4373878477020603 2.5000000000000004 0.55231734199282478 1.9049535955702837 -0.27040429055533216 2.5000000000000004 1.4090172371941942 0.41357588377881283 1.5000000000000002 0.50976362925124474 0.34462856186099672 0.3665079955126494 6.9505631264278325 0.40950760908537631 0.54954735442467106 1.0000000180025095e-35 0.58658523355231251 1.5123091856440407 39.624072351700775 1.0000000180025095e-35 0.99959276709505807 -4.7734387418308106 0.79754493859779507 1.2325468027633588 0.88074686621902898 3.093807989921761 0.93665980266711346 2.8518543355846391 0.75688676023181201 13.500000000000002 0.73671255304725525 2.6602363177092885 0.31947057047145305 9150.8356983058529 1.2719602350868453 -0.16491831983931235 7.7767444444053142 51.099335846874816 0.1709321424710859 3.8638139133637739 3.2313159915946761 0.48125789046331163 0.13360280701178776 0.1339920411098437 11.258635130831271 0.082675322733293574 59.500000000000007 0.45132280522187662 1.0562782557098715 1.1671994247740842 -0.085352685487909932 123405.47610360921 1.3793911689622191 2333.0581890871867 20.355781363942025 0.97333859255156119
decision_type=2 2 2 2 2 2 2 2 2 2 2 2 2 2 2 2 2 2 2 2 2 2 2 2 2 2 2 2 2 2 2 2 2 2 2 2 2 2 2 2 2 2 2 2 2 2 2 2 2 2 2 2 2 2 2 2 2 2 2 2
left_child=1 2 6 7 9 11 12 23 19 10 29 18 13 -1 -15 17 20 -12 42 25 21 26 -13 38 27 -8 45 57 34 44 -31 43 -33 -6 55 53 37 -14 39 40 -2 48 -4 -10 -3 -5 -41 -17 58 -50 -40 52 -11 -36 56 -9 -53 -25 -30 -56
right_child=3 4 5 16 33 -7 8 28 31 51 15 22 36 14 -16 47 -18 -19 -20 -21 -22 -23 -24 24 -26 -27 -28 -29 41 30 -32 32 -34 -35 35 -37 -38 -39 50 46 -42 -43 -44 -45 -46 -47 -48 -49 49 -51 -52 54 -54 -55 59 -57 -58 -59 -60 -61
leaf_value=-0.034729310358839693 -0.010487923473179481 0.045277381958668157 -0.047086440656508632 -0.013324910384312896 0.01803051983731575 0.044310934929018518 -0.022490430611094792 -0.011495996626707774 0.044633366636299007 0.06200278673806113 -0.012936206391509449 -0.016514731158102546 -0.00094574532256262679 0.0058364262005787563 0.045047207652506999 0.023794218103369104 -0.033401796402176907 0.032199372498306282 0.0088288509870973822 0.05180409173158803 0.04599877945568686 0.053596353857329179 0.039520512631359743 -0.046687037845756743 0.055797201221784873 0.02182046208666585 -0.044938905791520593 0.030213543691583428 -0.046464488608557904 0.048477156298118419 0 0.0070505092064369482 0.056776712057461362 -0.028737638997865446 -0.034919833818176399 0.043792745407088579 0.056168143780739935 0.04439253209147595 -0.017449007743535274 -0.048715716656612645 0.042112735172935747 -0.0056395466525875617 -0.019758821177002187 0.065378017061300767 0.060758673022992822 0.028070528411937745 -0.00053480529710050551 0.057976153418603266 -0.046753877899167011 0.014038132431242302 -0.048775823457764211 0.040823416520373849 0.032166840134560754 0.0063164045988594467 0.067335068273667517 -0.048045718822557787 0.063120592187692906 -0.0074517779613760627 -0.017241053587659132 0.056357832084097038
leaf_weight=18.85980136692524 29.088367357850075 132.96472224593163 38.249827370047569 13.505079522728922 22.794595032930374 24.898398965597153 16.360297232866287 7.9799803942441967 88.079937651753426 18.028703659772873 31.725455522537231 15.534616082906721 15.932109400629999 100.60191813111305 35.705448225140572 16.239361047744751 14.403250157833098 29.773986801505089 20.672272220253944 21.684451386332512 24.15453240275383 9.9996625781059247 17.678774833679199 7.855612054467203 10.137903809547423 41.892243936657906 11.114235818386076 8.1253016889095289 128.18436390161514 27.879574507474899 18.448355153203011 23.337826788425446 14.66013891994953 14.272224336862562 8.0343620926141757 7.8137313425540915 28.859890922904015 15.001852959394453 14.779449626803396 15.229430109262468 11.151194676756857 13.391416281461714 44.923941045999527 64.320735350251198 123.10937023162842 12.789870873093603 7.7219828069210044 26.836485728621483 8.4248934686183912 7.0667031407356253 20.368702441453934 36.133840054273605 26.728185206651688 6.6433100402355185 126.71362619102001 14.171279266476629 25.195806309580803 6.7804391533136368 6.3554840087890616 50.84638848900795
leaf_count=77 153 286 191 57 67 67 60 44 210 33 110 61 50 342 86 43 69 71 71 47 62 28 49 48 34 122 54 36 816 57 55 72 30 54 48 31 65 35 79 93 47 72 185 126 235 40 39 53 52 32 126 80 63 34 220 88 46 34 35 100
internal_value=0 0.0349057 0.0214105 -0.0184351 0.0468743 -0.00582087 0.0305204 -0.0256318 0.0404116 0.0493937 0.0429345 -0.0151176 0.0179736 0.00994464 0.0162971 0.0242246 0.00981783 0.00878848 -0.0242636 0.0210358 0.0188205 0.00445335 0.01307 -0.011363 0.011851 0.00910259 -0.00879348 -0.00783018 -0.0345352 0.0493245 0.0292948 0.0484223 0.0269397 0 -0.0152469 0.00479061 0.0384052 0.0209447 -0.0192673 -0.00944414 0.00406453 -0.0396809 -0.032635 0.0536154 0.0528501 0.00647923 -0.033306 0.0457032 -0.0426165 -0.0186123 -0.0362853 0.0585455 0.0448937 -0.0157875 0.0609738 -0.0358483 0.0505277 -0.0299904 -0.0452281 0.0643928
internal_weight=0 1374.95 647.254 425.271 727.691 161.958 485.297 339.304 270.336 690.624 406.977 137.059 214.961 155.167 136.307 104.575 85.9666 61.4994 103.846 79.937 71.5634 47.4088 33.2134 131.238 32.8993 58.2525 37.4092 22.7614 208.066 302.402 46.3279 190.399 37.998 37.0668 44.6427 22.4914 59.7939 30.934 98.3391 63.191 40.2396 163.423 83.1738 152.401 256.074 26.295 22.9514 43.0758 150.031 15.4916 35.1482 283.647 44.7569 14.6777 238.89 22.1513 61.3296 14.6361 134.54 177.56
internal_count=5770 3519 1946 2251 1573 624 1322 1941 667 1452 910 557 655 505 428 277 310 181 447 229 241 179 110 689 152 182 151 118 1252 633 112 438 102 121 245 113 150 85 537 332 200 1007 376 336 521 97 132 96 935 84 205 542 96 82 446 132 126 82 851 320
is_linear=0
shrinkage=0.04


Tree=15
num_leaves=59
num_cat=0
split_feature=48 16 16 15 23 3 8 16 43 17 15 3 43 23 18 14 52 43 23 15 25 3 29 43 1 17 43 24 3 8 14 52 17 43 17 9 23 7 5 38 1 55 42 18 26 18 15 50 28 21 24 14 27 19 18 3 21 3
split_gain=521.251 94.7502 72.6898 67.4076 36.8934 36.7138 32.4341 25.8536 26.483 22.5954 22.2468 21.723 21.682 21.5232 21.0609 21.0171 20.0758 19.7233 18.6863 21.7077 18.0334 17.5708 15.9714 17.8998 17.8555 15.4648 15.068 18.728 14.936 16.4459 14.3808 13.7166 13.5419 13.0584 12.5659 12.3681 10.7107 12.0399 10.7561 9.74265 9.56176 9.27268 9.38749 7.86007 7.75524 7.65718 9.20231 7.57881 5.28073 5.15539 4.93489 3.24528 6.14402 2.9508 1.19579 0.630409 0.443937 0.578261
threshold=1.0000000180025095e-35 1.0000000180025095e-35 1.0000000180025095e-35 1.0000000180025095e-35 0.71593666701133996 1.3703357447100573 0.77901920635677968 1.5000000000000002 13482.729515361612 6.9505631264278325 1.0000000180025095e-35 2.8394872529102657 18131.862163877853 -0.53644581862286256 49.73910573700271 0.47228309240854555 0.51431718696906681 29590.046497838321 0.13962282380512622 2.5000000000000004 -0.057390323487447367 1.1289077078036629 -0.16815447962492411 18406.261488261414 4.5649846827648695 3.0683972940063593 20068.204236159658 1.1033929220821144 2.9221203161134199 2.1975393499048583 0.52253833832693564 -0.16093284150848702 2.8841860022766883 20343.199347316502 3.0377869839148315 1.1937010774942669 0.8801710740936316 32.500000000000007 3.6152363388703264 1.0000000180025095e-35 4.3503332967996995 0.70632901866274134 62.500000000000007 28.319797746471675 -0.16442886903393963 51.599571436641341 1.5000000000000002 76.500000000000014 0.63955995381337927 2.0881689476332714 0.63719861178178527 0.64006016559511492 0.73764464643198913 1.5000000000000002 33.236580026703457 1.1289077078036629 3.4068086723510307 0.77037837394140951
decision_type=2 2 2 2 2 2 2 2 2 2 2 2 2 2 2 2 2 2 2 2 2 2 2 2 2 2 2 2 2 2 2 2 2 2 2 2 2 2 2 2 2 2 2 2 2 2 2 2 2 2 2 2 2 2 2 2 2 2
left_child=2 3 10 4 5 12 11 8 14 30 32 18 47 -14 -3 20 26 28 19 -5 -12 39 24 -24 -7 45 27 -6 29 -8 41 -23 36 -20 -28 -32 37 38 -1 -17 -27 -4 -43 -38 50 46 -10 -2 51 -18 -19 54 -53 -46 -34 -47 57 -9
right_child=1 7 9 6 16 22 17 56 25 -11 15 -13 13 -15 -16 21 49 44 33 -21 -22 31 23 -25 -26 40 34 -29 -30 -31 35 -33 48 -35 -36 -37 43 -39 -40 -41 -42 42 -44 -45 53 55 -48 -49 -50 -51 -52 52 -54 -55 -56 -57 -58 -59
leaf_value=-0.035599155353652254 -0.014340453026800289 -0.018716698383190782 0.032582567138809727 -0.023829942811216826 -0.033874546751291763 -0.03160192328900923 0.022231129377522699 0.046691797244455352 0.037621453250667958 -0.028208305321445887 0.019142567714515075 0.061561851105430727 -0.026060554517412304 0.011040792834922456 0.044194033945547301 0.016787767612931739 0.034179800763310564 0.019916013398229446 -0.00022802955046203423 0.037469268161957517 -0.048473078831372488 0.0081117191482387978 0 0.04273667572265194 0.022400253127501459 0.0016080618817551112 0.036861009136470071 0.033667242195895779 0.069686614681364376 0.056573547358312021 0.02006685923397385 0.071925663532625292 -0.047668483885322271 0.039540235997736074 -0.0019701241481553597 0.068990502605033352 -0.01574650967565483 0.010711932286209931 0 -0.038717006326788934 0.042321760164714166 -0.030252837325111501 0.016604531596172471 0.033358777557246262 0.053798284371693414 0.053207352426665667 0.062218623021450876 -0.054369650531957928 -0.0018487648812874422 0.066672092386205986 0.048816890967105966 -0.0013129563550136514 -0.04638852056642704 0.070579393681172956 -0.034001676285067471 0.067338948101338558 0.067468233422877708 0.061388161674321311
leaf_weight=88.246934503316879 17.667944133281708 19.315610617399216 14.663442969322203 32.473590701818466 14.572342321276667 14.868863418698309 113.29498505592346 22.977594062685966 105.09950409829617 15.441528618335722 8.1576892286539096 16.971147060394287 32.126430302858353 107.22464315593243 14.453730344772337 8.4310673028230667 16.025290101766586 16.64651457965374 18.309072554111481 12.386657461524008 22.535854771733284 12.779760241508486 20.518672809004784 69.005712255835533 26.760997772216797 19.623877167701721 75.960880681872368 11.2382765263319 17.007330656051636 28.746285885572433 19.854324504733086 9.7518965154886228 77.535824120044708 42.042568549513817 15.405446782708166 15.757912799715994 11.449604168534281 12.239180430769919 15.292785242199896 10.993017971515656 18.235310718417168 13.141454681754114 13.164301604032515 8.7599082887172681 73.477281495928764 37.226434722542763 36.561267882585526 15.0902232080698 6.3614748120307913 26.459560558199883 33.3713259100914 10.28499110043049 9.8564932793378812 42.189926698803902 26.743250489234924 41.333187237381935 74.369840070605278 59.068965524435043
leaf_count=530 72 71 40 126 60 58 327 47 245 74 40 34 125 332 35 41 40 45 64 31 144 62 68 164 78 57 181 30 31 63 63 32 509 103 48 35 60 59 80 67 41 64 50 36 152 76 69 76 35 50 73 56 64 77 166 72 128 108
internal_value=0 0.0341061 -0.0163335 0.0266405 0.0158768 0.00761263 0.0377387 0.0491951 0.041914 0.0150686 -0.0248902 0.0198972 -0.00447916 0.00235136 0.00806088 -0.00503376 0.0314406 0.044382 0.0128551 -0.00645752 -0.0301013 0.0131326 0.0235369 0.0330332 0.00270969 0.0462778 0.0225916 -0.00394316 0.0339516 0.0294049 0.0240519 0.0370271 -0.0302372 0.027356 0.0302028 0.042574 -0.0211027 -0.0257976 -0.0302534 -0.0141671 0.0217694 0.00740568 -0.00645698 0.00519049 0.0542165 0.0503897 0.0442115 -0.0335755 -0.0395505 0.0551289 0.0396707 -0.0413699 -0.0244292 0.0602448 -0.0444215 0.061098 0.0625625 0.0576644
internal_weight=0 1358.11 431.443 909.842 462.925 303.263 446.917 448.265 291.849 92.023 339.42 122.183 172.109 139.351 33.7693 72.6493 159.662 324.734 105.212 44.8602 30.6935 41.9557 131.154 89.5244 41.6299 258.08 117.177 25.8106 159.049 142.041 76.5814 22.5317 266.77 60.3516 91.3663 35.6122 135.988 115.779 103.54 19.4241 37.8592 40.9692 26.3058 20.2095 165.685 220.22 141.661 32.7582 130.782 42.4849 50.0178 124.421 20.1415 115.667 104.279 78.5596 156.416 82.0466
internal_count=5764 3457 2307 2508 1382 973 1126 949 666 326 1981 358 605 457 106 386 409 768 324 157 184 202 368 232 136 560 319 90 421 390 252 94 1595 167 229 98 765 669 610 108 98 154 114 96 347 462 314 148 830 90 118 795 120 229 675 148 283 155
is_linear=0
shrinkage=0.04


Tree=16
num_leaves=51
num_cat=0
split_feature=49 40 16 15 28 43 1 3 16 43 15 17 30 20 18 21 20 16 19 23 30 18 1 43 18 20 17 17 20 53 9 2 30 38 24 9 1 29 15 38 30 13 1 53 41 28 30 2 43 28
split_gain=480.741 112.573 68.2153 51.8788 42.6518 33.1371 32.1635 28.6433 28.342 24.3909 21.2697 20.887 19.0863 18.2892 17.7489 16.3393 19.8343 15.8951 17.5748 19.7967 15.5709 18.3472 18.012 15.314 14.9751 13.285 13.2704 12.2696 12.3359 12.0242 11.8564 15.9576 10.7892 10.593 11.9285 10.8825 9.45992 9.2854 10.2817 8.86082 8.5997 7.10563 9.44042 6.17273 5.792 5.12627 3.58032 2.16132 4.62888 1.80297
threshold=1.0000000180025095e-35 1.5000000000000002 1.0000000180025095e-35 1.5000000000000002 0.392597188069916 62803.737831738174 18.724874724848323 1.7498000634926696 1.5000000000000002 16348.624363843397 1.0000000180025095e-35 6.9505631264278325 0.59609543645061591 1.0109728775214923 44.589667359884778 4.6547702066842467 0.9969935428375164 1.5000000000000002 1.5000000000000002 -0.11546639086226136 0.64574617656965227 17.559537082592886 8.285440820884153 28714.662852367986 41.01021861139531 1.0554931883397205 2.8841860022766883 1.9049535955702837 1.2325468027633588 -0.26789845428668396 1.1937010774942669 9.7481316651199794 0.48125789046331163 1.0000000180025095e-35 0.99959276709505807 0.99543600388591091 6.9701686223949091 -1.4265937273567313 1.5000000000000002 1.0000000180025095e-35 0.55533240340740397 7.7767444444053142 5.6487156597746635 0.19527197136580335 1288524.1116624025 0.63955995381337927 0.54524373242881086 2.6898889992089425 85504.857655319196 -0.1636331451705576
decision_type=2 2 2 2 2 2 2 2 2 2 2 2 2 2 2 2 2 2 2 2 2 2 2 2 2 2 2 2 2 2 2 2 2 2 2 2 2 2 2 2 2 2 2 2 2 2 2 2 2 2
left_child=1 3 10 4 5 6 7 -1 9 13 26 30 14 24 27 16 29 18 19 -6 21 -11 -23 36 -3 -7 33 28 -12 -5 31 32 -4 41 35 -35 -18 -22 -39 -32 -20 42 -2 -15 -43 47 -17 -28 -49 -29
right_child=2 8 11 15 17 25 -8 -9 -10 20 12 -13 -14 43 -16 46 23 -19 40 -21 37 22 -24 -25 -26 -27 45 49 -30 -31 39 -33 -34 34 -36 -37 -38 38 -40 -41 -42 44 -44 -45 -46 -47 -48 48 -50 -51
