tree
version=v4
num_class=1
num_tree_per_iteration=1
label_index=0
max_feature_idx=10
objective=binary sigmoid:1
feature_names=Column_0 Column_1 Column_2 Column_3 Column_4 Column_5 Column_6 Column_7 Column_8 Column_9 Column_10
feature_infos=[0:9] none none [0:25] [0:5] [0:10] [0:1] none [0:17.944444444444446] [1:7] [0:2]
tree_sizes=1448 2567 1960 1544 1853 2153 2064 2065 2167 2279 2077 2085 1560 2493 1469 1877 2589 2099 1881 2592 1666 2592 2613 2180 1779 1973 2703 2198 2296 1580 1675 1985 2821 2109 2908 2086 2180 2403 2910 2403 2501 2178 2707 1992 2090 3241 2295 1879 2607 3211 3121 2296 2812 2608 2608 2082 2076 3132 2603 3026 3253 2811 2493 3556 3116 2932 2192 3094 3536 2812 3941 3111 3327 3123 2927 3553 3763 2410 2723 2481 4132 3341 2705 2624 3753 2076 2825 2396 2410 2393 3355 3661 2812 4304 3835 2732 4498 3133 3868 3450 3222 3766 4139 2473 2822 3863 2482 3430 3130 3349 2078 3681 4282 2076 3874 3226 3395 3089 2832 3818 3769 2603 1679 3235 3754 2641 2391 3463 2289 2953 3863 2102 4086 2105 3302 2395 2313 3756 3173 3791 1965 3046 2290 3468 2296 2819 2845 4104 2643 2743 4470 3351 3050 4034 3147 3771 3036 3197 3084 3135 3623 2313 2924 2837 2505 2470 3092 2940 2849 3049 3618 2075 3099 3778 2883 3267 3437 2276 3365 2432 3155 2609 2823 3594 2832 3188 2717 3860 1879 2437 3383 3296 3533 2756 3801 3601 2886 2186 2497 3722 3532 2544 3498 3086 3179 3698 2204 3169 3052 3393 2074 2935 3210 4202 2556 1558 3714 2184 2476 2879 3093 2881 2069 3681 2649 2971 3280 2626 3241 2131 2841 2581 2919 3013 2958 2154 2379 2593 3310 2503 2088 3506 2616 2472 2944 2511 2294 2290 1652 3187 2525 2460 2413 2584 1944 2361 2544 2582 2275 1470 3044 3545 2754 2688 1940 2569 1984 2308 1820 2782 2967 1626 2608 2449 2715 2658 1662 1658 1891 1642 1661 2959 2001 2906 2666 2192 1711 1889 1875 1280 2226 1700 2263 2325 1916 1030 2171 2945 2116 1900 1467 2347 2311 2126 2160 2862 2333 1827 2692 3258 2155 1116 2591 2187 1775 2588 2201 2329 2592 2047 2342 2210 2905 1624 1867 1711 3082 1839 1921 2198 1514 1924 1795 2231 1224 1822 2863 2063 1904 2279 2203 2281 2263 2339 1199 2077 1573 1653 1766 1725 2101 2232 2420 1450 2178 1374 1548 2012 1725 1684 1766 1844 988 1587 1657 1562 1708 1685 1966 1619 1226 1609 1697 1959 1494 2009 1671 2270 2481 2003 1803 1199 1985 1450 2270 1752 2195 1994 1860 1894 1899 1805 1215 1025 1274 2180 1723 1305 1515 1515 1867 1498 2179 1407 1802 2356 1978 1883 1394 1235 1209 1167 2209 1776 2479 2019 1683 1983 1188 1136 1293 1590 1598 1949 2067 1581 1120 1657 1949 983 1939 1837 1862 1404 1096 1746 1579 1678 1759 1272 1532 1749 1388 1827 1406 1282 1282 1728 1678 964 1574 1111 1163 1008 1281 1217 1690 1481 1584 1879 1393 1012 1411 1583 2344 2052 1656 2129 1294 1460 1367 1449 1771 1455 1851 982 795 1365 1210 1966 808 1395 1365 838 950 1375 1330 793 1806 1297 1368 1407 1673 1087 1581 1555 1850 1455 1453 1351

Tree=0
num_leaves=13
num_cat=0
split_feature=3 3 9 0 9 5 0 3 4 4 10 10
split_gain=15652.5 4145 3932.26 3199.21 1723.54 1323.95 1148.87 385.928 297.793 708.085 66.1 19.6372
threshold=15.41666666666667 1.0000000180025095e-35 4.5000000000000009 1.5000000000000002 6.5000000000000009 0.23097492008851736 6.5000000000000009 17.125000000000004 0.695672849160205 0.685393776091198 1.0000000180025095e-35 1.0000000180025095e-35
decision_type=2 2 2 2 2 2 2 2 2 2 2 2
left_child=1 2 -1 8 5 -5 -3 10 9 -4 -2 -7
right_child=7 6 3 4 -6 11 -8 -9 -10 -11 -12 -13
leaf_value=-3.6124842041575418 -2.3675382522725759 -3.6130442178059328 -3.6077023364590612 -3.6065844349017082 -3.6087976708570668 -2.1050988924282321 -1.9284074941282925 -1.8740922741424053 -3.6115376575801346 -1.9705760254555231 -1.9126280399108904 -1.8403018269942515
leaf_weight=11.406306317076085 8.3840439599007333 31.454567067325115 1.6908171717077478 1.3955951258540213 2.120231056585907 15.083489343523981 0.94556146860122581 35.349074296653271 5.4481886643916368 0.97239983640611161 1.971638040617109 5.8612373862415543
leaf_count=425 107 1172 63 52 79 117 1 119 203 2 5 13
internal_value=-3.56195 -3.12965 -2.81406 -2.53501 -2.2506 -2.12184 -3.55916 -1.95964 -3.39882 -2.9758 -2.2655 -2.02293
internal_weight=0 76.3784 43.9783 32.572 24.4606 22.3403 32.4001 45.7048 8.11141 2.66322 10.3557 20.9447
internal_count=2358 2127 954 529 261 182 1173 231 268 65 112 130
is_linear=0
shrinkage=1


Tree=1
num_leaves=24
num_cat=0
split_feature=0 4 5 5 5 0 5 5 0 0 4 3 3 5 4 0 4 3 3 5 4 5 4
split_gain=1215.87 369.511 357.493 599.355 202.944 171.248 157.675 114.699 98.493 77.021 184.818 339.223 159.909 155.155 38.8796 49.1505 9.82706 19.5685 62.8046 74.603 6.73764 7.99638 2.03313
threshold=2.5000000000000004 0.79039031858572784 1.0000000180025095e-35 0.077497665732959867 3.5407883125796653 1.0000000180025095e-35 3.6630333951762526 1.0480371550613603 4.5000000000000009 5.5000000000000009 1.050451476763276 17.875000000000004 1.0000000180025095e-35 1.4339019189765461 2.0708033357099231 3.5000000000000004 0.59036620785946436 19.416666666666668 10.125000000000002 1.9346361185983831 0.41585282017544095 0.44183143262028485 0.685393776091198
decision_type=2 2 2 2 2 2 2 2 2 2 2 2 2 2 2 2 2 2 2 2 2 2 2
left_child=1 5 -2 -4 8 -1 -6 -7 14 10 16 12 13 -12 15 -5 20 18 -18 -20 21 -10 -9
right_child=2 -3 3 4 6 7 -8 22 9 -11 11 -13 -14 -15 -16 -17 17 -19 19 -21 -22 -23 -24
leaf_value=-0.049012134116203615 -0.049863222230202675 -0.051557400844970541 1.499294528543472 0.38838308899900015 0.34514799453357758 -0.046517631088688116 -0.052007883008552039 0.317424840924588 0.39050839307348822 0.39100697199862089 -0.052193770865704772 0.34324228871053558 -0.052137266758300951 0.32190906695196403 0.34596355839155368 0.51898158077315182 0.35191985924919278 0.36997688804234913 -0.050178578462613734 0.28071467993439131 0.39623648574763543 0.32034230905423577 0.40576366741297498
leaf_weight=3.9754752535372981 5.7348810452967873 27.938578577712178 1.0359486453235138 19.680592231452465 4.2806019242852908 1.8071074318140752 5.7260990384966135 4.6301709748804551 11.705992810428144 51.016519173979759 3.8801340274512794 35.053038209676743 10.154602132737635 9.2101456169038993 17.364414563402534 15.217167889699338 17.139155419543389 24.617035657167435 2.4538868442177764 5.1202176548540592 30.998001435771585 18.554989332333207 7.5258492212742567
leaf_count=152 217 992 4 30 7 65 147 41 6 41 72 30 278 38 25 17 39 8 55 23 29 38 15
internal_value=0 0.0620244 0.339395 0.347309 0.342533 0.238505 0.119124 0.320487 0.350682 0.335403 0.318355 0.24514 0.0961511 0.211086 0.414112 0.446794 0.356649 0.334891 0.298391 0.173602 0.373515 0.348846 0.375388
internal_weight=0 45.8772 288.943 283.209 282.173 17.9386 10.0067 13.9631 272.166 219.904 168.887 58.2979 23.2449 13.0903 52.2622 34.8978 110.589 49.3303 24.7133 7.5741 61.259 30.261 12.156
internal_count=2369 1265 1104 887 883 273 154 121 729 657 616 418 388 110 72 47 198 125 117 78 73 44 56
is_linear=0
shrinkage=0.05


Tree=2
num_leaves=18
num_cat=0
split_feature=9 9 5 3 5 3 5 3 8 3 5 8 5 5 8 8 5
split_gain=1013.76 491.191 216.056 157.302 35.1223 40.8567 199.447 96.9263 113.719 39.5241 24.1472 72.3769 96.3212 25.1294 7.51517 3.58341 1.90144
threshold=4.5000000000000009 6.5000000000000009 1.0000000180025095e-35 23.583333333333339 0.077497665732959867 15.41666666666667 2.711532352006778 1.0000000180025095e-35 16.527777777777782 17.125000000000004 0.63758782201405173 1.6907894736842108 2.202471689895471 2.3423005565862716 0.65271942110177417 0.73412698412698429 0.39930555555555564
decision_type=2 2 2 2 2 2 2 2 2 2 2 2 2 2 2 2 2
left_child=-1 2 -2 -3 -4 6 7 10 -9 15 16 13 -13 14 -12 -7 -6
right_child=1 3 4 -5 5 9 -8 8 -10 -11 11 12 -14 -15 -16 -17 -18
leaf_value=-0.052047623699490612 -0.049544502403159579 -0.054261740453263076 0.43321601883557614 0.25013035224152647 0.31950321936134074 0.30202379567778442 -0.052172228499360256 -0.049561059154332045 0.27626442743522861 0.27029771165915045 0.21229484449303643 -0.054892927503489668 0.25920810369157182 0.33588641582512357 0.26692673361538899 0.34931398930894042 0.28031836821304396
leaf_weight=29.990817127749324 5.3366409577429286 16.75751920603216 3.5014989972114554 5.5692004710435858 23.216661602258682 19.389021590352058 5.3795370291918507 5.3919478468596918 5.1302685737609863 170.08182109892368 12.890185071155427 4.2708418034017068 5.4405282773077488 13.306496210396288 32.124171525239944 21.576755739748478 20.643964178860188
leaf_count=1021 215 426 2 4 37 11 135 208 1 67 76 43 9 11 12 31 37
internal_value=0 0.249906 0.264503 0.02222 0.269426 0.267591 0.244147 0.257241 0.109935 0.281641 0.270939 0.250521 0.121412 0.271689 0.251899 0.327843 0.301853
internal_weight=0 370.007 347.68 22.3267 342.344 338.842 127.795 122.415 10.5222 211.048 111.893 68.0322 9.71137 58.3209 45.0144 40.9658 43.8606
internal_count=2346 1325 895 430 680 678 569 434 209 109 225 151 52 99 88 42 74
is_linear=0
shrinkage=0.05


Tree=3
num_leaves=14
num_cat=0
split_feature=9 9 0 8 3 8 9 4 0 8 0 3 8
split_gain=684.261 315.253 127.012 146.484 124.592 32.2444 177.283 135.347 28.4925 62.4189 79.1258 18.1303 9.5566
threshold=4.5000000000000009 6.5000000000000009 1.5000000000000002 2.8617571059431532 23.583333333333339 1.2509107468123866 5.5000000000000009 0.12828489297261758 3.5000000000000004 11.370039682539685 6.5000000000000009 16.708333333333339 0.73412698412698429
decision_type=2 2 2 2 2 2 2 2 2 2 2 2 2
left_child=-1 2 3 -2 -3 12 8 -8 -7 11 -11 -10 -4
right_child=1 4 5 -5 -6 6 7 -9 9 10 -12 -13 -14
leaf_value=-0.051785951435188243 -0.050568582565271671 -0.053728113117669729 0.22126573723843071 0.27942371306281549 0.20400002729987474 0.30776818771000114 0.2405340536368418 -0.055658541396121579 0.25780203119113965 -0.054457511692973998 0.21509160079876555 0.19803026276260233 0.24665968627240631
leaf_weight=28.314708890393376 9.4019719436764699 16.178677182644609 216.16541859135032 5.100266069173812 6.4818676412105551 9.5017732307314855 5.7339183129370239 11.256767688319085 33.139430666342378 4.685852359980343 6.2145322561264038 26.685394152998924 62.524237317964435
leaf_count=1035 353 443 141 9 4 4 4 198 67 87 2 14 25
internal_value=0 0.201992 0.212514 0.0662622 0.0203457 0.218124 0.19223 0.0448288 0.22329 0.211451 0.0993217 0.231599 0.227067
internal_weight=0 413.07 390.41 14.5022 22.6605 375.907 97.2177 16.9907 80.227 70.7252 10.9004 59.8248 278.69
internal_count=2386 1351 904 362 447 542 376 202 174 170 89 81 166
is_linear=0
shrinkage=0.05


Tree=4
num_leaves=17
num_cat=0
split_feature=9 9 5 3 5 3 3 0 8 0 9 5 5 3 5 8
split_gain=493.368 215.5 125.319 107.642 16.3729 11.1391 45.6146 73.3695 22.1084 104.719 19.1522 9.33321 49.1366 6.91279 4.01806 3.31849
threshold=4.5000000000000009 6.5000000000000009 0.10371361659417867 23.583333333333339 3.4346076458752521 15.41666666666667 1.0000000180025095e-35 6.5000000000000009 0.65271942110177417 4.5000000000000009 5.5000000000000009 3.4823496966354113 3.5407883125796653 17.125000000000004 1.4339019189765461 0.61138079827400238
decision_type=2 2 2 2 2 2 2 2 2 2 2 2 2 2 2 2
left_child=-1 2 -2 -3 5 6 8 -8 9 -4 -10 -6 -13 -7 -12 -15
right_child=1 3 4 -5 11 13 7 -9 10 -11 14 12 -14 15 -16 -17
leaf_value=-0.051633482901060949 -0.050237252387033096 -0.053402536869223138 -0.053303882637602364 0.18039513135133359 0.17559598063629903 0.20495484402553465 -0.049704690509147942 0.18879557669620708 0.2060901661372157 0.18659567979049538 0.13932332133992936 0.17185701941293224 -0.052599139157542663 0.18794869648407869 0.17435548586650174 0.17167350689380584
leaf_weight=26.514960192143917 5.9436831828206769 15.783791841939093 5.7342293038964298 7.0285423994064322 7.1283794529736069 58.702333852648735 5.9595653004944307 6.7783331871032715 64.9716437458992 20.713072776794434 17.110206805169582 7.2454702369868738 3.5487460345029831 165.08785335719585 36.337288934737444 73.405767142772675
leaf_count=1020 234 454 133 3 4 41 238 1 37 6 39 4 78 30 24 37
internal_value=0 0.169361 0.176517 0.0188859 0.179388 0.181302 0.169567 0.0773032 0.177587 0.134388 0.187071 0.129822 0.0977996 0.187448 0.163515 0.183034
internal_weight=0 501.479 478.667 22.8123 472.723 454.8 157.604 12.7379 144.866 26.4473 118.419 17.9226 10.7942 297.196 53.4475 238.494
internal_count=2383 1363 906 457 672 586 478 239 239 139 100 86 82 108 63 67
is_linear=0
shrinkage=0.05


Tree=5
num_leaves=20
num_cat=0
split_feature=0 8 0 0 8 8 8 4 3 8 4 0 3 4 4 8 4 4 4
split_gain=254.915 199.73 95.5944 47.1866 223.589 33.4015 50.5365 81.8547 79.9263 24.6944 18.6199 21.502 45.8501 7.81364 2.21475 1.09748 1.01108 1.29654 0.851573
threshold=1.0000000180025095e-35 11.370039682539685 6.5000000000000009 2.5000000000000004 0.49172823718859526 1.2509107468123866 3.633986928104576 2.0708033357099231 19.416666666666668 0.73412698412698429 2.0901896275398486 8.5000000000000018 17.875000000000004 0.52753614846531327 2.3588788656724491 0.33945386064030136 1.9173318918140454 1.050451476763276 1.2821931786751344
decision_type=2 2 2 2 2 2 2 2 2 2 2 2 2 2 2 2 2 2 2
left_child=-1 3 -3 4 -2 9 7 8 -7 15 -9 12 -12 -8 -15 18 17 -17 -5
right_child=1 2 -4 5 -6 6 13 10 -10 -11 11 -13 -14 14 -16 16 -18 -19 -20
leaf_value=-0.050687007682654564 -0.051879933458428729 -0.053821227281800402 0.15903976446102597 0.16333208083793452 0.19069418440632446 -0.056784318191819963 0.18833567830635806 0.23990980891043603 0.14410030983656227 0.19246408112770921 -0.052538024920953601 0.20619833097815438 0.15905350683020694 0.13793639872615535 0.16946351944457683 0.16764864036173546 0.17569723891415215 0.15358263809444975 0.14570963886813398
leaf_weight=15.746801242232321 14.397536188364027 16.798876591026787 7.5626449584960929 37.577733414247632 27.465872336179018 12.38214229978621 27.455847688019276 5.7281817439943579 8.0952034443616867 100.73510280251503 3.7329226378351468 6.386854648590087 7.5907517224550247 25.26668019220233 14.670037925243376 96.030792906880379 50.288945842534304 62.392241083085537 40.302637355402112
leaf_count=701 521 483 2 16 43 259 11 3 5 33 97 1 3 50 11 36 26 30 26
internal_value=0 0.152755 0.0124337 0.159067 0.107225 0.163387 0.138603 0.0962109 0.0227017 0.170458 0.159851 0.132475 0.089014 0.16597 0.150037 0.162642 0.16559 0.162241 0.154475
internal_weight=0 564.861 24.3615 540.499 41.8634 498.636 111.309 43.9161 20.4773 387.327 23.4387 17.7105 11.3237 67.3926 39.9367 286.592 208.712 158.423 77.8804
internal_count=2357 1656 485 1171 564 607 440 368 264 167 104 101 100 72 61 134 92 66 42
is_linear=0
shrinkage=0.05


Tree=6
num_leaves=19
num_cat=0
split_feature=9 0 5 0 5 5 0 4 5 9 3 4 5 4 4 3 5 4
split_gain=328.431 112.74 66.9486 17.4745 38.5058 45.346 14.6167 22.7547 12.9896 9.72377 23.0832 83.4055 12.3956 2.27734 4.68582 11.1062 1.84101 0.55633
threshold=4.5000000000000009 1.0000000180025095e-35 1.0000000180025095e-35 2.5000000000000004 1.4870998566650744 0.96951962485692156 4.5000000000000009 2.0265609165853484 0.077497665732959867 5.5000000000000009 15.708333333333334 1.9173318918140454 0.27070668693009131 0.93169419618323623 2.0265609165853484 20.583333333333339 1.2583309185743266 1.8432188861057754
decision_type=2 2 2 2 2 2 2 2 2 2 2 2 2 2 2 2 2 2
left_child=-1 -2 -3 4 5 -4 7 16 -8 13 11 -11 -13 -10 15 -15 -5 -12
right_child=1 2 3 6 -6 -7 8 -9 9 10 17 12 -14 14 -16 -17 -18 -19
leaf_value=-0.051571308009946915 -0.050093711587193925 -0.049716762726480172 -0.051462743854411824 0.11894133358811974 -0.051515632183958208 0.15736394720932975 0.20988738733460632 0.18817734584984266 0.1485660970696133 -0.056076331082944547 0.13754533982330075 0.16057691626417459 0.087831584906354981 0.077880477377588603 0.14776065772406929 0.14414173614738665 0.14493571407928202 0.12460242461324159
leaf_weight=25.029880544170737 8.1162553373724204 4.6781527977436772 3.0242200735956493 17.869049018248916 3.6932736970484248 15.613207386806605 6.3386794477701178 40.447643645107746 118.69841098599136 7.6689066272228947 116.24618076533079 15.046893291175367 11.047491701319812 11.980850895866753 31.980299577116966 15.959852799773214 32.251773562282324 35.312832616269588
leaf_count=1023 368 205 82 22 102 39 3 24 48 180 61 3 60 55 30 3 29 30
internal_value=0 0.133743 0.136822 0.138648 0.0939114 0.123118 0.140784 0.159552 0.136138 0.134783 0.126204 0.0878737 0.130423 0.143579 0.133386 0.116287 0.136023 0.134647
internal_weight=0 495.974 487.858 483.18 22.3307 18.6374 460.849 90.5685 370.28 363.942 185.322 33.7633 26.0944 178.619 59.921 27.9407 50.1208 151.559
internal_count=2367 1344 976 771 223 121 548 75 473 470 334 243 63 136 88 58 51 91
is_linear=0
shrinkage=0.05


Tree=7
num_leaves=19
num_cat=0
split_feature=9 9 3 5 8 8 8 8 5 8 5 3 8 5 5 5 3 5
split_gain=286.122 137.806 68.0771 57.3446 10.263 32.6999 56.0557 12.7441 43.9949 33.2527 8.08541 3.67812 27.9044 25.5128 10.4984 52.633 2.58801 2.10053
threshold=4.5000000000000009 6.5000000000000009 23.583333333333339 1.0000000180025095e-35 1.2778749028749032 12.500703234880453 16.527777777777782 3.633986928104576 0.44183143262028485 2.8617571059431532 0.12246008708272861 15.708333333333334 0.65271942110177417 2.1545031055900625 0.40606003039513688 2.1134532760472617 19.166666666666668 1.0480371550613603
decision_type=2 2 2 2 2 2 2 2 2 2 2 2 2 2 2 2 2 2
left_child=-1 3 -3 -2 10 7 -7 8 -6 -10 -5 12 13 14 -12 -16 -13 -9
right_child=1 2 -4 4 5 6 -8 17 9 -11 11 16 -14 -15 15 -17 -18 -19
leaf_value=-0.051374428391864568 -0.048858981169468269 -0.054786635084994574 0.11787647642858133 0.19290870935926044 0.14574162667832954 -0.057374812315227598 0.13493332482819448 0.12824738989903423 -0.058250021174332284 0.08987866294112648 0.12534212514246273 0.14368945787790674 0.14010461795504828 -0.050480323297286717 -0.054307204540070077 0.14615906116235389 0.13196742129733052 0.1485772933298741
leaf_weight=24.10260509327054 4.3986985031515351 15.61860447563231 8.8586032092571259 6.6827120780944815 24.097736211493611 6.8277572020888302 8.231852799654007 42.749363405629992 5.6356413178145912 10.967523459345101 17.444673456251625 127.92108229547739 89.359494172036648 3.0195180438458911 5.4231894221156818 7.9071065075695515 158.21319480240345 39.824308371171355
leaf_count=1043 212 444 4 1 21 107 2 24 64 49 41 31 40 109 153 7 28 25
internal_value=0 0.124096 0.00772419 0.129183 0.130613 0.118115 0.0476111 0.126642 0.102626 0.039252 0.134728 0.133719 0.125316 0.0857654 0.0994154 0.0644336 0.137274 0.138281
internal_weight=0 583.181 24.4772 558.704 554.305 138.334 15.0596 123.275 40.7009 16.6032 415.971 409.288 123.154 33.7945 30.775 13.3303 286.134 82.5737
internal_count=2405 1362 448 914 702 292 109 183 134 113 410 409 350 310 201 160 59 49
is_linear=0
shrinkage=0.05


Tree=8
num_leaves=20
num_cat=0
split_feature=0 8 0 5 0 8 8 8 5 8 5 4 4 5 5 8 8 4 4
split_gain=148.882 107.975 69.8267 57.4084 22.3209 105.315 14.7906 21.1887 84.2248 20.9581 6.55567 8.82161 15.7882 45.1018 4.21617 0.917336 1.1847 0.419095 1.18255
threshold=1.0000000180025095e-35 11.370039682539685 6.5000000000000009 1.0000000180025095e-35 2.5000000000000004 1.2761664261664265 0.87086288416075663 5.2666666666666675 1.395831774302178 0.73412698412698429 1.3737872198059555 3.3210105612882961 0.59036620785946436 0.39930555555555564 3.3348402652200124 0.33945386064030136 0.44497354497354508 0.35459455913243004 1.6106350941869361
decision_type=2 2 2 2 2 2 2 2 2 2 2 2 2 2 2 2 2 2 2
left_child=-1 3 -3 -2 5 -5 9 8 10 14 11 12 -8 -14 15 -6 -17 -18 -19
right_child=1 2 -4 4 6 -7 7 -9 -10 -11 -12 -13 13 -15 -16 16 17 18 -20
leaf_value=-0.050430622086622245 -0.049682857257021824 -0.053979678776542195 0.1235951465523961 -0.052127889593128002 0.11214872158958943 0.13583811491395761 0.11229764370243769 0.12864993016225848 -0.057164349872617315 0.15020647468122375 0.15393484419961312 0.13375762241407393 0.11581837057960075 -0.057804529481610578 0.13652951145004316 0.12695627318805155 0.1264765710602942 0.10168207412165253 0.1186879806124672
leaf_weight=13.9278595931828 4.9404966570436946 15.293790645897388 8.5382039546966553 10.444790013134478 81.108817989006639 25.256076082587242 26.901257827877998 67.503080107271671 8.5891790762543661 83.816370286047459 7.7146388813853255 16.718639614060521 9.4190674610435945 6.0390843339264384 49.089601669460535 92.980158846825361 25.257519006729126 28.489920092746615 52.501849427819252
leaf_count=712 241 484 2 383 44 34 17 20 173 20 3 14 40 103 13 27 7 29 29
internal_value=0 0.114316 0.00968111 0.118484 0.119904 0.0807144 0.122396 0.108003 0.0893016 0.127334 0.108268 0.10197 0.0890213 0.0477316 0.121455 0.11875 0.121355 0.116291 0.1129
internal_weight=0 620.603 23.832 596.771 591.83 35.7009 556.129 142.885 75.3819 413.244 66.7927 59.078 42.3594 15.4582 329.428 280.338 199.229 106.249 80.9918
internal_count=2395 1683 486 1197 956 417 539 370 350 169 177 174 160 143 149 136 92 65 58
is_linear=0
shrinkage=0.05


Tree=9
num_leaves=21
num_cat=0
split_feature=9 5 8 8 8 8 8 9 4 8 3 8 4 5 4 4 5 8 8 3
split_gain=216.217 60.2989 34.3845 46.3747 11.4419 43.6742 5.38967 78.2293 67.7502 15.9948 2.11676 3.00873 12.9753 4.9157 46.3733 4.5924 1.51574 0.518516 0.32955 0.307684
threshold=4.5000000000000009 1.0000000180025095e-35 11.370039682539685 16.527777777777782 0.18709933526638658 0.022949006596358176 1.0273504273504277 5.5000000000000009 1.0000000180025095e-35 0.73412698412698429 15.875000000000002 0.65271942110177417 0.52753614846531327 0.41765364572117669 0.93169419618323623 0.92352739561903907 3.5797342192691035 3.633986928104576 1.6907894736842108 19.166666666666668
decision_type=2 2 2 2 2 2 2 2 2 2 2 2 2 2 2 2 2 2 2 2
left_child=-1 -2 4 -4 5 16 9 17 -9 10 11 12 -6 -14 15 -15 -3 18 -8 -12
right_child=1 2 3 -5 6 -7 7 8 -10 -11 19 -13 13 14 -16 -17 -18 -19 -20 -21
leaf_value=-0.051207951634514581 -0.049796143273289309 0.096855661715547131 -0.055742513929495391 0.11442958059859382 -0.049401629165298347 -0.053401016178644845 0.10136881906303385 0.12125713599778978 -0.058689967913168231 0.13604823554797904 0.1203657160698821 0.11524758449658577 0.11479782212572341 0.092759090595786575 -0.053061196693469398 0.14863840266180126 0.12872712321428101 0.12302563138522699 0.11833545699094912 0.11256848127022948
leaf_weight=21.527737505733967 5.7923400979489079 19.357392052188516 7.1752185076475117 8.7626818418502808 1.4088043421506871 4.8927713129669419 18.629525434225798 8.8687010332942027 12.426025331020353 95.961012661457062 78.269653461873531 43.836836237460375 26.553257513791323 10.251324499025946 4.9602621160447589 7.8455534353852263 8.3779392577707785 94.234424412250519 26.917975705116987 167.19521196186543
leaf_count=1022 306 67 157 2 38 162 23 8 180 35 35 19 25 55 159 5 8 23 26 34
internal_value=0 0.109492 0.110936 0.0376367 0.112776 0.0827815 0.114392 0.10587 0.0162361 0.117502 0.112219 0.104538 0.0950306 0.0993238 0.0808688 0.117943 0.10709 0.119467 0.111743 0.115123
internal_weight=0 651.717 645.925 15.9379 629.987 32.6281 597.359 161.077 21.2947 436.282 340.321 94.856 51.0192 49.6104 23.0571 18.0969 27.7353 139.782 45.5475 245.465
internal_count=2389 1367 1061 159 902 237 665 260 188 405 370 301 282 244 219 60 75 72 49 69
is_linear=0
shrinkage=0.05


Tree=10
num_leaves=19
num_cat=0
split_feature=9 5 9 3 4 3 5 4 4 5 5 5 4 4 5 5 5 5
split_gain=177.283 51.9791 16.7207 160.018 180.278 8.85495 18.2892 40.8514 6.61686 10.4223 70.8667 3.52388 2.60375 2.06897 1.82148 1.0571 1.03726 0.254816
threshold=4.5000000000000009 1.0000000180025095e-35 6.5000000000000009 1.0000000180025095e-35 2.0265609165853484 14.875000000000002 2.2132850985221681 3.3667267260429008 0.53701587988179811 0.40606003039513688 1.2583309185743266 1.271874280451301 1.9173318918140454 0.93169419618323623 1.3737872198059555 0.39930555555555564 2.0989608217869091 1.3737872198059555
decision_type=2 2 2 2 2 2 2 2 2 2 2 2 2 2 2 2 2 2
left_child=-1 -2 5 4 -4 6 8 -8 17 12 -11 -12 15 -13 -15 -10 -7 -3
right_child=1 2 3 -5 -6 16 7 -9 9 10 11 13 -14 14 -16 -17 -18 -19
leaf_value=-0.051051219503455064 -0.049690161200097199 0.10533303383901492 -0.047477151719466447 -0.058358985726545222 0.53009462533188201 0.10559511734369281 -0.054901806628756857 0.10904915816364623 0.07788402764195887 -0.058116549980101087 0.13091360761712265 0.10516027806744875 0.11986985529896087 0.096542484017558369 0.062644910891999195 0.10780042475573232 0.11521754130723592 0.12030308696256527
leaf_weight=20.045288426801562 5.6548402588814488 27.915343053638935 2.3899009302258518 10.991897692903875 2.9211428295820951 322.27858425118029 6.4513494987040731 8.8947044815868139 10.914827518165112 8.3912858311086875 8.2631320953369123 18.275633612647653 25.84328799881041 9.3240796737372893 11.38493476808071 8.7698435932397842 61.878966476768255 26.112624661996961
leaf_count=1009 311 39 100 230 30 100 167 5 43 149 1 25 15 14 62 3 26 20
internal_value=0 0.0998345 0.101332 0.0503548 0.273196 0.102812 0.0928704 0.0398927 0.0980477 0.0899791 0.0748675 0.0986642 0.108133 0.0913833 0.0785379 0.0919425 0.107188 0.11287
internal_weight=0 576.656 571.002 16.3029 5.31104 554.699 170.541 15.3461 155.195 101.167 55.6391 47.2478 45.528 38.9846 20.709 19.6847 384.158 54.028
internal_count=2349 1340 1029 360 130 669 543 172 371 312 251 102 61 101 76 46 126 59
is_linear=0
shrinkage=0.05


Tree=11
num_leaves=19
num_cat=0
split_feature=9 5 9 3 4 4 3 9 5 5 5 5 5 5 5 5 5 3
split_gain=170.062 44.7419 19.4119 106.138 84.6429 3.4665 3.5528 11.8607 52.0077 11.7327 48.4091 0.931275 0.211578 2.17607 1.0304 2.47086 5.81531 0.116464
threshold=4.5000000000000009 1.0000000180025095e-35 6.5000000000000009 1.0000000180025095e-35 2.0265609165853484 1.0000000180025095e-35 14.875000000000002 5.5000000000000009 1.7706280788177342 1.2583309185743266 0.24845300330737227 2.6834415584415594 1.8015679442508714 2.3649685438085011 0.44183143262028485 1.0480371550613603 1.0770676691729326 18.125000000000004
decision_type=2 2 2 2 2 2 2 2 2 2 2 2 2 2 2 2 2 2
left_child=-1 -2 5 4 -4 -3 7 12 9 10 -9 17 14 -14 -7 -16 -17 -8
right_child=1 2 3 -5 -6 6 11 8 -10 -11 -12 -13 13 -15 15 16 -18 -19
leaf_value=-0.050953107908217381 -0.049433935310099472 0.11090375831695723 -0.04742496921031239 -0.058044475102400489 0.31371157419947682 0.10392563577561637 0.1009756917915863 0.099609419067902966 -0.058898775977659669 0.10105465190252279 -0.058467286561750667 0.10729470475115198 0.11402304319315362 0.08367769038874967 0.066806624791524924 0.13305609300816595 0.074660700577920722 0.095382389109726712
leaf_weight=20.24738178960979 5.1577723538503042 61.284028893336654 2.3879683595150736 10.293270789086817 4.6761594898998737 45.343708703294396 164.05410818941891 18.4360067807138 6.4458803338930002 53.564498003572226 6.4384296257048836 70.870242062956095 35.284179152920842 10.769597937352954 11.180932811461391 8.2234108708798903 11.493430988863109 127.69107699394226
leaf_count=1056 300 18 105 230 31 36 76 17 127 29 120 19 42 72 48 3 50 33
internal_value=0 0.095816 0.0969865 0.0439397 0.191977 0.0984304 0.0970608 0.0912784 0.076444 0.0876906 0.0584228 0.100325 0.101463 0.107232 0.0977773 0.0882868 0.0998168 0.0985783
internal_weight=0 653.595 648.437 17.3574 7.06413 631.08 569.796 207.18 84.8848 78.4389 24.8744 362.615 122.295 46.0538 76.2415 30.8978 19.7168 291.745
internal_count=2412 1356 1056 366 136 690 672 544 293 166 137 128 251 114 137 101 53 109
is_linear=0
shrinkage=0.05


Tree=12
num_leaves=14
num_cat=0
split_feature=9 9 5 0 8 8 5 8 8 0 0 9 0
split_gain=137.372 129.93 28.9149 8.32969 59.944 11.6678 19.1296 56.444 7.98587 32.0507 0.780509 0.576127 0.448203
threshold=4.5000000000000009 6.5000000000000009 1.0000000180025095e-35 2.5000000000000004 1.2761664261664265 1.2509107468123866 0.54025423728813571 3.633986928104576 9.033660130718955 4.5000000000000009 6.5000000000000009 5.5000000000000009 4.5000000000000009
decision_type=2 2 2 2 2 2 2 2 2 2 2 2 2
left_child=-1 2 -2 4 -4 11 10 -8 -9 -10 12 -5 -7
right_child=1 -3 3 5 -6 6 7 8 9 -11 -12 -13 -14
leaf_value=-0.050790982507454063 -0.048186569933340806 -0.056091861427422077 -0.051802073130614135 0.10171363301134957 0.10196896051110078 0.094717586910468693 -0.061863657110365837 0.094247493907294616 0.10245501506340976 -0.057433899685774809 0.10113126662823427 0.09585879274893544 0.079422133525551775
leaf_weight=18.2678058501333 3.583608102053403 15.191196604631839 8.0144796483218652 149.58471411466599 28.654952136799693 27.142119288444519 8.37219380866736 29.09951089322567 8.7936906814575178 4.7168546756729475 44.387162804603577 288.09940649010241 20.97765903826803
leaf_count=1015 218 434 287 21 38 9 99 24 1 76 7 74 52
internal_value=0 0.0878785 0.0914144 0.0922399 0.0681753 0.0937377 0.0809657 0.0559375 0.0792912 0.0462548 0.0946299 0.097894 0.0883318
internal_weight=0 636.618 621.426 617.843 36.6694 581.173 143.489 50.9823 42.6101 13.5105 92.5069 437.684 48.1198
internal_count=2355 1340 906 688 325 363 268 200 101 77 68 95 61
is_linear=0
shrinkage=0.05


Tree=13
num_leaves=23
num_cat=0
split_feature=9 5 9 3 8 8 5 8 8 5 5 8 5 5 5 8 5 5 5 5 5 5
split_gain=127.935 36.8852 13.458 89.4809 72.9426 6.48222 7.22735 22.127 5.48782 10.4597 22.861 1.23659 1.65291 4.90894 4.42604 0.993872 1.27739 0.352328 0.447685 0.376289 0.0583213 2.44515
threshold=4.5000000000000009 1.0000000180025095e-35 6.5000000000000009 1.0000000180025095e-35 0.73412698412698429 1.2778749028749032 2.3649685438085011 9.033660130718955 9.033660130718955 0.21610169491525427 0.35591133004926118 5.2666666666666675 0.38097328483632259 0.44183143262028485 1.3737872198059555 0.18709933526638658 2.0767823258335598 0.872343287597525 0.46967711187894684 0.98648800179412444 2.1134532760472617 2.711532352006778
decision_type=2 2 2 2 2 2 2 2 2 2 2 2 2 2 2 2 2 2 2 2 2 2
left_child=-1 -2 5 4 -4 15 8 -8 11 -10 -11 12 -7 -14 -15 16 -3 18 -17 -19 -21 -22
right_child=1 2 3 -5 -6 6 7 -9 9 10 -12 -13 13 14 -16 17 -18 19 -20 20 21 -23
leaf_value=-0.050755377790126649 -0.049193471964312632 0.063451394266737585 -0.048609218811121735 -0.057261767471087958 0.27400449242370556 0.060373912235084606 -0.060819625898375529 0.081953230474584068 0.10161379990339384 0.076476463878605919 -0.056501476883591341 0.093725613843025052 0.10744271453807222 0.04910842757725406 0.08823694019522027 0.092038047427148273 0.089266772017999679 0.10240680471261213 0.082316408562312038 0.090774418546944291 0.10810189665407283 0.088915836420456182
leaf_weight=17.447588545270264 4.890314661897718 10.991454819217326 2.5343748396262553 9.7484803423285467 5.2306352416053414 10.935378532856701 3.6228160681202981 9.750577175989747 8.8905938453972357 9.4650816619396192 4.7536169607192269 54.948375228792429 17.730088580399752 13.324442967772482 19.995206814259291 80.984071912243962 18.486780094914138 34.691110678017139 46.293808916583657 162.73201040364802 35.4594742115587 55.928242278285325
leaf_count=1023 315 91 96 232 40 16 45 23 3 11 74 22 8 54 28 46 41 9 34 84 23 70
internal_value=0 0.0861129 0.0872021 0.0430705 0.168794 0.0884767 0.079148 0.042741 0.082556 0.0590641 0.0315858 0.0871015 0.0810074 0.0852029 0.0729329 0.0916591 0.0800572 0.0924496 0.0886087 0.0940936 0.0928993 0.0965249
internal_weight=0 621.387 616.497 17.5135 7.76501 598.983 153.416 13.3734 140.043 23.1093 14.2187 116.933 61.9851 51.0497 33.3196 445.567 29.4782 416.089 127.278 288.811 254.12 91.3877
internal_count=2388 1365 1050 368 136 682 284 68 216 88 85 128 106 90 82 398 132 266 80 186 177 93
is_linear=0
shrinkage=0.05


Tree=14
num_leaves=13
num_cat=0
split_feature=0 9 8 0 8 8 9 8 8 8 8 8
split_gain=121.214 73.7416 27.0115 38.8593 5.77246 25.8734 17.9259 70.8017 0.846641 0.386085 1.20987 0.63421
threshold=1.5000000000000002 4.5000000000000009 11.370039682539685 6.5000000000000009 0.85021645021645031 0.73412698412698429 5.5000000000000009 1.2778749028749032 3.633986928104576 0.63149430974764986 0.54282407407407429 0.44497354497354508
decision_type=2 2 2 2 2 2 2 2 2 2 2 2
left_child=-1 -2 4 -4 5 9 8 -8 -6 10 11 -3
right_child=1 2 3 -5 6 -7 7 -9 -10 -11 -12 -13
leaf_value=-0.051066599054732723 -0.050626001108326796 0.082545068504438407 -0.055145883441668313 0.093181023649896763 0.081009076757606255 0.1282951404640634 0.081138510754544035 -0.059498187875947475 0.091126606061160298 0.090391666178667729 0.071153289248232984 0.092957824148907534
leaf_weight=17.86723393574357 10.361982475966213 159.93518646620214 8.4032784784212708 9.0523587316274643 58.096327882260084 39.104054570198059 46.984190691262484 10.930280846543608 99.152793634682894 54.52420317940414 29.193680169060826 35.308444518595934
leaf_count=981 561 187 248 2 69 8 50 168 27 24 36 11
internal_value=0 0.0808265 0.0833178 0.0215831 0.0853249 0.0898061 0.0786388 0.054453 0.0874743 0.0843489 0.082819 0.0845004
internal_weight=0 561.047 550.685 17.4556 533.229 318.066 215.164 57.9145 157.249 278.962 224.437 195.244
internal_count=2372 1391 830 250 580 266 314 218 96 258 234 198
is_linear=0
shrinkage=0.05


Tree=15
num_leaves=17
num_cat=0
split_feature=9 0 8 8 8 9 4 8 5 4 8 3 0 8 3 4
split_gain=104.489 29.4132 42.4839 26.3408 46.0284 28.461 44.9019 6.27087 6.05693 18.6829 39.514 0.794077 11.0155 34.2965 0.692275 2.2217
threshold=4.5000000000000009 1.5000000000000002 2.8617571059431532 1.2509107468123866 11.370039682539685 5.5000000000000009 1.0000000180025095e-35 0.73412698412698429 0.51635944700460845 3.3667267260429008 9.033660130718955 15.708333333333334 4.5000000000000009 0.65271942110177417 17.583333333333339 1.9841393082561356
decision_type=2 2 2 2 2 2 2 2 2 2 2 2 2 2 2 2
left_child=-1 2 -2 7 5 8 -7 11 -5 10 -10 12 13 -3 -13 -16
right_child=1 3 -4 4 -6 6 -8 -9 9 -11 -12 14 -14 -15 15 -17
leaf_value=-0.050584630239956622 -0.05084666325372153 -0.056292428110748617 0.095492519248020727 0.087402973708020568 -0.054563982792573018 0.091036824979524075 -0.058049558025718019 0.096922813929187307 -0.070710008324768037 0.095586031454289622 0.089538855772117884 0.090061126014785886 0.088321502289420761 0.082436053874337029 0.078332604733209021 0.091228030063469953
leaf_weight=15.817339626140891 10.336885250173509 5.8543935986235764 9.3247714638710022 71.430246416479349 7.9740307703614226 9.6225911788642424 10.386912612244485 118.47450223937631 6.7002399936318371 17.535726949572563 8.7246513366699219 80.411036364734173 63.681936645880342 17.390912972390652 134.52798713743687 61.886028051376343
leaf_count=1020 523 135 9 29 245 8 190 33 53 3 1 24 47 7 45 15
internal_value=0 0.0790734 0.0184354 0.0810018 0.061014 0.0685005 0.0134938 0.0864645 0.0789733 0.0603447 0.019601 0.0830187 0.0774471 0.0471913 0.0847216 0.0824655
internal_weight=0 634.263 19.6617 614.601 132.374 124.4 20.0095 482.227 104.391 32.9606 15.4249 363.752 86.9272 23.2453 276.825 196.414
internal_count=2387 1367 532 835 529 284 198 306 86 57 54 273 189 142 84 60
is_linear=0
shrinkage=0.05


Tree=16
num_leaves=24
num_cat=0
split_feature=9 0 4 0 4 0 4 4 3 4 0 3 4 9 4 4 3 4 4 4 4 4 4
split_gain=96.2168 24.0118 25.7488 8.74016 8.73479 6.3316 4.06527 16.2131 22.8841 5.15897 8.95448 24.5842 35.67 3.24999 2.84307 5.54636 2.46707 3.24722 2.25472 2.27963 3.27109 1.28407 21.5142
threshold=4.5000000000000009 1.5000000000000002 0.695672849160205 4.5000000000000009 1.8940911037472037 3.5000000000000004 1.0088392320588182 1.4247043604931393 19.750000000000004 3.3210105612882961 5.5000000000000009 19.750000000000004 2.9098196776112091 5.5000000000000009 0.85371693222823575 0.51143602277097289 16.416666666666668 0.82921486703441627 0.77761621323030861 1.0000000180025095e-35 0.16090015264280569 1.6106350941869361 1.45390065238608
decision_type=2 2 2 2 2 2 2 2 2 2 2 2 2 2 2 2 2 2 2 2 2 2 2
left_child=-1 2 -2 4 16 -6 13 8 -8 10 11 12 -9 -5 15 -15 17 18 19 -3 -21 22 -19
right_child=1 3 -4 6 5 -7 7 9 -10 -11 -12 -13 -14 14 -16 -17 -18 21 -20 20 -22 -23 -24
leaf_value=-0.050457088404135889 0.068455411805108932 0.092041680532751177 -0.050259826353498696 0.083089471003522597 0.086156043375894664 0.1184769418951912 -0.060860707010008765 -0.062869714503827223 0.065263103855392038 0.089822051340969614 0.079352695102064608 0.075895255238719136 0.074200951467432358 0.071927499337306855 0.080411599886062099 0.031063669697640101 0.088795215605386849 -0.058883997042719897 0.095597191355625777 0.082558717940178661 0.039819288926441113 0.070445723198094973 0.082658208522983154
leaf_weight=15.239922940731047 11.102356371469797 9.2969422563910502 7.5795733965933314 150.09303377568722 35.281800778582692 33.078039684332907 5.6492270156741116 9.4472868191078305 9.4399007111787796 35.852769933640957 69.935439349152148 35.903458178043365 9.3282640213146806 28.933549048379064 35.857491224072874 12.677993306890128 42.918487131595612 3.6039173072203985 17.132155815139413 8.8452581092715263 11.186765874736011 9.212295769713819 9.4964433712884784
leaf_count=1037 95 4 412 67 30 14 132 205 5 25 20 13 18 33 29 58 7 66 3 3 44 17 19
internal_value=0 0.0762996 0.0200133 0.0780904 0.0875114 0.102019 0.0738495 0.0677539 0.0176245 0.0724226 0.0673085 0.0516958 0.00499858 0.0784984 0.0694432 0.0597015 0.0785042 0.0718899 0.0797918 0.0700959 0.0592558 0.0549303 0.04319
internal_weight=0 601.852 18.6819 583.171 180.052 68.3598 403.118 175.556 15.0891 160.467 124.614 54.679 18.7756 227.562 77.469 41.6115 111.692 68.7738 46.4611 29.329 20.032 22.3127 13.1004
internal_count=2356 1319 507 812 207 44 605 418 137 281 256 236 223 187 120 91 163 156 54 51 47 102 85
is_linear=0
shrinkage=0.05


Tree=17
num_leaves=19
num_cat=0
split_feature=9 5 8 8 8 9 8 8 3 3 8 5 5 8 5 3 3 3
split_gain=86.6571 33.1972 15.4807 32.7423 3.99133 23.0661 49.7003 12.4978 11.4655 23.6992 4.46917 6.37396 18.3856 1.67891 0.951001 0.580766 0.299239 2.23425
threshold=4.5000000000000009 0.10371361659417867 11.370039682539685 16.527777777777782 0.85021645021645031 5.5000000000000009 1.2778749028749032 0.73412698412698429 15.708333333333334 1.0000000180025095e-35 0.65271942110177417 0.42575187969924816 2.1134532760472617 3.633986928104576 1.7579597821533308 17.583333333333339 19.416666666666668 1.0000000180025095e-35
decision_type=2 2 2 2 2 2 2 2 2 2 2 2 2 2 2 2 2 2
left_child=-1 -2 4 -4 7 13 14 8 9 10 11 -3 -13 16 -7 -10 17 -6
right_child=1 2 3 -5 5 6 -8 -9 15 -11 -12 12 -14 -15 -16 -17 -18 -19
leaf_value=-0.050447065528738726 -0.053271863368926399 0.070216710661753598 -0.055249331249278312 0.087625484473295379 0.082298577794202299 0.055675404637852699 -0.058271188397579499 0.097213129969141845 0.084049128515339397 -0.049574103925235341 0.076543889753283079 -0.055864838475913427 0.060999152076517349 0.084726267577764247 0.074896784918357343 0.076724914442247161 0.076580197569966438 0.047035399412455381
leaf_weight=14.504310950636862 5.0643675373867145 18.432274903170764 7.0254042940214285 9.0233681946992874 9.6657085940241831 18.992894293740392 10.258411097340284 73.319021906703711 78.818425096571445 4.8218695363029829 35.440420994535089 4.6702352333813897 11.167841376736758 80.057585328817368 18.235366990789771 165.81654666364193 25.379655599594116 11.604900304228066
leaf_count=1021 303 36 176 2 7 38 153 14 24 244 17 118 96 22 18 53 5 36
internal_value=0 0.072792 0.0739052 0.0248171 0.0752819 0.0685599 0.0385122 0.0782344 0.0738298 0.0562558 0.0637082 0.0501047 0.026091 0.0797422 0.0653999 0.0791385 0.0709191 0.0636036
internal_weight=0 587.794 582.73 16.0488 566.681 174.195 47.4867 392.487 319.168 74.5326 69.7108 34.2704 15.8381 126.708 37.2283 244.635 46.6503 21.2706
internal_count=2383 1362 1059 178 881 279 209 602 588 511 267 250 214 70 56 77 48 43
is_linear=0
shrinkage=0.05


Tree=18
num_leaves=17
num_cat=0
split_feature=0 9 5 8 9 4 8 5 5 3 0 5 3 8 5 5
split_gain=87.5853 52.8787 15.5825 11.9224 35.9365 40.8242 4.29284 4.05324 12.9454 28.6217 1.24803 5.25014 1.15475 2.85253 3.91939 15.246
threshold=1.5000000000000002 4.5000000000000009 1.0000000180025095e-35 1.2509107468123866 5.5000000000000009 0.12828489297261758 0.73412698412698429 0.43220338983050854 1.3737872198059555 22.125000000000004 4.5000000000000009 1.419166503810827 15.708333333333334 0.65271942110177417 0.40606003039513688 1.8015679442508714
decision_type=2 2 2 2 2 2 2 2 2 2 2 2 2 2 2 2
left_child=-1 -2 -3 6 7 -6 12 -5 9 -9 -10 -12 13 14 -4 -16
right_child=1 2 3 4 5 -7 -8 8 10 -11 11 -13 -14 -15 15 -17
leaf_value=-0.050768959333106635 -0.050280311940385784 -0.048025860409258214 0.071388950048818248 0.080125342668284638 0.078333063116621054 -0.057530958499594644 0.08662159770235324 -0.06976541771254495 0.086503647792652197 0.076844831820394699 0.094783353885556421 0.042913519363561033 0.075906702196638504 0.076366186157287186 -0.056314388751788486 0.063078343196198858
leaf_weight=15.194491180591283 8.8258861694484931 2.5659475782886139 17.660603755153716 61.258139973506331 9.6826295144855994 12.611806862056254 98.897040415555239 5.4666522992774818 17.123871803283691 8.1396055221557617 8.9313044399023074 12.582460992969571 259.13659331947565 42.966322293505073 3.3710300810635081 11.245643651112912
leaf_count=978 565 169 17 23 8 271 27 49 2 1 2 46 83 16 69 48
internal_value=0 0.0703874 0.0722677 0.0728272 0.059614 0.00133877 0.0769422 0.0710053 0.0600835 0.0174965 0.0748676 0.0650172 0.0740394 0.0674499 0.0552272 0.0350076
internal_weight=0 580.466 571.64 569.074 135.796 22.2944 433.277 113.502 52.2439 13.6063 38.6376 21.5138 334.38 75.2436 32.2773 14.6167
internal_count=2374 1396 831 662 402 279 260 123 100 50 50 48 233 150 134 117
is_linear=0
shrinkage=0.05


Tree=19
num_leaves=24
num_cat=0
split_feature=9 0 4 4 0 4 0 0 4 3 3 4 3 4 4 3 4 3 3 4 4 4 3
split_gain=77.4182 18.736 22.048 15.9328 4.05534 8.78597 5.24663 3.45204 7.25262 21.8281 47.5695 8.41868 2.41052 3.33299 22.0355 1.20866 0.907439 0.230817 2.40853 1.72996 0.265721 0.563062 0.0525114
threshold=4.5000000000000009 1.5000000000000002 0.695672849160205 0.685393776091198 4.5000000000000009 1.8940911037472037 3.5000000000000004 5.5000000000000009 1.0088392320588182 19.750000000000004 1.0000000180025095e-35 2.9098196776112091 15.41666666666667 0.80523354908622669 1.45390065238608 16.875000000000004 0.63243113381201099 22.125000000000004 17.125000000000004 0.4292859981451172 0.59036620785946436 0.85371693222823575 15.708333333333334
decision_type=2 2 2 2 2 2 2 2 2 2 2 2 2 2 2 2 2 2 2 2 2 2 2
left_child=-1 2 3 -2 5 12 -7 8 17 10 11 -10 13 16 -15 -9 -3 18 19 -6 -21 -22 -12
right_child=1 4 -4 -5 7 6 -8 15 9 -11 22 -13 -14 14 -16 -17 -18 -19 -20 20 21 -23 -24
leaf_value=-0.050309382722330598 -0.048794594160626786 0.058521844565102704 -0.049931268851567102 0.093290145910162409 0.058441155757042174 0.079176863435981196 0.11337556406908772 0.080645598416516126 0.026902461718516315 0.071152527147968533 -0.048816961352054516 0.079151603772580709 0.078191822191620505 -0.059337401115434507 0.069118439651951122 0.069942681803849924 0.081356254626428565 0.075656131499802021 0.057116571778671611 0.084255752654238472 0.063586056767304749 0.078497855439228326 -0.070274628440773132
leaf_weight=13.588169376365839 2.4086651662364611 10.887176383286716 6.948666031472384 8.8914674613624811 19.503698677755892 26.347040633670986 24.785796518437564 76.900370822288096 13.953871792182325 82.156294018030167 3.8314200453460199 18.6716533228755 49.899198733270168 3.9646868491545346 18.126124990172684 74.638355955481529 17.492073865607381 71.598925143480301 35.327919840812683 26.683691705577075 18.334991888143122 34.78033010661602 6.9169448278844357
leaf_count=1041 95 31 429 3 27 34 12 23 81 21 237 14 13 74 35 22 21 10 25 13 50 38 45
internal_value=0 0.069772 0.0193177 0.0624033 0.0712112 0.078744 0.0960406 0.0688238 0.0657572 0.0559706 0.0270014 0.057108 0.0697956 0.0612574 0.0456754 0.0754566 0.0730081 0.07166 0.069443 0.0737161 0.0773091 0.0735735 -0.0636071
internal_weight=0 653.049 18.2488 11.3001 634.801 151.502 51.1328 483.298 331.76 125.53 43.3739 32.6255 100.369 50.4701 22.0908 151.539 28.3793 206.23 134.631 99.3027 79.799 53.1153 10.7484
internal_count=2394 1353 527 98 826 220 46 606 561 398 377 95 174 161 109 45 52 163 153 128 101 88 282
is_linear=0
shrinkage=0.05


Tree=20
num_leaves=15
num_cat=0
split_feature=9 9 3 0 8 8 0 0 8 3 0 0 8 0
split_gain=64.2167 45.0092 43.296 8.26328 25.9262 10.9381 12.4563 32.1051 21.9176 1.85242 0.594576 0.843682 8.1979 16.6451
threshold=4.5000000000000009 6.5000000000000009 23.583333333333339 1.5000000000000002 2.8617571059431532 1.2509107468123866 4.5000000000000009 6.5000000000000009 3.0118563685636865 16.416666666666668 5.5000000000000009 4.5000000000000009 0.49172823718859526 3.5000000000000004
decision_type=2 2 2 2 2 2 2 2 2 2 2 2 2 2
left_child=-1 3 -3 4 -2 10 9 8 -8 -7 11 12 13 -5
right_child=1 2 -4 5 -6 6 7 -9 -10 -11 -12 -13 -14 -15
leaf_value=-0.050180196162629677 -0.049784948684100744 -0.05717358620973545 0.080837578655161779 -0.055185601742151272 0.082566104630664328 0.062137510297835742 0.034240729367537102 0.069662875090195128 -0.06142723148125237 0.082683293456576365 0.077714102439408864 0.072438351010501029 0.075973791526586884 0.06991515909934691
leaf_weight=12.35880595911294 5.9797380771487925 14.372205779887736 9.2528943121433258 3.9862352972850186 9.2754935473203659 30.660244351252913 14.293834606185557 33.787282764911652 10.133927890099583 25.180961608886719 80.549639374017715 277.89706035330892 32.376345440745354 7.412994384765625
leaf_count=999 353 440 3 79 8 51 83 10 223 3 11 75 8 1
internal_value=0 0.0645177 -0.00279715 0.067519 0.0303752 0.0686008 0.0546319 0.0381531 -0.00533218 0.071623 0.0725348 0.0711986 0.0630675 0.025634
internal_weight=0 555.159 23.6251 531.534 15.2552 516.279 114.056 58.215 24.4278 55.8412 402.222 321.673 43.7756 11.3992
internal_count=2347 1348 443 905 361 544 370 316 306 54 174 163 88 80
is_linear=0
shrinkage=0.05


Tree=21
num_leaves=24
num_cat=0
split_feature=9 8 8 5 9 4 4 5 3 8 4 4 5 9 8 5 8 4 4 5 5 4 4
split_gain=63.7688 13.5917 25.6128 15.6949 3.80778 53.6612 33.8405 1.62432 8.30358 31.0916 1.04986 2.25318 2.30631 1.11366 6.89813 10.7523 27.5999 1.26889 3.80128 8.73319 2.38858 0.148437 0.462061
threshold=4.5000000000000009 11.370039682539685 16.527777777777782 1.0000000180025095e-35 6.5000000000000009 2.0265609165853484 2.0424425661213368 2.711532352006778 18.833333333333339 0.42796287439998598 3.3210105612882961 2.1051458140800023 1.3837562051847769 5.5000000000000009 0.87086288416075663 2.6834415584415594 1.2682123482304317 0.93169419618323623 1.8940911037472037 0.42575187969924816 1.0480371550613603 0.53701587988179811 1.2019676498759986
decision_type=2 2 2 2 2 2 2 2 2 2 2 2 2 2 2 2 2 2 2 2 2 2 2
left_child=-1 3 -3 -2 7 -6 -7 10 9 -9 11 13 -13 17 21 16 -16 20 19 -19 -5 -15 -23
right_child=1 2 -4 4 5 6 -8 8 -10 -11 -12 12 -14 14 15 -17 -18 18 -20 -21 -22 22 -24
leaf_value=-0.050065481766890851 -0.048323526846211065 -0.054269703855341314 0.075344893833753243 0.069184547830662232 -0.05794753160148533 0.18171819399756875 0.043406069415097136 0.068244817426743626 0.074397830844468882 -0.065426318832108685 0.077495277709189417 0.042564681466039006 0.06769322877945462 0.076515208937941392 0.073453582119124755 0.085333425853699144 -0.060588408056309967 0.070242107082264388 0.082139510518596762 0.018871688703053915 0.083248968981390115 0.064107231545444218 0.073137819701429227
leaf_weight=11.968051249161361 2.8099786704406133 6.6276263836771223 8.644608348608017 78.519703513011336 8.1807468542829174 6.947280406951907 12.479535427875815 17.898133229464296 38.915739431977272 5.614361776970326 56.300123898312449 18.92394108325243 23.50915861222893 33.084381227381527 8.7501416653394681 8.6079645156860352 6.6616423279047021 31.390536786988378 25.448304962366819 11.744478303939102 69.540082710795105 57.127306588925421 56.110186421312392
leaf_count=1021 219 240 2 40 229 1 63 36 6 93 18 34 15 13 3 1 76 18 9 68 39 66 41
internal_value=0 0.0659479 0.0187842 0.0671807 0.0677614 0.0486076 0.0938016 0.068708 0.0600864 0.0359729 0.0697932 0.0687539 0.0567306 0.0700444 0.0664002 0.0407748 0.0151754 0.0728547 0.0661589 0.056447 0.0758757 0.070542 0.0686867
internal_weight=0 593.836 15.2722 578.564 575.754 27.6076 19.4268 548.146 62.4282 23.5125 485.718 429.418 42.4331 386.985 170.342 24.0197 15.4118 216.643 68.5833 43.135 148.06 146.322 113.237
internal_count=2351 1330 242 1088 869 293 64 576 135 129 441 423 49 374 200 80 79 174 95 86 79 120 107
is_linear=0
shrinkage=0.05


Tree=22
num_leaves=24
num_cat=0
split_feature=0 5 5 9 0 5 4 0 4 4 4 4 0 4 0 4 4 4 4 4 4 4 4
split_gain=66.9531 5.07028 24.3684 3.11622 58.2012 14.3813 4.2646 1.19034 3.6694 18.3575 0.791625 7.18585 3.17333 0.646987 0.560894 1.10202 2.16944 0.523364 1.58056 1.78149 0.473672 0.0845287 0.0811282
threshold=1.5000000000000002 3.6630333951762526 3.7841026821687587 6.5000000000000009 4.5000000000000009 1.0000000180025095e-35 2.0901896275398486 2.5000000000000004 1.0000000180025095e-35 0.7974179152982136 3.3210105612882961 2.3807367406539099 3.5000000000000004 3.4953127153647379 5.5000000000000009 0.64338857797989057 0.80523354908622669 0.93169419618323623 2.0901896275398486 2.0265609165853484 1.232463967489746 0.41585282017544095 1.0000000180025095e-35
decision_type=2 2 2 2 2 2 2 2 2 2 2 2 2 2 2 2 2 2 2 2 2 2 2
left_child=-1 3 -3 5 6 -2 -5 8 -7 -10 11 14 -13 -12 15 21 -17 -18 19 20 -19 22 -9
right_child=1 2 -4 4 -6 7 -8 10 9 -11 13 12 -14 -15 -16 16 17 18 -20 -21 -22 -23 -24
leaf_value=-0.050453107463763303 -0.047152509259913211 0.080250057927919352 -0.061374209619254994 0.12156469560442554 -0.060633308194408736 0.078836672817465314 0.07026316121854087 0.070299025639019741 0.071486541097106018 -0.054684195146199814 0.081296299302109978 0.060525253556590566 0.017607436488731257 0.066851281691026346 0.071286423755994408 0.036215669261901041 0.071334902849837512 0.05415952573078784 0.040868652035345593 0.080469474685022413 0.063674136802195788 0.072086042084783905 0.061322651352091855
leaf_weight=13.011758019216357 2.7077528210356823 8.8266150290146452 4.4788371184840789 9.1421354198828375 8.523962256498633 8.6915345806628483 9.7176294531673193 31.105419141240418 10.101088531315325 3.8906039549037805 24.835348821245134 7.3460879791527995 11.656074853613973 31.051526986993849 101.64725263416767 8.7817368619143945 33.095805820077658 33.385724969208241 10.277440675534306 16.536573633551598 83.76972752250731 80.899421321228147 32.942999401129782
leaf_count=989 233 12 181 52 178 4 13 10 25 98 11 5 69 39 21 34 27 84 37 5 173 44 32
internal_value=0 0.0637361 0.0321018 0.0644728 0.0469527 0.065355 0.0959049 0.065948 0.0528508 0.0359089 0.0665132 0.065622 0.0346909 0.0734935 0.0669612 0.0655959 0.0625524 0.0638092 0.0619961 0.0635512 0.0610539 0.0694179 0.0658628
internal_weight=0 573.411 13.3055 560.106 27.3837 532.722 18.8598 530.014 22.6832 13.9917 507.331 451.444 19.0022 55.8869 432.442 330.795 185.847 177.065 143.969 133.692 117.155 144.948 64.0484
internal_count=2376 1387 193 1194 243 951 65 718 127 123 591 541 74 50 467 446 360 326 299 262 257 86 42
is_linear=0
shrinkage=0.05


Tree=23
num_leaves=20
num_cat=0
split_feature=9 0 4 4 5 9 0 10 4 5 4 0 5 5 5 3 3 4 5
split_gain=55.7378 13.1109 18.6896 13.0559 9.74122 3.78728 53.099 2.77491 2.4566 2.01035 7.99392 7.88924 9.32521 36.8688 7.3476 17.5915 2.28601 15.2589 25.9767
threshold=4.5000000000000009 1.5000000000000002 0.695672849160205 0.685393776091198 1.0000000180025095e-35 6.5000000000000009 4.5000000000000009 1.0000000180025095e-35 2.1619300818349458 1.012620837808808 0.59036620785946436 6.5000000000000009 2.3423005565862716 1.271874280451301 2.4691404485925039 23.125000000000004 14.875000000000002 2.0708033357099231 0.33542908996629511
decision_type=2 2 2 2 2 2 2 2 2 2 2 2 2 2 2 2 2 2 2
left_child=-1 2 3 -2 -3 7 8 9 -7 16 -11 12 13 -12 -14 -16 17 18 -6
right_child=1 4 -4 -5 5 6 -8 -9 -10 10 11 -13 14 -15 15 -17 -18 -19 -20
leaf_value=-0.050057570973164746 -0.047910146113705948 -0.046944243612032824 -0.0497651309216674 0.084725109982684357 0.054253833312364497 0.10860001333841832 -0.060417217388920953 0.068409589185489089 0.068518452631679841 0.07011430122710198 0.052491724420336776 0.0748270942275399 0.075048340935184366 -0.077903617242196271 -0.059268314581005822 0.068705548286629003 0.068529478223955179 0.080408759187118567 -0.07087598482299115
leaf_weight=11.457206537947057 2.2267838958650836 1.9136762684211124 6.3590963054448357 8.7278313562273979 16.663822618313137 9.716295662336055 8.3839224516414088 208.86444048583508 9.5690049501135945 50.554864197969437 17.097661926411096 15.608212471008299 16.515183249488476 7.8036449411883941 4.1077585937455279 7.2425398826599121 108.65457853116095 25.776080226525664 5.3910755775868884
leaf_count=1028 100 150 444 3 26 52 169 44 14 26 33 2 5 72 77 1 38 18 69
internal_value=0 0.0608376 0.0175163 0.0571221 0.0622838 0.062711 0.0437888 0.0637725 0.0894263 0.0602142 0.0548272 0.0433653 0.0338405 0.0112799 0.0537101 0.021841 0.0642388 0.0542651 0.0232597
internal_weight=0 531.176 17.3137 10.9546 513.863 511.949 27.6692 484.28 19.2853 275.415 118.93 68.375 52.7668 24.9013 27.8655 11.3503 156.486 47.831 22.0549
internal_count=2371 1343 547 103 796 646 235 411 66 367 216 190 188 105 83 78 151 113 95
is_linear=0
shrinkage=0.05


Tree=24
num_leaves=16
num_cat=0
split_feature=0 4 8 0 8 9 8 5 4 5 4 3 4 3 5
split_gain=57.9171 36.4474 26.6314 27.4798 9.0773 46.512 6.36845 10.8093 26.8013 3.81047 2.39854 3.54708 1.57191 1.00309 0.913534
threshold=2.5000000000000004 1.0000000180025095e-35 11.370039682539685 6.5000000000000009 1.2509107468123866 5.5000000000000009 5.2666666666666675 0.45324890519588129 0.44841108545109626 0.38097328483632259 2.0424425661213368 11.29166666666667 0.92352739561903907 17.291666666666668 1.7392615830115832
decision_type=2 2 2 2 2 2 2 2 2 2 2 2 2 2 2
left_child=1 -1 4 -4 10 6 7 9 -9 -6 11 12 -2 -12 -13
right_child=2 -3 3 -5 5 -7 -8 8 -10 -11 13 14 -14 -15 -16
leaf_value=0.069995716985703116 0.068475075783369851 -0.052748590723135515 -0.05338113108529792 0.068708089637970565 0.036164660040033263 -0.058806028059795318 0.069232219128934763 0.064387292246127756 -0.067060066301576959 0.078143584244782655 0.048727754107250359 0.065990585410271849 0.083323088364760226 0.062690372217053675 0.056871233398883225
leaf_weight=8.690750748850407 47.40259925276041 19.20008651399985 10.308277081698179 8.1705632358789444 9.3783246697857994 9.0668729958124441 60.162536054849625 9.3102100109681469 6.4807238122448316 16.155155113898218 31.899675436317921 159.53786373510957 47.97428728826344 37.973583459854126 53.291294848546386
leaf_count=18 22 1261 494 2 78 189 12 12 161 4 33 48 20 15 36
internal_value=0 -0.0142096 0.059608 0.000411705 0.0618359 0.0489423 0.0586662 0.0430329 0.0100431 0.0631212 0.0655789 0.0676097 0.0760754 0.0564661 0.0637584
internal_weight=0 27.8908 507.112 18.4788 488.633 110.554 101.487 41.3244 15.7909 25.5335 378.079 308.206 95.3769 69.8733 212.829
internal_count=2405 1279 1126 496 630 456 267 255 173 82 174 126 42 48 84
is_linear=0
shrinkage=0.05


Tree=25
num_leaves=18
num_cat=0
split_feature=9 8 0 0 8 9 0 8 8 9 4 4 4 8 8 4 4
split_gain=47.0387 11.681 21.0277 8.8166 25.4673 4.46563 44.4531 8.3087 2.9481 24.6375 29.6615 1.04322 3.82918 0.961535 0.340157 0.322239 0.562673
threshold=4.5000000000000009 11.370039682539685 6.5000000000000009 1.5000000000000002 2.8617571059431532 6.5000000000000009 4.5000000000000009 0.73412698412698429 0.87086288416075663 5.5000000000000009 0.29518436370991169 0.52753614846531327 1.8940911037472037 0.8055555555555558 0.58021146659374734 0.92352739561903907 1.2546688409266058
decision_type=2 2 2 2 2 2 2 2 2 2 2 2 2 2 2 2 2
left_child=-1 3 -3 4 -2 8 7 -7 13 11 -11 -10 -13 14 15 -5 -17
right_child=1 2 -4 5 -6 6 -8 -9 9 10 -12 12 -14 -15 -16 16 -18
leaf_value=-0.04979677463449883 -0.049775359997926288 -0.053815465034346477 0.066817712430013207 0.058014454245924753 0.076430670148973034 0.048416927281024646 -0.06130529346635586 0.11531105772765407 0.06934832906278357 0.066177274653333271 -0.063017803807588355 0.041672321438891213 0.067705118932716177 0.071387917509273563 0.058190516893531864 0.071269166637774772 0.062700636539903473
leaf_weight=10.255553291644899 6.8960977485403427 6.4022141979075951 7.9890750348567963 37.296037741936743 9.1668833997100592 10.782653576694432 7.6734644151292732 9.0111796893179417 52.144288770854473 8.5440123230218905 9.040197042282669 24.55099561996758 41.516390476375818 57.277163416147232 66.551335014402866 53.666190230287611 92.717047978192568
leaf_count=1020 503 243 2 35 11 61 125 11 13 4 119 50 25 10 28 30 57
internal_value=0 0.0577493 0.0128059 0.0590647 0.0219663 0.0603149 0.0399375 0.0795485 0.061557 0.054998 0 0.0632056 0.0581844 0.0644183 0.0627752 0.0643765 0.0659226
internal_weight=0 501.225 14.3913 486.834 16.063 470.771 27.4673 19.7938 443.304 135.796 17.5842 118.212 66.0674 307.508 250.231 183.679 146.383
internal_count=2347 1327 245 1082 514 568 197 72 371 211 123 88 75 160 150 122 87
is_linear=0
shrinkage=0.05


Tree=26
num_leaves=25
num_cat=0
split_feature=0 5 8 0 5 3 5 3 8 5 5 0 4 4 0 4 3 4 8 8 3 4 4 5
split_gain=31.3779 23.5953 15.396 23.9797 4.41616 29.2719 2.62672 5.27179 8.83878 21.5275 4.74645 6.30145 2.26541 2.43051 3.57234 2.65914 1.58265 1.76807 4.00777 5.76163 1.20909 0.738129 0.626719 0.351816
threshold=1.0000000180025095e-35 0.16807440679621133 11.370039682539685 6.5000000000000009 2.4691404485925039 15.708333333333334 0.89404953784414998 15.875000000000002 0.85021645021645031 0.26647643593519893 1.0770676691729326 4.5000000000000009 0.4292859981451172 1.9055135490948831 6.5000000000000009 4.9888195995386946 1.0000000180025095e-35 1.5546656633724185 0.38984349939546475 0.44497354497354508 21.125000000000004 0.9969512924947227 0.55261439969099324 1.4806744979158777
decision_type=2 2 2 2 2 2 2 2 2 2 2 2 2 2 2 2 2 2 2 2 2 2 2 2
left_child=-1 -2 4 -4 6 -6 7 8 21 -10 11 -8 -12 16 15 -15 22 18 -18 -20 -9 -3 -14 -24
right_child=1 2 3 -5 5 -7 10 20 9 -11 12 -13 13 14 -16 -17 17 -19 19 -21 -22 -23 23 -25
leaf_value=-0.049249787589775974 -0.051416862799930053 0.059777699854639571 -0.05300197451177166 0.071079005182925092 -0.057628771678570501 0.057567532414788597 0.09110504249332467 0.054502001367116484 0.063395804922360049 -0.069098828659008779 0.034446331972739407 0.059629391889621811 0.077700361355083375 0.013438055447059158 0.066334721638393865 0.055773374522195385 0.061014198588630178 0.066701636084085941 0.065456251768070198 0.0047318334320380576 0.065773236505663732 0.039341893614082635 0.05761550162080397 0.069220947111291495
leaf_weight=6.9714128035120657 4.8884648764505974 21.520021877251569 7.796213139779864 7.5633797645568848 6.0286870021373025 53.128624698147178 34.85894797835499 58.145471174269915 6.6883475175127369 5.4843328054994345 9.5756052304059249 33.925751579925418 24.365693983621895 10.03231934132055 13.419576168060301 6.3136903592385343 36.193480797111988 41.786222492810339 6.7053799629211452 9.6717507038265449 68.310551568865776 9.0004661097191256 22.476476210169494 40.609520854428411
leaf_count=702 388 45 350 1 251 35 34 33 8 88 33 32 6 73 2 4 36 27 1 50 16 82 28 43
internal_value=0 0.0565965 0.0576049 0.00783918 0.0590684 0.0456661 0.0607742 0.0554448 0.0397238 0.00321706 0.063846 0.0757624 0.0600845 0.0612044 0.0468998 0.0303339 0.0634917 0.0583864 0.0515679 0.0301444 0.0606773 0.0540627 0.0688702 0.065263
internal_weight=0 538.489 533.601 15.3596 518.241 59.1573 459.084 169.149 42.6932 12.1727 289.934 68.7847 221.15 211.574 29.7656 16.346 181.809 94.3568 52.5706 16.3771 126.456 30.5205 87.4517 63.086
internal_count=2368 1666 1278 351 927 286 641 272 223 96 369 66 303 270 79 77 191 114 87 51 49 127 77 71
is_linear=0
shrinkage=0.05


Tree=27
num_leaves=20
num_cat=0
split_feature=0 8 0 5 4 8 8 4 0 8 8 4 5 8 4 3 4 3 3
split_gain=30.3143 17.8408 23.5107 3.55665 17.7536 1.76838 3.14967 25.8822 1.84365 36.0598 3.08327 10.9569 20.3958 1.52348 2.70866 4.48056 1.5158 0.395178 0.123439
threshold=1.0000000180025095e-35 11.370039682539685 6.5000000000000009 3.6630333951762526 2.638697558478651 5.2666666666666675 3.3341473341473349 0.59036620785946436 2.5000000000000004 0.49172823718859526 1.2509107468123866 2.0708033357099231 0.12246008708272861 0.73412698412698429 1.0168941272784024 17.291666666666668 2.3433845939722526 17.583333333333339 16.416666666666668
decision_type=2 2 2 2 2 2 2 2 2 2 2 2 2 2 2 2 2 2 2
left_child=-1 3 -3 5 17 6 8 -8 9 -2 13 12 -12 14 18 16 -16 -5 -10
right_child=1 2 -4 4 -6 -7 7 -9 10 -11 11 -13 -14 -15 15 -17 -18 -19 -20
leaf_value=-0.049252567653616096 -0.051831782387865767 -0.05209412962895154 0.069499261062220374 -0.047419644985057186 0.067889503177255658 0.067900460954508954 0.067609346089143249 -0.060494779453491201 0.067612811017864108 0.073976335320566688 0.0614852710494736 0.065205298152021099 -0.064007101369116054 0.068040755901723843 0.017776359223991529 0.059043428850510574 0.043967643037852507 -0.10069568012035031 0.061331075998734379
leaf_weight=6.6517921779304734 7.1415906036272636 8.4025160213932377 7.3560638427734366 1.9447929030284261 8.3040479831397533 65.17525995709002 17.463674820959572 4.9602143242955199 66.735432064160705 26.238944145850837 7.5716468282043916 25.246307925321162 5.4874026901088655 90.981964571401477 9.7794579751789588 82.095510244369507 16.527725582942367 1.1078144311904905 71.85077890753746
leaf_count=693 434 495 1 121 26 24 19 153 25 26 25 46 106 33 35 33 21 5 21
internal_value=0 0.0571996 0.00443039 0.0588235 0.0298483 0.0594691 0.0581703 0.0389077 0.0592028 0.0468366 0.0602738 0.0460033 0.00828782 0.0618623 0.0595395 0.0531766 0.0345248 -0.0709207 0.0644386
internal_weight=0 524.371 15.7586 508.613 11.3567 497.256 432.081 22.4239 409.657 33.3805 376.276 38.3054 13.059 337.971 246.989 108.403 26.3072 3.05261 138.586
internal_count=2342 1649 496 1153 152 1001 977 172 805 460 345 177 131 168 135 89 56 126 46
is_linear=0
shrinkage=0.05


Tree=28
num_leaves=21
num_cat=0
split_feature=0 8 0 8 0 8 8 4 3 4 4 4 4 0 8 4 8 8 8 8
split_gain=43.95 18.8603 20.8717 7.43148 14.0654 5.36457 12.5589 11.234 25.1911 7.35793 5.31672 19.4384 5.42033 17.9265 3.98671 1.28584 0.928405 2.02313 0.59525 0.444318
threshold=1.5000000000000002 11.370039682539685 6.5000000000000009 0.10846560846560849 8.5000000000000018 0.87086288416075663 5.2666666666666675 1.0000000180025095e-35 16.125000000000004 0.4965122648453158 0.55261439969099324 1.45390065238608 2.0901896275398486 8.5000000000000018 0.73412698412698429 2.0708033357099231 0.54282407407407429 0.49172823718859526 0.65271942110177417 0.42796287439998598
decision_type=2 2 2 2 2 2 2 2 2 2 2 2 2 2 2 2 2 2 2 2
left_child=-1 3 -3 4 -2 14 7 -7 9 -9 -11 -12 15 -14 16 -13 17 19 -18 -5
right_child=1 2 -4 5 -6 6 -8 8 -10 10 11 12 13 -15 -16 -17 18 -19 -20 -21
leaf_value=-0.050275614976984087 -0.057123469476825867 -0.052524517646323432 0.061654154668170563 0.059393466998847434 0.059745064569605634 0.063667293406993453 0.06359094153647972 -0.06621537607640586 -0.075980522783140686 0.073132783841875756 -0.059389011499883917 0.046645586054186755 -0.063712540120960864 0.066130411188629723 0.071032816118543299 0.077371579229174259 0.044664528870187299 0.074528223531086554 0.056442776415790943 0.0513255588701024
leaf_weight=10.180625439155845 4.1143616284243745 8.5167315080761892 7.3733401447534552 105.27911050617695 6.4590403586626053 21.659805310890079 70.624913550913334 1.6586812175810326 5.8639402464032164 8.490243583917616 5.2102706376463166 9.3875247058458662 4.1923982901498658 6.8269748687744141 75.955044638365507 8.2961760181933641 29.763342977501452 22.714612349867821 35.804258646443486 43.492171303369105
leaf_count=975 160 501 2 41 2 11 31 27 43 2 185 93 113 1 21 3 40 5 19 119
internal_value=0 0.0540835 0.000198423 0.0559106 0.0136912 0.056877 0.0485409 0.0335551 0.0202902 0.0333585 0.0375177 0.0282656 0.0445015 0.0161524 0.0606318 0.0616956 0.0572495 0.0594837 0.0512485 0.0571045
internal_weight=0 481.683 15.8901 465.793 10.5734 455.219 142.211 71.586 49.9262 44.0623 42.4036 33.9133 28.7031 11.0194 313.009 17.6837 237.053 171.486 65.5676 148.771
internal_count=2394 1419 503 916 162 754 509 478 467 424 397 395 210 114 245 96 224 165 59 160
is_linear=0
shrinkage=0.05


Tree=29
num_leaves=14
num_cat=0
split_feature=0 4 9 4 8 8 8 4 8 4 4 0 0
split_gain=41.5876 29.4112 25.9417 22.749 13.9397 28.5559 13.5119 19.0125 2.80564 28.1792 1.19802 0.271647 0.222894
threshold=2.5000000000000004 1.0000000180025095e-35 6.5000000000000009 3.1740125443946585 1.2509107468123866 11.370039682539685 2.5861111111111117 0.12828489297261758 3.633986928104576 3.3210105612882961 0.84561734221448592 7.5000000000000009 5.5000000000000009
decision_type=2 2 2 2 2 2 2 2 2 2 2 2 2
left_child=1 -1 4 -4 12 6 7 -6 9 11 -10 -8 -2
right_child=2 -3 3 -5 5 -7 8 -9 10 -11 -12 -13 -14
leaf_value=0.063651703858086314 0.060665624901946949 -0.052041525822208203 -0.060792704231523581 0.050310057346810912 0.058152969752002959 -0.055095761907648103 -0.059129323231364855 -0.058592244994683601 0.066636377657367393 0.069674411224603591 0.051792302944720106 -0.1076864791553279 0.066000686149830831
leaf_weight=8.1798997358419019 250.93115927092731 16.148828269913793 8.9624030892737228 9.2587214261293393 7.0864090425893647 7.0937837664969257 3.4414921943098316 6.6716332519426942 36.08333031181246 14.886872831732035 35.273765435442328 0.9478309005498885 69.913597106933594
leaf_count=19 76 1246 204 15 4 418 109 172 19 14 58 4 11
internal_value=0 -0.0128367 0.0540658 -0.00409856 0.0565291 0.0410895 0.0477199 0.00116509 0.0547227 0.036744 0.0594513 -0.0728937 0.0618639
internal_weight=0 24.3287 450.551 18.2211 432.33 111.485 104.391 13.758 90.6333 19.2762 71.3571 4.38932 320.845
internal_count=2369 1265 1104 219 885 798 380 176 204 127 77 113 87
is_linear=0
shrinkage=0.05


Tree=30
num_leaves=15
num_cat=0
split_feature=8 9 9 4 4 5 5 8 8 4 5 0 8 4
split_gain=34.3609 24.2616 9.28007 36.5158 14.2049 16.6326 5.93886 2.50784 4.56274 9.80227 28.3772 2.15674 32.4254 0.450994
threshold=11.370039682539685 4.5000000000000009 6.5000000000000009 2.0265609165853484 2.0424425661213368 0.22296368427082142 1.0000000180025095e-35 1.2509107468123866 5.7556497175141246 0.695672849160205 0.44183143262028485 4.5000000000000009 0.44497354497354508 1.0168941272784024
decision_type=2 2 2 2 2 2 2 2 2 2 2 2 2 2
left_child=1 -1 6 -4 -5 -6 -3 11 9 -9 -11 12 -8 -13
right_child=-2 2 3 4 5 -7 7 8 -10 10 -12 13 -14 -15
leaf_value=-0.048809696547346432 -0.054277049700661634 -0.043853980712295397 -0.059476503880637757 0.11007711000872283 0.067106257943524567 -0.057522959513965966 -0.054784926088752794 0.05605958678711729 0.060146936315032845 0.051883847686108223 -0.060514956123770107 0.062116816659240341 0.064218989632384801 0.0564371053749467
leaf_weight=5.8141984404064706 7.6768263503909102 1.3923467905260611 8.7525834264233726 8.7080860137939471 7.8419348178431374 3.9107642495073378 6.5856854435987762 34.025833748281002 46.225200962275267 16.816963308490816 8.2836174340918642 139.30299415439367 38.861280158162117 119.526262704283
leaf_count=771 495 157 290 1 11 64 288 32 19 22 116 33 10 45
internal_value=0 0.0515801 0.0529281 0.0252544 0.0618562 0.025078 0.0548763 0.0552347 0.0481243 0.0385548 0.014499 0.0576635 0.046782 0.0595361
internal_weight=0 446.048 440.234 29.2134 20.4608 11.7527 411.02 409.628 105.352 59.1264 25.1006 304.276 45.447 258.829
internal_count=2354 1859 1088 366 76 75 722 565 189 170 138 376 298 78
is_linear=0
shrinkage=0.05


Tree=31
num_leaves=18
num_cat=0
split_feature=9 9 0 0 8 0 10 8 8 8 0 4 0 0 8 4 8
split_gain=33.0267 9.43037 33.3525 19.0577 4.33333 13.8904 2.75594 2.31364 4.3465 18.3367 5.70139 4.12015 19.3469 3.3829 29.4879 0.568292 0.178765
threshold=4.5000000000000009 6.5000000000000009 4.5000000000000009 3.5000000000000004 11.370039682539685 6.5000000000000009 1.0000000180025095e-35 5.2666666666666675 1.2778749028749032 2.5861111111111117 4.5000000000000009 0.59036620785946436 8.5000000000000018 2.5000000000000004 0.49172823718859526 1.0168941272784024 0.49172823718859526
decision_type=2 2 2 2 2 2 2 2 2 2 2 2 2 2 2 2 2
left_child=-1 4 3 -3 6 -6 7 8 13 -10 -11 -12 -13 14 -2 -15 -17
right_child=1 2 -4 -5 5 -7 -8 -9 9 10 11 12 -14 15 -16 16 -18
leaf_value=-0.049398590537020337 -0.051995977998316817 -0.050125059091661539 -0.060518813436404931 0.079437194987830501 -0.05214697755972543 0.062777271792565092 0.060467027998918288 0.061375542426900333 -0.058063041682135712 0.066641420311208913 0.051980263670163812 -0.071120885782758325 0.06295936615425371 0.059500164629896525 0.071515215511034277 0.05698345876990224 0.046703755587909498
leaf_weight=7.9306713193655005 6.7813906865194467 3.2711071386002066 8.1162193752825242 17.293015133589506 3.8822705498896521 7.5227229744195938 174.91578167676926 54.893208989873528 4.6457924912683657 17.79958747047931 8.8140786997973937 4.5843962240032834 6.2043523788452148 79.446448905393481 15.964485220611094 18.260118383914232 30.354392325039953
leaf_count=1025 432 222 198 11 149 2 42 29 77 23 6 69 1 30 5 8 36
internal_value=0 0.0527197 0.0245112 0.0584431 0.0545659 0.0231091 0.0553973 0.0517748 0.0489858 0.0342699 0.0459962 0.0267533 0.00539636 0.0530303 0.0344067 0.0562697 0.0507766
internal_weight=0 462.749 28.6803 20.5641 434.069 11.405 422.664 247.748 192.855 42.0482 37.4024 19.6028 10.7887 150.807 22.7459 128.061 48.6145
internal_count=2365 1340 431 233 909 151 758 716 687 176 99 76 70 511 437 74 44
is_linear=0
shrinkage=0.05


Tree=32
num_leaves=26
num_cat=0
split_feature=5 8 8 8 3 8 4 3 3 3 4 5 5 4 4 4 4 4 4 5 4 4 5 4 8
split_gain=23.7135 8.52154 17.3374 4.13576 8.51744 6.29169 9.86702 20.314 5.84361 13.5577 8.06796 2.38613 13.8292 21.6262 2.49869 12.8632 1.3546 1.19532 8.25734 1.49248 3.18289 13.8692 0.9912 0.615913 0.170069
threshold=0.16807440679621133 11.370039682539685 16.527777777777782 0.85021645021645031 17.125000000000004 0.73412698412698429 2.9346177190608658 22.125000000000004 15.708333333333334 1.0000000180025095e-35 0.52753614846531327 0.39930555555555564 1.2583309185743266 3.3210105612882961 0.695672849160205 1.45390065238608 1.9055135490948831 0.9969512924947227 1.6106350941869361 0.24845300330737227 2.9098196776112091 1.6215473458175123 1.8015679442508714 3.259687613620589 5.2666666666666675
decision_type=2 2 2 2 2 2 2 2 2 2 2 2 2 2 2 2 2 2 2 2 2 2 2 2 2
left_child=-1 3 -3 5 11 6 8 23 9 10 -2 -5 13 24 -14 -16 -17 22 -19 -20 21 -21 -12 -8 -13
right_child=1 2 -4 4 -6 -7 7 -9 -10 -11 17 12 14 -15 15 16 -18 18 19 20 -22 -23 -24 -25 -26
leaf_value=-0.054447217377122673 -0.061006729005973696 -0.051567233342732534 0.061306956921486126 0.059046907631145618 -0.0037011833802695275 0.069073693179695458 -0.13015523126310022 0.059762167656240407 0.056721883572723335 -0.049168088934473018 0.036237199623480348 -0.06095357859926246 0.059399322407060008 0.059168852278172215 -0.063689466252926055 0.059194972278648922 0.028927899135004317 -0.050658999252416494 0.061298363161999693 0.059636252430534081 0.062509112660303123 -0.076825041354028067 0.061692594506877266 -0.067760565703983255 -0.098555503567428079
leaf_weight=5.4848096692003301 1.6344368774443854 6.1555395843461138 7.325403705239296 27.514055255800486 9.2354787178337556 55.131679190322757 1.0988565008155986 5.4371790885925293 171.41479972191155 4.0039908974431446 6.7345208660699454 4.9305744636803848 36.122932722792029 6.1475863996893167 2.6647897195071009 14.858163232449444 6.3803226649761191 2.1993296993896392 11.995434837415816 5.4755123592913133 6.1329997046850613 2.6809994084760547 20.975937761832029 2.5665109222754836 1.3916761726140974
leaf_count=596 69 378 2 42 29 13 18 1 77 393 67 109 42 9 74 36 68 149 4 3 2 109 52 69 8
internal_value=0 0.0490465 0.00939906 0.0503457 0.0417066 0.0534864 0.0498929 -0.00063112 0.0518854 0.0383271 0.0445458 0.0459492 0.040835 -0.00668122 0.0507838 0.0373625 0.0505148 0.0478076 0.0396519 0.0475613 0.0353363 0.0137894 0.0558385 -0.0907539 -0.0714149
internal_weight=0 420.209 13.4809 406.728 109.246 297.482 242.351 9.10255 233.248 61.8332 57.8292 100.01 72.496 12.4698 60.0262 23.9033 21.2385 56.1947 28.4843 26.2849 14.2895 8.15651 27.7105 3.66537 6.32225
internal_count=2419 1823 380 1443 417 1026 1013 88 925 848 455 388 346 126 220 178 104 386 267 118 114 112 119 87 117
is_linear=0
shrinkage=0.05


Tree=33
num_leaves=19
num_cat=0
split_feature=9 9 3 4 3 3 10 5 5 5 5 9 4 5 4 9 4 4
split_gain=29.2562 16.6596 28.2609 10.9249 4.84247 20.2487 2.28587 8.31974 2.77497 15.7696 3.76964 4.05708 16.4055 0.608299 0.544039 0.329929 0.0105864 0.179106
threshold=4.5000000000000009 6.5000000000000009 1.0000000180025095e-35 2.0265609165853484 14.875000000000002 1.0000000180025095e-35 1.0000000180025095e-35 0.23958333333333337 0.63758782201405173 1.2583309185743266 1.395831774302178 5.5000000000000009 1.0000000180025095e-35 2.1134532760472617 0.93169419618323623 5.5000000000000009 0.19435296436042479 0.95488849265856579
decision_type=2 2 2 2 2 2 2 2 2 2 2 2 2 2 2 2 2 2
left_child=-1 4 3 -3 5 6 7 -2 15 -10 -11 14 -13 16 -12 -9 -6 -18
right_child=1 2 -4 -5 13 -7 -8 8 9 10 11 12 -14 -15 -16 -17 17 -19
leaf_value=-0.049264893879258413 -0.056114833136649257 -0.048030342762657746 -0.060951945787463102 0.077255334041019891 0.062709116985378691 -0.050582716337261996 0.057132309783759806 0.061962133656594379 -0.060891446994296876 0.067051142379798617 0.054610499489104361 0.054302309279587513 -0.070061110661809076 0.049374335698408628 0.034774561645344523 0.048234754204300297 0.0513053424764413 0.057810874298038578
leaf_weight=7.4276912393979719 1.9430608535185445 1.9768685270100856 8.8708561128005368 10.058204261120407 28.388027667999268 5.2644806527532628 50.292421385645866 20.609608291648328 3.6569834956899276 14.361372284591196 14.443284579552712 7.4912029504775983 3.9608100587502122 44.179326066747308 8.1056568631902319 15.901730695739387 38.954081452451646 163.11851743143052
leaf_count=1044 107 123 283 29 5 402 16 21 58 9 30 4 71 31 40 27 26 74
internal_value=0 0.0499725 0.00610454 0.0560378 0.0521388 0.0445235 0.0481493 0.043043 0.0453366 0.0374748 0.0451264 0.0355497 0.0106228 0.056152 0.0478859 0.0562681 0.0574077 0.0566075
internal_weight=0 441.576 20.9059 12.0351 420.671 146.031 140.766 90.4737 88.5306 52.0193 48.3623 34.001 11.452 274.64 22.5489 36.5113 230.461 202.073
internal_count=2400 1356 435 152 921 785 383 367 260 212 154 145 75 136 70 48 105 100
is_linear=0
shrinkage=0.05


Tree=34
num_leaves=27
num_cat=0
split_feature=8 9 9 4 4 3 10 9 8 4 4 4 8 8 4 8 4 0 8 0 0 8 3 4 4 4
split_gain=30.1071 19.2685 7.44858 29.1157 8.26623 15.12 2.20102 7.42913 27.0955 11.4623 19.7877 1.17223 4.53267 10.5071 2.45185 4.00815 1.9657 1.63865 0.770539 0.688666 0.637713 0.731527 0.492402 0.468619 0.302049 0.071577
threshold=11.370039682539685 4.5000000000000009 6.5000000000000009 2.0265609165853484 2.05532686378073 23.583333333333339 1.0000000180025095e-35 5.5000000000000009 1.2778749028749032 1.2482372651773788 1.0000000180025095e-35 0.93169419618323623 0.73412698412698429 0.42796287439998598 2.0265609165853484 9.033660130718955 0.53701587988179811 4.5000000000000009 1.2985420221728541 2.5000000000000004 2.5000000000000004 5.2666666666666675 17.416666666666668 3.4199540388235312 1.9248527436958673 1.9173318918140454
decision_type=2 2 2 2 2 2 2 2 2 2 2 2 2 2 2 2 2 2 2 2 2 2 2 2 2 2
left_child=1 -1 6 -4 -5 -6 7 11 9 10 -9 16 13 -13 15 -14 18 -15 -3 -12 21 -18 23 24 25 -11
right_child=-2 2 3 4 5 -7 -8 8 -10 22 19 12 14 17 -16 -17 20 -19 -20 -21 -22 -23 -24 -25 -26 -27
leaf_value=-0.048396239295003973 -0.054812860258858689 0.052851312525967559 -0.058612417005006072 0.092627733811277493 -0.056036237811112111 0.068127062946266442 0.056956806411167654 0.052614811773460168 -0.058474296192518205 0.044563701371390541 -0.052488845576368307 0.044071423319445774 0.015044577717072051 -0.045508049349195744 0.062298012858595375 0.060363472887970032 0.060161261231378653 -0.15962867644772166 0.031639796057194546 -0.10466042049292167 0.059527870346876871 0.086652381887394186 0.068313347644182829 0.065721956873764267 0.034969829214061041 0.061570084811662401
leaf_weight=4.8882350814528754 6.9860038845799854 16.002860795240853 7.478792455513033 8.7751817703247088 3.5748278941027802 7.1556315422058105 154.24044212698936 7.1909929066896421 6.9640045035630456 7.6415447886101955 2.2852635052986443 5.9709541406482449 9.825495008379221 1.2057730234228072 33.66667243745178 10.563225746154785 8.8579086097888649 0.56507951021194447 8.8469739630818349 2.1324852891266346 45.077517383731902 8.651240348815918 12.92002487182617 7.9509099908173075 6.8070709956809869 5.8889145851135254
leaf_count=789 481 45 289 1 73 1 45 3 129 52 118 71 47 66 21 2 52 3 10 16 18 1 2 4 34 1
internal_value=0 0.048998 0.0502428 0.0244147 0.0566403 0.0261652 0.0521405 0.0485369 0.0333248 0.0456108 0.00126074 0.0545707 0.0485249 0.0117277 0.0536713 0.038948 0.0587263 -0.0911825 0.0456571 -0.0805385 0.0637545 0.0739522 0.0579502 0.0528169 0.0472302 0.0527297
internal_weight=0 395.128 390.24 26.9844 19.5056 10.7305 363.255 209.015 59.7812 52.8172 11.6087 149.234 61.7972 7.74181 54.0554 20.3887 87.4365 1.77085 24.8498 4.41775 62.5867 17.5091 41.2085 28.2884 20.3375 13.5305
internal_count=2374 1893 1104 364 75 74 740 695 359 230 137 336 210 140 70 49 126 69 55 134 71 53 93 91 87 53
is_linear=0
shrinkage=0.05


Tree=35
num_leaves=19
num_cat=0
split_feature=8 0 0 8 8 8 8 4 4 8 8 8 8 4 4 0 8 0
split_gain=27.5518 18.8511 1.64402 27.3477 5.70047 16.021 2.4764 3.53509 8.37144 23.4636 3.63721 1.60282 1.15855 1.54822 0.958934 0.786212 0.308021 0.923006
threshold=11.370039682539685 1.0000000180025095e-35 2.5000000000000004 1.2761664261664265 1.2509107468123866 1.485566448801743 9.033660130718955 3.3210105612882961 0.86894779132056232 1.6964285714285718 3.633986928104576 0.73412698412698429 0.54282407407407429 0.29518436370991169 1.6106350941869361 7.5000000000000009 0.33945386064030136 5.5000000000000009
decision_type=2 2 2 2 2 2 2 2 2 2 2 2 2 2 2 2 2 2
left_child=1 -1 3 -3 11 -6 7 8 10 -10 -7 12 16 -14 -15 -11 17 -4
right_child=-2 2 4 -5 5 6 -8 -9 9 15 -12 -13 13 14 -16 -17 -18 -19
leaf_value=-0.048544240763088997 -0.054738776782860821 -0.052130952025757731 0.043707806785822451 0.061433616387129568 -0.060564892107248858 0.018460655561920902 0.061519178884437288 0.062135586282483814 0.051649200028262392 -0.061888411151983708 0.055588846554453411 0.060686515292385335 0.05960024392818012 0.029963855518934907 0.046048815423604499 -0.12435984948310319 0.056702181455403636 0.057262411425574838
leaf_weight=4.8079494945704928 6.4225131529383352 6.5600860617123535 35.019035323522985 25.449613192584366 3.7389115947298697 9.598523087333886 16.644526481628418 13.452080442570148 9.2933449419215304 5.264382319059222 26.112901133485138 78.593646354973316 15.939867513254283 18.131525903940201 30.615941318683326 0.87324289977550495 93.675355594605207 31.614436775445938
leaf_count=696 497 512 36 37 115 55 3 20 64 177 22 31 6 27 28 4 38 11
internal_value=0 0.0486216 0.0497555 0.037914 0.0507082 0.0389407 0.0436506 0.038881 0.0325574 0.00142511 0.0458286 0.0539716 0.0515779 0.0451739 0.040242 -0.0734295 0.0541011 0.0502899
internal_weight=0 425.385 420.577 32.0097 388.568 84.9779 81.239 64.5945 51.1424 15.431 35.7114 303.59 224.996 64.6873 48.7475 6.13763 160.309 66.6335
internal_count=2379 1882 1186 549 637 460 345 342 322 245 77 177 146 61 55 181 85 47
is_linear=0
shrinkage=0.05


Tree=36
num_leaves=20
num_cat=0
split_feature=0 8 8 8 4 4 8 4 3 0 4 4 3 3 4 0 4 3 4
split_gain=27.3943 5.671 22.3424 15.5839 20.6063 19.4594 2.83827 3.21039 2.26569 12.8793 1.74654 1.31431 2.07569 2.74012 12.2006 0.673349 0.288292 0.246736 0.167286
threshold=1.5000000000000002 1.2509107468123866 11.370039682539685 3.633986928104576 0.12828489297261758 3.3210105612882961 0.73412698412698429 2.6795682396691576 15.708333333333334 2.5000000000000004 3.0848211455418051 0.84561734221448592 16.875000000000004 16.416666666666668 3.3667267260429008 7.5000000000000009 0.98720895369783623 17.583333333333339 0.89951322400791656
decision_type=2 2 2 2 2 2 2 2 2 2 2 2 2 2 2 2 2 2 2
left_child=-1 6 3 4 -3 15 7 8 9 -2 -9 -5 13 14 -13 -6 -11 -10 -19
right_child=1 2 -4 11 5 -7 -8 10 17 16 -12 12 -14 -15 -16 -17 -18 18 -20
leaf_value=-0.04977427219188256 -0.051914475870919366 0.058073519900722431 -0.054222727012790517 0.062180436388844976 -0.058164738272348172 0.048041681265655799 0.05972110043474621 0.043457841430535687 0.056842926338199852 0.052963932605269395 0.0070679109074254457 -0.065980029734638332 0.058995682948095388 0.059103262034591333 0.057880572646794248 -0.10730248199545751 0.040360023276728926 0.045208205986306121 0.052170968071843377
leaf_weight=7.3728670785203567 3.5145870842970899 13.309476928785445 6.240134051302447 38.786497788503766 9.5240063697565365 5.7373163718730202 69.240247022360563 6.1259173136204463 42.014580752700567 17.275178076699376 7.9616008349694312 3.0261268662288803 16.24118110537529 5.260849952697753 5.3090770929120481 1.1887605637311924 17.926363305188715 35.147251561284065 76.130857646465302
leaf_count=972 213 8 506 23 350 26 31 16 24 14 30 55 4 1 5 5 34 22 34
internal_value=0 0.0467195 0.0365537 0.0424113 0.011926 -0.0252343 0.0505495 0.0474165 0.0491366 0.0376172 0.0234392 0.0555223 0.0465214 0.0309332 0.0120707 -0.0650217 0.0468195 0.051987 0.0500592
internal_weight=0 379.96 104.623 98.3833 29.7596 16.4501 275.337 206.096 192.009 38.7161 14.0875 68.6237 29.8372 13.5961 8.3352 10.7128 35.2015 153.293 111.278
internal_count=2373 1401 983 477 389 381 418 387 341 261 46 88 65 61 60 355 48 80 56
is_linear=0
shrinkage=0.05


Tree=37
num_leaves=22
num_cat=0
split_feature=9 9 0 0 0 5 5 10 9 4 5 5 5 4 5 4 0 4 5 4 5
split_gain=22.3578 8.70563 28.1388 14.2277 3.45356 10.5916 14.312 1.71529 12.2939 31.2325 2.68865 1.42899 0.920182 0.825039 0.608261 3.08749 11.8241 8.56383 1.83794 0.736748 0.316528
threshold=4.5000000000000009 6.5000000000000009 4.5000000000000009 3.5000000000000004 2.5000000000000004 1.5143887743776758 0.96951962485692156 1.0000000180025095e-35 5.5000000000000009 1.45390065238608 1.271874280451301 0.61518838304552603 1.8455651491365781 3.3210105612882961 0.45324890519588129 0.93169419618323623 4.5000000000000009 2.0265609165853484 0.38097328483632259 0.83555311174659141 1.4806744979158777
decision_type=2 2 2 2 2 2 2 2 2 2 2 2 2 2 2 2 2 2 2 2 2
left_child=-1 4 3 -3 5 6 -2 8 13 12 11 -11 -10 14 18 -16 -17 -18 19 -6 -8
right_child=1 2 -4 -5 7 -7 20 -9 9 10 -12 -13 -14 -15 15 16 17 -19 -20 -21 -22
leaf_value=-0.048905211285512645 -0.050628310566408576 -0.049732373794376415 -0.060452541773252738 0.069501948496347082 0.051397838974135905 -0.052703623415853135 0.051433900222603725 0.054830216413526617 -0.053626030184145683 0.029318241748087028 0.012406240990358209 0.059755635151304547 -0.10543563372085991 0.06276628401669973 0.053113864190975524 0.063158401758476465 -0.075969765037099901 0.023131335949141567 0.065497323776417662 0.026722645611832976 0.071959403962903831
leaf_weight=6.1843423168174914 3.2908505368977847 2.8322507054545047 7.8666447380091986 16.163371372967958 10.033359327353539 3.2636915505863717 9.0596225825138408 117.80389757454395 2.3693421743810168 6.9294844544492724 6.7834775093942872 13.724651750642805 3.3738811323419213 22.788107298314571 65.288837661966681 11.847396850585938 3.2594864503480494 6.0239608744159341 25.544516533613205 6.5152307227253905 7.7289040554314843
leaf_count=1043 239 224 208 9 11 164 53 38 67 45 41 21 37 6 41 2 48 18 5 48 3
internal_value=0 0.0460305 0.0182813 0.0512949 0.048298 0.0290289 0.0427568 0.0497594 0.0464663 0.0185963 0.0409473 0.0499752 -0.086201 0.0525289 0.0506274 0.0476085 0.0301926 -0.0115697 0.0565793 0.0422023 0.0615494
internal_weight=0 352.491 26.8623 18.9956 325.629 23.3431 20.0794 302.286 184.482 33.1808 27.4376 20.6541 5.74322 151.301 128.513 86.4197 21.1308 9.28345 42.0931 16.5486 16.7885
internal_count=2371 1328 441 233 887 459 295 428 390 211 107 66 104 179 173 109 68 66 64 59 56
is_linear=0
shrinkage=0.05


Tree=38
num_leaves=27
num_cat=0
split_feature=9 9 4 4 5 5 8 5 8 9 8 5 5 4 8 8 4 4 10 5 8 4 4 5 4 4
split_gain=21.4042 7.91602 24.582 6.89409 12.3827 4.50417 5.11076 12.0057 1.95557 20.3704 13.7093 1.38334 1.99815 7.0495 0.886806 0.854492 0.650164 0.423376 1.1225 2.86165 2.56301 5.38279 13.6194 0.359106 2.08548 6.84313
threshold=4.5000000000000009 6.5000000000000009 2.0265609165853484 2.0424425661213368 0.22296368427082142 2.2132850985221681 0.65271942110177417 2.3649685438085011 0.87086288416075663 5.5000000000000009 1.0273504273504277 1.3737872198059555 0.51635944700460845 3.4953127153647379 0.42796287439998598 5.7556497175141246 0.56229897786501593 3.4199540388235312 1.0000000180025095e-35 0.82683445586671411 0.27427037464551901 1.0000000180025095e-35 0.74716816617154624 0.42575187969924816 1.9173318918140454 0.16090015264280569
decision_type=2 2 2 2 2 2 2 2 2 2 2 2 2 2 2 2 2 2 2 2 2 2 2 2 2 2
left_child=-1 5 -3 -4 -5 8 14 -8 17 11 -11 12 15 -14 -7 -10 -16 18 19 23 -21 -22 -23 24 25 -2
right_child=1 2 3 4 -6 6 7 -9 9 10 -12 -13 13 -15 16 -17 -18 -19 -20 20 21 22 -24 -25 -26 -27
leaf_value=-0.048859744769922865 0.055575250839296111 -0.058570448682197032 0.081802512329207044 0.058747373579142274 -0.056486680718329733 0.049084055732211196 0.044991848217553657 -0.068764076167092833 0.038842000113109926 0.037796789520038322 -0.06097145895272043 0.061650437979310926 -0.001226971358077567 0.066142463054465903 0.042585539806535844 0.056418773170454677 0.014993385181465644 0.062323631858257046 0.054363739503981739 0.052137145032528046 0.052125232775797427 0.035998706585359162 -0.10737716772502946 0.057355538512217613 0.05816692583458475 -0.054943731868495743
leaf_weight=6.081721758702769 4.218682765960696 7.3854208234697607 8.4570121765136737 6.8214040743187052 3.3880063248798251 15.315642764326185 5.479503774084149 3.8651553292293102 12.712056517601011 6.6480375826358777 7.1780166386161 28.045193504542112 8.150083306245504 7.0722097754478446 4.5462759374640882 36.186722448561341 5.7843082724139094 15.985816252417861 113.6999553591013 7.009637149516494 5.096829779446125 4.5347285494208336 2.4626164217479527 24.918702990282327 10.445932018104939 1.9445208273828027
leaf_count=1070 1 339 1 20 70 43 13 76 28 5 171 22 42 2 8 53 51 8 36 53 4 20 46 50 25 149
internal_value=0 0.0447649 0.0178247 0.0484681 0.0198448 0.0468622 0.0293844 -0.00176058 0.0488987 0.0430345 -0.0131909 0.0515283 0.0469342 0.0299736 0.0408896 0.05204 0.0279073 0.052114 0.051114 0.0448581 0.0280278 0.0133313 -0.0145579 0.0523944 0.0443531 0.0195871
internal_weight=0 357.352 26.0518 18.6664 10.2094 331.301 34.9909 9.34466 296.31 105.992 13.8261 92.1663 64.1211 15.2223 25.6462 48.8988 10.3306 190.317 174.332 60.6317 19.1038 12.0942 6.99734 41.5278 16.6091 6.1632
internal_count=2406 1336 430 91 90 906 191 89 715 323 176 147 125 44 102 81 59 392 384 348 123 70 66 225 175 150
is_linear=0
shrinkage=0.05


Tree=39
num_leaves=22
num_cat=0
split_feature=9 9 5 8 8 3 5 3 8 3 8 5 8 8 3 8 8 5 5 5 3
split_gain=19.9531 6.79339 19.5776 9.43004 4.73539 7.47622 2.94037 8.49431 2.26445 3.30389 7.31906 1.73952 1.27024 8.79278 1.26529 2.34285 5.99916 0.962904 9.18354 2.19684 0.376427
threshold=4.5000000000000009 6.5000000000000009 1.012620837808808 0.49172823718859526 0.87086288416075663 17.291666666666668 0.99249342207088709 23.583333333333339 5.2666666666666675 1.0000000180025095e-35 3.0118563685636865 1.2583309185743266 12.500703234880453 16.527777777777782 15.708333333333334 0.65271942110177417 0.42796287439998598 0.42575187969924816 1.8015679442508714 1.8249607535321826 18.125000000000004
decision_type=2 2 2 2 2 2 2 2 2 2 2 2 2 2 2 2 2 2 2 2 2
left_child=-1 4 3 -3 14 8 7 -5 9 11 -11 -6 -10 -14 15 16 -2 -18 -19 -20 -16
right_child=1 2 -4 6 5 -7 -8 -9 12 10 -12 -13 13 -15 20 -17 17 18 19 -21 -22
leaf_value=-0.048707607149703708 -0.046414079847290325 -0.055419325485243733 -0.056240490950056704 -0.051951346919173462 0.022745404029299393 -0.0082318403445914515 0.079185453667790728 0.063449388179229349 0.054619994753963653 -0.059896936858756758 0.037078997739614587 0.048198189957106827 -0.049239277084177462 0.059719882151810677 0.057881837387767004 0.053242403975364665 0.049588862391540506 -0.067527574493972717 0.065584204445458288 0.02351825781553683 0.050951928886595367
leaf_weight=5.6352366490755221 2.0103032332845023 1.947354830801493 6.2392082775477311 1.9925775807350872 11.296392190270124 8.0142166819423419 8.3067703247070312 6.3092126846313477 34.473704683594406 2.8035649720113707 5.754371014656499 22.457085959613323 2.3614486514125002 7.0837886035442352 64.255251422524452 42.0213393419981 15.365335946436973 1.9698967663571227 6.7288870811462385 6.9454931803047657 86.328956454992294
leaf_count=1046 207 113 234 97 45 26 1 1 26 63 52 31 141 2 19 15 90 61 1 78 33
internal_value=0 0.0450939 0.0194279 0.0453036 0.0470611 0.0373527 0.0576736 0.0348674 0.0416518 0.0328823 0.00440747 0.0399199 0.0498929 0.0317242 0.0510758 0.0451202 0.0345034 0.0400422 0.0300928 0.0449069 0.0539786
internal_weight=0 344.665 24.7951 18.5559 319.87 94.2446 16.6086 8.30179 86.2304 42.3114 8.55794 33.7535 43.9189 9.44524 225.625 75.0413 33.0199 31.0096 15.6443 13.6744 150.584
internal_count=2382 1336 446 212 890 386 99 98 360 191 115 76 169 143 504 452 437 230 140 79 52
is_linear=0
shrinkage=0.05


Tree=40
num_leaves=23
num_cat=0
split_feature=9 9 0 5 4 9 4 8 0 0 8 5 8 9 0 10 4 8 4 8 4 4
split_gain=19.6176 9.64126 21.6787 12.0703 3.55419 9.99029 13.6583 1.94318 9.89637 1.79047 10.6103 1.40688 1.17918 4.38937 12.4556 21.6523 0.724162 2.56034 5.32567 0.718554 0.306328 0.00407165
threshold=4.5000000000000009 6.5000000000000009 4.5000000000000009 1.0167125735129907 2.658363960637383 5.5000000000000009 4.9888195995386946 11.370039682539685 6.5000000000000009 1.5000000000000002 2.8617571059431532 0.99249342207088709 0.58021146659374734 5.5000000000000009 3.5000000000000004 1.0000000180025095e-35 0.93169419618323623 7.5552325581395356 2.0265609165853484 1.2778749028749032 0.89951322400791656 1.2546688409266058
decision_type=2 2 2 2 2 2 2 2 2 2 2 2 2 2 2 2 2 2 2 2 2 2
left_child=-1 4 3 11 7 -6 -7 9 -9 10 -2 -3 20 16 -15 19 -14 18 -18 -16 -11 -22
right_child=1 2 -4 -5 5 6 -8 8 -10 12 -12 -13 13 14 15 -17 17 -19 -20 -21 21 -23
leaf_value=-0.048635391175366138 -0.048213731293176493 0.042854639882450633 -0.058695560224210352 -0.05408772153911149 0.048975439087084752 -0.097998688201313133 0.041691041577758256 -0.050588700457074913 0.058431854572757125 0.049083947153613 0.059937145098320627 0.07676580532506222 0.0559277132980633 0.051564342147595858 -0.098684737604700368 0.039580011179965492 0.0047964291731323093 0.059849889676747675 0.055240415479957783 -0.049616630053875371 0.059497158458771286 0.053810356202497904
leaf_weight=5.3957698335871092 3.0622161098290217 7.3481674704235092 6.9103349770884952 2.5222138124518088 17.613278442528102 3.0996877835132173 3.7196564730256796 2.8324659597128612 6.8852030038833618 42.24357114546001 7.7037166599184275 8.1443160171620548 85.102985886856914 35.656899170950055 3.3176801330409953 10.85823580622673 9.4773556990548968 19.397016525268555 12.322047987021506 2.1295353532768786 47.495606375858188 65.020538086537272
leaf_count=1028 329 122 206 129 27 45 3 141 2 34 9 2 35 35 28 9 46 4 10 68 34 53
internal_value=0 0.0462332 0.0157348 0.0447284 0.0482266 0.0290713 -0.02158 0.0495278 0.0259541 0.0501719 0.0285544 0.0613802 0.0508469 0.0477056 0.0350467 -0.000863603 0.0528423 0.0462275 0.0336601 -0.0816436 0.0543999 0.056306
internal_weight=0 402.863 24.925 18.0147 377.938 24.4326 6.81934 353.505 9.71767 343.787 10.7659 15.4925 333.021 178.262 51.9624 16.3055 126.299 41.1964 21.7994 5.44722 154.76 112.516
internal_count=2399 1371 459 253 912 75 48 837 143 694 338 124 356 235 140 105 95 60 56 96 121 87
is_linear=0
shrinkage=0.05


Tree=41
num_leaves=20
num_cat=0
split_feature=9 9 4 4 3 4 4 8 0 0 8 8 8 4 4 3 4 0 0
split_gain=17.4609 8.9432 20.2637 5.61159 12.7454 2.06136 5.68347 6.26738 16.7162 1.63879 10.2895 1.77655 3.64849 7.52503 16.08 1.8084 5.85024 11.8247 0.525332
threshold=4.5000000000000009 6.5000000000000009 2.0265609165853484 2.0424425661213368 23.583333333333339 2.3807367406539099 3.3667267260429008 0.26765671747978897 3.5000000000000004 1.5000000000000002 2.8617571059431532 1.2778749028749032 3.633986928104576 2.0708033357099231 0.12828489297261758 14.875000000000002 0.80523354908622669 7.5000000000000009 5.5000000000000009
decision_type=2 2 2 2 2 2 2 2 2 2 2 2 2 2 2 2 2 2 2
left_child=-1 5 -3 -4 -5 9 7 -7 -9 10 -2 18 13 14 -13 16 -14 -18 -11
right_child=1 2 3 4 -6 6 -8 8 -10 11 -12 12 15 -15 -16 -17 17 -19 -20
leaf_value=-0.048447226336151561 -0.048111406816921685 -0.05730852308051098 0.074675404997442865 -0.055778985695117966 0.061830368574545186 0.053382693092880684 0.049320005290099903 0.039978851154466824 -0.11572527456527848 0.050027389937805158 0.058987185226158693 0.050781004956606535 0.050517507072616374 0.0600790429816783 -0.067484862148854088 0.056407042688919655 -0.064154022327538196 0.056175158783820102 0.057809710074786858
leaf_weight=4.951865065842866 3.0483415159396809 6.7831518184393671 7.9620841327123371 3.5934190552216005 5.9500842094421387 4.0333213629201072 20.89927818858996 4.0387830534018576 2.8318580149207264 164.12389410659671 7.490146916359663 6.1682397574186343 26.082635970320553 7.8180882786400607 5.2004122764337808 35.207686603069305 3.6299302896950376 4.4062099456787109 43.787162393331528
leaf_count=995 339 355 2 90 1 8 26 14 46 165 8 3 33 11 101 26 132 1 11
internal_value=0 0.044889 0.0151972 0.043742 0.0169092 0.0469979 0.0340876 0.00425497 -0.0242196 0.0483077 0.027377 0.0490255 0.0425947 0.0226229 -0.00299862 0.0480095 0.0390583 0.00108737 0.0517174
internal_weight=0 363.055 24.2887 17.5056 9.5435 338.766 31.8032 10.904 6.87064 306.963 10.5385 296.424 88.5132 19.1867 11.3687 69.3265 34.1188 8.03614 207.911
internal_count=2367 1372 448 93 91 924 94 68 60 830 347 483 307 115 104 192 166 133 176
is_linear=0
shrinkage=0.05


Tree=42
num_leaves=25
num_cat=0
split_feature=5 0 8 0 3 5 0 5 0 3 3 3 3 5 0 8 3 8 5 5 5 5 5 5
split_gain=22.8006 10.982 3.52341 13.908 1.76687 8.25581 12.4434 2.1595 11.2023 1.93282 1.40681 0.817339 4.35704 9.91543 1.21371 4.98644 2.2286 0.6569 1.43162 1.36757 0.654111 2.31473 0.504441 0.154692
threshold=3.5407883125796653 1.0000000180025095e-35 11.370039682539685 6.5000000000000009 22.125000000000004 2.711532352006778 8.5000000000000018 0.23097492008851736 5.5000000000000009 20.833333333333339 17.583333333333339 1.0000000180025095e-35 15.708333333333334 2.6834415584415594 4.5000000000000009 0.49172823718859526 17.125000000000004 0.73412698412698429 0.99249342207088709 0.40606003039513688 0.43220338983050854 1.5985023041474657 1.3837562051847769 2.202471689895471
decision_type=2 2 2 2 2 2 2 2 2 2 2 2 2 2 2 2 2 2 2 2 2 2 2 2
left_child=1 -1 4 -4 5 7 -7 8 -3 11 -2 17 13 -13 -14 -16 -17 20 19 -19 -9 -22 -20 -24
right_child=10 2 3 -5 -6 6 -8 9 -10 -11 -12 12 14 -15 15 16 -18 18 22 -21 21 -23 23 -25
leaf_value=-0.047406685127946213 -0.053085468112109235 -0.060255992495846324 -0.050588715529771414 0.063284304043883674 0.053989194447238542 -0.076868828459220162 0.053771151334524939 0.051376518532217433 0.05807174468587474 0.020930771531667614 -0.13133564777648452 -0.05139694949407983 0.055179029700932074 0.056713934484863754 0.050907689978820961 0.040894653632556073 0.010021001823754648 0.052343186624412535 0.062646874683854853 0.028771130758550117 0.013676735850286822 0.047752403831800405 0.04445671271326436 0.056425099671512713
leaf_weight=3.1685927780345073 2.912792996037751 2.8466688969638181 4.4985342116560769 6.2742533683776855 54.37522216886282 3.4376019625924519 3.6388747692108154 18.357637739740312 6.0201458185911179 8.5861570388078672 0.96941050887107838 3.764479745179413 28.874417805112898 4.5714645385742188 51.521405138075352 10.404998901300134 14.687056411057709 15.964815158396961 30.974095935001969 13.024299792479722 8.0345175543334353 16.081426395801827 15.421852807048706 16.626302546355873
leaf_count=606 319 260 413 1 19 82 1 22 2 11 6 281 22 1 28 24 31 13 24 44 73 42 31 15
internal_value=0 0.0433919 0.0442717 0.0152451 0.0452071 0.0434195 -0.00918107 0.0448418 0.019277 0.0456969 -0.076688 0.0465244 0.0428866 0.00726826 0.0456443 0.0419184 0.0231335 0.049532 0.0523173 0.0420599 0.043272 0.0367095 0.0568821 0.0509775
internal_weight=0 341.155 337.986 10.7728 327.213 272.838 7.07648 265.762 8.86681 256.895 3.8822 248.309 113.824 8.33594 105.488 76.6135 25.0921 134.485 92.0114 28.9891 42.4736 24.1159 63.0223 32.0482
internal_count=2371 2046 1440 414 1026 1007 83 924 262 662 325 651 387 282 105 83 55 264 127 57 137 115 70 46
is_linear=0
shrinkage=0.05


Tree=43
num_leaves=18
num_cat=0
split_feature=5 9 9 0 0 8 8 5 0 0 8 5 8 0 5 9 0
split_gain=20.5716 13.1702 6.31217 18.1154 9.81247 5.02255 6.37113 10.9357 25.0014 5.15446 17.5343 4.02709 2.06512 10.5656 0.340752 0.161647 0.202874
threshold=3.6630333951762526 4.5000000000000009 6.5000000000000009 4.5000000000000009 3.5000000000000004 1.2509107468123866 5.2666666666666675 0.44183143262028485 1.5000000000000002 2.5000000000000004 0.49172823718859526 0.38097328483632259 11.370039682539685 6.5000000000000009 1.7392615830115832 5.5000000000000009 2.5000000000000004
decision_type=2 2 2 2 2 2 2 2 2 2 2 2 2 2 2 2 2
left_child=1 -1 5 4 -4 9 7 11 -9 10 -3 -7 -8 -14 -11 -2 -17
right_child=15 2 3 -5 -6 6 12 8 -10 14 -12 -13 13 -15 -16 16 -18
leaf_value=-0.047849992787034147 -0.049932112484735315 -0.052326113923584695 -0.049105286231740444 -0.056680579419345761 0.060650855402380091 0.015758742095619168 0.052651176292906457 0.056740571144614886 -0.068023856272564506 0.053028941006889631 0.067875752838515241 0.062142851911308472 -0.05066783778514853 0.062311341582937163 0.046388468717461474 -0.034272231616954148 -0.10568240492571675
leaf_weight=3.8575686577241859 1.6633429247885936 5.1050099278800172 2.2549598854966506 5.9001652777660629 13.899491850286722 8.4540100633166748 36.349034876562655 7.162171725183728 8.847250866238026 154.82314256764948 7.1167492866516113 11.730259050149469 2.9833302644547057 6.0605926513671875 48.505650257691741 0.49624748178757694 1.4323484690394253
leaf_count=846 212 390 187 189 8 53 25 10 104 57 1 8 141 1 29 65 48
internal_value=0 0.0424626 0.0435843 0.0173033 0.0448148 0.0455117 0.0346462 0.0186919 -0.0118916 0.0495832 0.0172446 0.0431352 0.0471883 0.0243494 0.051493 -0.0759559 -0.0923678
internal_weight=0 323.049 319.192 22.0546 16.1545 297.137 81.5866 36.1937 16.0094 215.551 12.2218 20.1843 45.393 9.04392 203.329 3.59194 1.9286
internal_count=2374 2049 1203 384 195 819 342 175 114 477 391 61 167 142 86 325 113
is_linear=0
shrinkage=0.05


Tree=44
num_leaves=19
num_cat=0
split_feature=5 0 9 0 3 0 5 10 3 3 5 0 5 5 5 3 3 5
split_gain=19.2669 17.5287 7.98808 18.551 2.9492 3.48679 7.08359 3.81153 5.94415 7.89223 3.35464 1.32147 1.22093 3.29004 0.902882 0.763737 0.671355 0.0872243
threshold=3.6630333951762526 1.5000000000000002 6.5000000000000009 4.5000000000000009 16.875000000000004 5.5000000000000009 0.16807440679621133 1.0000000180025095e-35 1.0000000180025095e-35 15.875000000000002 0.61518838304552603 4.5000000000000009 1.395831774302178 2.202471689895471 1.0480371550613603 17.583333333333339 23.583333333333339 1.2262095849575789
decision_type=2 2 2 2 2 2 2 2 2 2 2 2 2 2 2 2 2 2
left_child=1 -1 4 16 5 6 -3 8 10 -10 -8 -6 14 -14 -12 -2 -4 -13
right_child=15 2 3 -5 11 -7 7 -9 9 -11 12 17 13 -15 -16 -17 -18 -19
leaf_value=-0.049493704004237714 -0.052013965510139731 -0.0521863926325992 0.034121545527192702 -0.057535335412389754 0.060530937098735728 0.055188945978512982 0.0054249236991672526 0.051825024683145753 -0.052797513133538677 0.025604227188617087 0.034609543088078218 0.049956060477415548 0.009063055803401979 0.047060797535258325 0.057139204070855376 -0.11650968760560892 0.059447609967627948 0.044145146924199935
leaf_weight=4.9911761023104182 2.4264299140777434 2.0940666762180618 10.310780065134169 6.27367766550742 33.31219794228673 33.099866514559835 7.1394382566213599 35.238354220986366 4.3107194681651881 11.60599587485194 8.4561391940806079 82.234858692623675 9.1090825502760726 17.222630174597725 19.344889377010986 0.99514096230268467 5.3537740707397452 41.252456322312355
leaf_count=828 316 256 72 193 10 13 43 13 329 32 42 45 50 42 27 5 1 45
internal_value=0 0.0423081 0.0437421 0.0141905 0.04585 0.0405234 0.0361966 0.0379322 0.0314662 0.00386146 0.0385377 0.0508039 0.0427946 0.0341892 0.0506142 -0.0749677 0.0434168 0.0480926
